-0.037688743,-0.036808737,-0.049050815,-0.025344795,-0.08312812,-0.04016437,-0.06309478,-0.02119495,0.08390043,-0.08534405,0.0028527873,-0.028278207,-0.0012832179,-0.14050753,-0.022059362,-0.110220514,-0.089653246,-0.11368128,-0.0063961637,-0.021785455,-0.10491584,0.100813314,0.06259214,-0.0011012251,0.004938594,0.006153899,-0.107499205,-0.08453483,-0.031647183,0.07082875,-0.08473666,-0.054992355,-0.07971313,-0.016024634,-0.022966538,-0.040807143,-0.07540035,-0.15508124,0.009663503,-0.09753819,0.046621382,-0.017491985,-0.08135916,-0.060825698,0.09540961,0.06690304,0.08789376,0.06859253,-0.07352138,0.04093024,-0.047322825,-0.088555746,0.044813193,-0.09316249,0.055549603,-0.09323903,-0.07954281,-0.10859995,0.04071708,-0.02099336,-0.08027013,-0.08616454,-0.076160334,-0.10020313,-0.08030565,0.057304606,0.020193228,0.021461586,-0.07741919,-0.035415333,-0.068156175,0.04982469,0.054898668,-0.04233609,0.08222958,-0.017784461,-0.02545128,-0.028548358,-0.076330915,-0.105950825,0.06367877,-0.06149204,0.012349999,-0.07796311,-0.0996387,-0.11557709,-0.07354664,-0.10251479,0.05149057,-0.07597488,0.028023101,-0.08216156,-0.101691164,-0.07417428,-0.039657183,-0.08661812,-0.08824015,-0.036249317,-0.15210347,-0.0018297185,-0.010028361,0.05167653,-0.106517345,0.07963642,-0.076427564,-0.021451145,-0.024947152,0.04856666,-0.08035864,0.05262063,-0.049936373,0.061202005,-0.013121913,-0.041876007,-0.07854107,-0.029057803,-0.061701696,-0.02730442,0.07967767,0.028890612,-0.009658153,-0.10659394,-0.08168215,-0.067412525,0.04685124,-0.08478001,0.08436137,-0.0685946
-0.030492123,-0.027663391,-0.024743857,-0.011486629,-0.007417927,-0.028187193,-0.02328251,-0.043088615,-0.010060306,-0.008320618,-0.045612298,-0.032484245,-0.01954514,0.035126813,-0.028274648,0.02940589,0.014917698,0.019107888,-0.040361874,-0.014172107,-0.00026157827,-0.01878626,-0.01947052,-0.022070065,-0.04657145,-0.037128463,-0.02091985,-0.00053550006,-0.03171826,-0.025453378,0.009400665,-0.005684146,0.014433529,-0.027515072,-0.029770577,-0.016697936,0.029007299,0.04897614,-0.05693299,0.013074203,-0.017214816,-0.019023396,-0.012162848,-0.00865992,-0.0037121996,-0.022220802,-0.010073198,-0.016095402,0.008984157,-0.024656223,-0.009848146,0.013439711,-0.02171244,0.008546168,-0.000809198,0.025400726,0.008627183,0.019832304,-0.022832645,-0.011195629,0.0097924,0.010339465,0.010884979,0.008124237,0.003286584,-0.025518464,-0.028679106,-0.010752021,-0.0008111782,-0.027253378,-0.029237665,-0.01322169,-0.010082534,-0.034635704,0.018286167,-0.029377313,-0.026166119,-0.010191072,-0.0108384965,0.009049583,-0.024217855,-0.007208683,-0.05188191,0.011957703,-0.027536953,0.033190876,-0.026647123,0.0022675532,0.0018423251,0.02537629,-0.02967105,0.011526166,-0.019100798,-0.014650027,-0.006015173,0.010545599,0.013112885,-0.019906161,0.013107102,-0.049226683,-0.0340269,-0.007926998,0.03711104,0.017019806,0.011828123,-0.027638331,-0.04921463,-0.01975798,-0.008630715,-0.0072059133,-0.021030536,0.002593879,-0.038885705,-0.024152735,-0.01895889,-0.018896967,-0.012902998,-0.018382028,-0.014681344,-0.0301522,-0.029795853,0.0017638513,0.011898851,-0.032856684,-0.012822142,0.012979071,-0.009303945,-0.012766577
1.098166
0.6165588
0.028645648
0.009077691,-0.00055857847,0.008046575,5.4879536e-05,-0.013922868,0.005977953,-0.0135903815,0.007164724,-0.003330075,-0.02205725,-0.0021740538,-0.0033949676,-0.019406362,0.013705534,0.005037094,0.012147417,-0.003358915,-0.008177902,-0.013451679,-0.006873995,-0.0036579669,-0.009027895,0.011587088,0.008761195,-0.009741326,-0.018250315,0.0014596271,0.001952865,0.011738819,-0.004284803,-0.0038977906,0.014992131,0.0238747,0.009242242,0.004096784,0.009923164,0.026469637,-0.012681543,-0.008247823,-0.0047091637,-0.015026284,0.0120310355,-6.5753746e-05,-0.015294874,0.008732244,0.01853163,-0.00042319417,-0.025253348,0.0027306934,-0.005940445,0.024876578,-0.023756182,0.00517918,0.015994117,-0.024351537,0.0061304113,-0.0024880108,0.00094388356,0.0021915962,-0.023743907,0.006810902,-0.009165528,-0.017278198,-0.014185304,0.017171873,-0.014762909,-0.005087443,0.02449146,-0.0021174222,-0.012518002,-0.00216193,0.009084772,-0.0072224,-0.0022073651,-0.001350964,0.018561883,0.00017641208,0.0020553912,0.016576787,-0.017474853,-0.0030457282,-0.0012744928,0.01868859,0.002540923,-0.0069097537,0.009056029,0.0024900062,0.016906481,-0.002523002,-0.001417573,0.0054422086,0.013801187,-0.0027442104,-0.014861102,-0.0033868556,0.0133789955,-0.0019234938,0.013785601,-0.01905482,-0.020795835,0.0053225355,0.001937605,0.015580601,0.02565556,0.00460449,-0.0005692278,0.013333021,0.006759539,0.004816376,0.009218945,0.022337029,-0.013011937,0.018689763,-0.01778065,0.0029935993,-0.007246103,0.0031390446,-0.00089384825,-0.0055067036,-0.006949034,-0.04278106,-0.007893936,0.018821672,0.019776775,-0.031453375,-0.005281188,0.007209414,-0.005526548,0.042149086,-0.0058177053,-0.007346898,-0.003381907,-0.016478136,-0.0068165213,0.0028795341,0.017518628,-0.011781774,-0.042548314,-0.015116701,-0.013944403,-0.005580155,0.025628129,0.006295138,-0.012260207,0.029277578,-9.5844525e-06,-0.020548804,-0.00041827818,0.0050562974,0.0019175729,-0.00362712,0.0056752483,-0.015794065,-0.015372314,-0.029469885,0.0055145854,0.024489433,-0.008641828,-0.01302583,0.011937878,0.020669842,-0.0028548278,-0.016768795,-0.0018701518,0.02320197,0.009124747,-0.0052177846,0.00873601,-0.012578512,-0.0038951193,3.7250946e-05,-0.02972251,0.0011040997,0.023200745,-0.00088826416,0.0201831,-0.009812613,-0.00893609,0.0297903,-0.0033598258,-0.011037004,0.0029710054,-0.0025575336,-0.0068978625,-0.01334527,5.4404383e-05,0.0113610085,0.00012801384,0.0017849179,0.0066944812,-0.008028465,0.0071594384,-0.0071706614,-0.007930084,-0.023003237,-0.0019251028,-0.009612887,-0.01491412,-0.0014594637,-0.0015111313,0.0049304287,-0.012618184,-0.002260713,0.033958282,0.012257243,0.00068012526,0.017598804,-0.0074367113,0.0010217907,0.014800654,0.025073806,0.013488805,0.007174494,-0.005289183,0.013367751,-0.005060796,-0.006251927,-0.012149864,0.031211024,-0.011197263,0.00024405589,-0.026339792,0.0034599062,0.023529163,-0.005018946,0.0074495883,0.015518145,-0.0154024055,-0.0069891177,-0.001759686,0.00201919,0.012417726,0.00050567515,0.00057597045,0.020099457,-0.00049543264,-0.01608009,-0.00041689866,0.0032855747,0.00777989,0.017633075,-0.022615373,0.009169584,-0.0015704674,0.0013224354,-0.019344063,-0.004492188,-0.0019569253,-0.026035728,-0.022606809,-0.008865349,0.008310543,-0.021515418,0.0028534136,-0.02575383,0.005648188,0.008346578,-0.0040917923,-0.0015226047,0.0030366706,-0.015899125,0.005270399,-0.0230065,0.020686017,-0.01332595,-0.009878385,-0.0074458085,-0.015432851,-0.006940778,0.02025323,-0.009168506,-0.011500141,0.03817607,-0.00083130377,-0.0052918685,-0.024315031,-0.008842887,0.008856725,-0.002224098,0.0014561266,-0.008519635,-0.03761083,-0.018974423,-0.004756543,0.032558873,-0.037107717,-0.038956273,0.012435084,0.008677778,0.018034492,0.001342205,-0.026657328,0.034173813,-0.029945083,-0.005227829,0.008589778,-0.008970362,-0.018613385,-0.015643429,-0.033153933,0.007859352,0.02366277,0.021629158,-0.021136615,-0.022287589,-0.0020146102,0.029669648,-0.022499721,0.026001092,0.035507757,-0.017111985,-0.0018680475,-0.018342253,-0.028369382,-0.019638974,0.0072616218,0.021822065,-0.011758692,0.0025463724,-0.0038880818,-0.025546443,-0.030849801,-0.023930158,0.021095686,0.0003246066,-0.007862913,0.0009967758,-0.016373115,-0.004197745,-0.007916645,-0.021830542,0.02292796,-0.009590255,0.0018026655,0.031751424,-0.013404737,-0.009843478,-0.0037600305,0.046195712,0.015157583,-0.0041475054,-0.036759544,0.022427535,-0.0029873713,-0.022783192,-0.0146162715,-0.0009005664,-0.01647163,-0.0047699623,-0.014368078,-0.0023747152,0.021139722,-0.022879645,0.032897938,-0.010710778,-0.008291029,0.0076339734,-0.00555714,0.015282089,0.03024507,-0.008705008,-0.012393528,0.0023608766,-0.008955281,-0.01559953,0.024859576,0.012067671,-0.011328062,0.024304433,-0.011462224,0.020812156,0.0072468156,-0.038846172,-0.009353534,0.002359162,-0.0048571485,-0.01834975,-0.0094093345,0.010036818,0.007101885,-0.017157605,0.020764025,-0.02069055,-0.024589336,0.022133108,-0.024080513,-0.015978578,0.009161112,-0.0042598434,-0.013635931,0.00040300025,-9.162682e-05,0.016670814,-0.020302966,0.0075923954,0.018792454,-1.7789494e-05,0.025882775,0.018013734,-0.014856677,0.011267597,-0.009484112,-0.007156602,-0.0024275833,0.0031558305,0.004835015,-0.0014066492,0.011267,0.0053436426,-0.011327248,0.010415684,0.015240745,0.02625924,0.007197803,-0.026482394,0.016609652,0.020621963,0.013860135,-0.038801197,-0.0024689613,0.01680137,-0.0029648372,0.008455621,0.010272241,0.009717621,0.0018766889,-0.006143013,-0.017045774,-0.001981351,-0.0050552506,-0.00072825974,0.0054708887,-8.214486e-05,0.007393375,0.03536139,0.0071680625,0.023397148,0.021896355,-0.0061960323,0.005967684,-0.028944682,0.010616651,-0.007106408,0.0057433583,0.014431257,0.010098388,-0.011076768,0.018399566,0.0009783646,-0.018030893,0.007918428,0.030706743,0.005000746,-0.001740781,0.018733764,0.005183874,-0.0041340296,0.005635162,0.0007741655,0.013730148,-0.0028847235,-0.0023394139,0.018545363,-0.0036611785,0.015757747,-0.0017458204,0.022860458,-0.0005921306,0.0034022317,-0.0097610485,0.0063876845,-0.003460945,-0.003612135,0.006362207,0.00912365,0.013271944,0.001365565,-0.009928027,0.0075215283,0.0030600652,0.010772175,0.014330529,0.008195498,-0.015004394,-0.022827188,0.0013409236,0.00042381632,0.028914839,0.003833752,0.0011535693,-0.0081912335,0.019391019,0.00090787077,-0.00699135,0.011563249,0.0103442725,0.011653711,-0.009380105,0.0035008492,-0.005293741,-0.011088492,-0.0004941133,-0.020715589,0.0026665258,-0.0056115827,0.0067225215,0.0062443484,0.0030891658,-0.00091012346,-0.0015075161,-0.016329616,0.012024948,0.035010524,-0.0992835,-0.03546734,-0.04292282,-0.034673087,-0.01756294,-0.036785282,0.044746537,-0.0158858,-0.012311763,-0.02577707,-0.040946323,-0.0357423,0.04303269,-0.05492561,-0.05100411,0.043143973,-0.035087705,-0.06730404,-0.03684289,-0.007330434,0.05659756,-0.03807633,0.054473538,-0.0861236,-0.0711252,-0.06566744,-0.0386482,0.047916774,-0.02192708,-0.06916088,0.05437589,0.01243267,0.031643268,0.004483688,-0.0395823,0.068403214,-0.036804914,-0.02824796,-0.031608008,-0.05246724,-0.017233552,-0.055117887,-0.03807299,-0.0061928895,0.032613315,0.041174684,-0.019653969,-0.049615685,-0.054800004,0.03739134,-0.042246226,0.025210567,0.046847794,-0.056909874,-0.013976145,-0.023154799,-0.024491271,-0.0273579,-0.030815203,0.022056159,-0.016892284,0.014441926,-0.040793657,-0.025337854,-0.09316823,-0.029719947,0.03158551,-0.034432087,-0.045107074,0.037135325,-0.027018517,-0.03321259,-0.037180863,-0.03965032,0.06090864,-0.04203973,-0.025077794,0.021998066,-0.034251187,-0.03346722,-0.025900992,0.09271407,0.049698073,-0.03597841,-0.03808104,0.03244308,-0.037108984,-0.038116362,-0.040529273,0.03514482,-0.061930496,-0.025031896,-0.07427096,-0.025738345,0.035663236,-0.057881273,0.072125055,-0.037614323,-0.010914409,0.013237646,-0.034989648,0.04478768,0.040166806,-0.03948753,-0.042622846,0.046012696,-0.0103553785,0.010141971,0.03064744,0.035586033,-0.032921657,0.025357489,-0.006247153,0.058779128,-0.009375539,-0.04059254,0.021142947,-0.0076208916,-0.03722484,-0.009657,-0.05949065,-0.026269313,0.04398123,-0.054929856,0.034838647,-0.037487123,-0.039056793,0.02859489,-0.009672062,0.013041552,-0.0018896994,-0.010418247,-0.016744262,0.0037194917,0.02763372,0.0066433134,-0.0108330995,0.00058225845,-0.019482715,-0.008629274,0.04025892,-0.0033582167,-0.026976766,0.017580224,0.017775103,-0.017890494,-0.014401889,0.022623366,0.018806128,-0.006781477,0.01286182,-0.015746905,-0.01122606,-0.026337316,-0.023631316,0.030535456,-0.022740934,-0.019880679,0.014630423,0.006797795,0.028049855,-0.020151353,-0.0012205243,0.027443144,-0.025747614,0.0054676314,-0.00019445397,-0.017194802,-0.008745635,-0.005533681,-0.0027460644,-0.01071309,0.011518006,0.027459765,-0.009954344,-0.034604345,-0.014430329,0.007920828,-0.010414392,0.030497791,0.031778283,0.0019886235,-0.009112507,-0.01993873,-0.011567892,0.0015204616,-0.014151863,0.0047758897,-0.00789815,-0.009589916,-0.01258098,-0.0053088935,-0.03632075,-0.007378685,0.016124846,-0.014057696,-0.0037175086,0.0063525066,-0.011586334,-0.00038103617,-0.007855525,-0.005547692,0.009786939,-0.010950716,-0.00017330064,0.017546585,-0.005822095,0.015796315,-0.004265334,0.038483806,0.0042659994,-0.0030771364,-0.009698467,0.025632314,-0.010345762,-0.007455886,0.016447488,0.019923246,0.0006179356,0.016328318,-0.016914079,-0.0072377585,0.018909667,-0.014477496,0.026202047,-0.0106217945,-0.013260573,0.002108631,0.00310553,0.022229599,0.029568104,-0.014428227,-0.013637755,0.021254428,-0.006343446,-0.014817111,0.009803582,-0.003289006,0.00349228,0.019638557,-0.018954398,0.03191744,-0.0006380933,-0.0036284665,-0.012999328,-0.011992384,-0.015059469,-0.024631616,0.0031016367,-0.012790468,0.0067250375,-0.0029951876,0.00081833074,-0.009522784,-0.026783735,0.014378947,-0.03697414,-0.024215646,-0.027678084,-0.027026039,-0.0317334,-0.0069746412,0.037874088,0.0012554171,0.0044437842,-0.021808205,-0.01914156,-0.019015504,0.016231192,-0.044026446,-0.027361864,0.025843661,-0.014664056,-0.056617152,-0.0357685,-0.021439314,0.017612316,0.007143859,0.029559502,-0.04644261,-0.07017137,-0.06006326,-0.027607596,0.038394608,-0.0327385,-0.046701025,0.023026502,0.024872648,0.026177408,0.006855193,-0.02831609,0.061125536,-0.023858592,-0.0055557475,-0.0075932066,-0.030907169,-0.02089433,-0.041278988,-0.034776412,-0.009500443,0.03194655,0.030578522,-0.033230156,-0.05063,-0.017166622,0.028096633,-0.029390436,0.025467228,0.024961289,-0.0026661926,-0.0044658724,-0.0054400563,-0.03983856,-0.018324,0.011974326,0.039627057,-0.020568872,-0.0018980567,-0.030821262,-0.024604505,-0.036019634,-0.02260702,0.03508582,-0.020966193,-0.035605606,0.02644285,-0.022230273,-0.021461722,-0.021734206,-0.02299796,0.041571192,-0.022805069,-0.02336444,0.04435558,-0.011507313,-0.0024697357,-0.0020014886,0.052964147,0.024421379,-0.026436746,-0.0274425,0.021711485,-0.01992632,-0.01562385,-0.0024344109,0.0364852,-0.032888748,-0.029349059,-0.042420585,-0.018640336,0.03598614,-0.021690965,0.046287704,-0.014316447,-0.011015925,0.028169658,-0.01422293,0.030342404,0.0412346,-0.039028857,-0.027377702,0.018451603,-0.015452135,-0.0053099203,0.029371532,0.019342998,-0.00993376,0.02701549,-0.02010657,0.019550193,-0.010165503,-0.021355098,0.012939266,-0.029279565,-0.02614979,-0.017130204,-0.030628748,-0.011526252,0.034277458,-0.04101608,0.011746957,-0.016574996,-0.019522423,0.023342876,-0.01587014,-0.004705202,-0.0121252285,0.0013767012,-0.0024788408,0.01680688,0.00760524,0.0045653344,-0.00549027,-0.004307679,0.018032001,-0.0015447047,0.016026214,0.041347507,0.0073201563,-0.014199172,-0.018700054,-0.006359534,0.025084242,0.004085517,-0.0043293266,-0.005769884,-0.019799542,-0.019730221,0.009549118,-0.010607835,-0.0056792833,0.014843322,-0.014840018,-0.0039103865,-0.011461801,0.009047188,0.003125532,-0.021508418,0.008815156,0.005816994,-0.009588795,-0.0056899684,0.012343943,0.005201133,0.014539671,0.01928426,-0.0039288118,0.011238789,0.0052894442,0.014515309,0.007367604,0.0015951539,0.011118071,0.0030152563,-0.0016922939,0.016775059,0.0050823805,0.0106503405,-0.002378689,-0.020360935,1.45616e-05,0.018139957,0.010744702,0.03102458,-0.0034659805,-0.008488734,0.010834753,-0.0016932215,-0.003502457,-0.021707918,0.011176247,-0.0015125951,0.0032948279,-0.010752905,0.0028531454,0.0020599212,-0.0037055726,0.0017614806,-0.006676464,-0.008041557,0.008947779,-0.0082974415,0.0025549824,0.0010397856,0.010716388,0.007977978,0.000856175,0.0205475,-0.025358247,4.7156682e-05,0.000116224655,-0.009777288,0.017960442,-0.019694392,0.038999878,0.003854543,-0.019772494,0.016635649,-0.012026749,0.004355966,0.013393663,0.020051965,-0.020335095,0.0073197368,0.0037942727,0.010660632,0.030333819,0.02053829,0.015161343,-0.0025125958,0.012691785,-0.03470094,0.010869563,-0.001659795,0.023695882,0.014237783,-0.0059673376,0.016330954,-0.014095879,0.013593804,-0.011638886,-0.009344096,0.00497871,-0.027969146,0.003363707,-0.0068970704,-0.014174977,0.001073962,-0.008738694,-0.0066686375,0.0009202289,-0.009525505,0.0030534444,0.006568448,0.019599156,0.022608941,0.029198548,0.04259994,-0.028491762,0.008804614,-0.043445956,0.013413523,0.05556472,0.04607005,-0.022554938,0.03440652,0.023385892,-0.024849022,0.04242944,0.0008561576,0.06372215,0.037886485,-0.026898943,0.027365759,-0.022169406,0.0042449394,-0.0007362201,0.003016346,0.04391762,-0.03651251,0.021618528,-0.006031124,-0.015019093,-0.007031198,-0.013310846,-0.037144735,0.020752745,-0.05587275,0.032707967,0.021359663,0.039679024,0.034091268,0.051172744,0.06386186,0.020413768,0.011333283,-0.025084699,-0.02316431,0.021576982,0.030796627,0.06421228,-0.022065943,0.040863186,-0.00093900366,-0.023996867,0.037482545,0.018096574,-0.02226458,0.027509218,0.028297432,0.015520374,-0.027798118,0.025890633,-0.053086217,0.038350463,0.015849011,0.012706527,0.022075344,-0.018423613,0.013906038,0.025718825,-0.007668304,0.021582786,0.021077095,0.034487538,0.03232056,-0.04190055,0.025586288,0.03205329,-0.039303776,0.008266747,0.03379234,0.033284333,-0.06514639,-0.017577285,0.0065056756,0.009317414,-0.029913653,0.01713736,-0.0020128903,0.019440617,-0.020511493,0.04574055,0.032019038,0.016323417,0.026480662,-0.018668454,0.037969377,-0.04104179,0.0201531,-0.021770211,-0.05040008,0.017640488,-0.01608832,-0.0073315855,0.027496189,0.07773007,-0.020986365,0.025313115,-0.032952856,-0.003976325,-0.008217388,0.01817522,-0.01724271,-0.04259573,-0.024870494,0.023482762,0.03712618,-0.04458013,-0.008038209,0.00839328,-0.03224761,0.007035825,0.012068689,-0.016799994,-0.021234358,-0.03938198,0.004387279,0.03975424,0.023930477,-0.09836283,-0.03116192,-0.018071696,-0.036013186,-0.017643705,-0.042392127,0.04177507,-0.02045813,-0.015341645,-0.034716867,-0.051533896,-0.03300173,0.032277092,-0.03964459,-0.04784033,0.05433257,-0.031058514,-0.07179878,-0.055271775,-0.02831053,0.05367469,-0.028104251,0.028747382,-0.07019458,-0.08981101,-0.07579606,-0.030736528,0.053400427,-0.009477528,-0.06544937,0.033036027,0.028227467,0.04599121,0.008657641,-0.044683408,0.07372913,-0.039123856,-0.018911945,-0.027939454,-0.03352442,-0.047422208,-0.030527595,-0.03261836,-0.015879402,0.02620937,0.040132947,-0.036631025,-0.05306428,-0.027907433,0.041381862,-0.039645936,0.038844567,0.036721177,-0.054976456,-0.00974768,0.008816704,-0.045243166,-0.02158468,-0.022734001,0.028717207,-0.023106733,0.013413654,-0.039864697,-0.0037786146,-0.071120575,-0.038558852,0.054743033,-0.04225475,-0.044442937,0.035741538,-0.027718024,-0.040929493,-0.032335445,-0.070651665,0.0872512,-0.052213863,-0.023240363,0.049697366,-0.01999193,-0.051819846,-0.03497127,0.07484707,0.037248716,-0.035080764,-0.07519449,0.052540485,-0.037780117,-0.021426983,-0.037095305,0.017229183,-0.04238525,-0.03274474,-0.070249975,-0.023798797,0.055896282,-0.050685793,0.055690747,-0.03528182,0.0048430315,0.01527457,-0.013797701,0.04049007,0.034968138,-0.049533047,-0.05891666,0.0634042,-0.034887724,0.010378758,0.054604985,0.042086877,-0.0520078,0.017369542,-0.02248597,0.02992889,-0.031720623,-0.045303952,0.025200741,-0.0049808854,-0.045001037,-0.014077094,-0.06412951,-0.027454041,0.0475407,-0.08727834,0.023633692,-0.04058934,-0.033938766,0.009584052,-0.0010328711,0.007802065,0.001093129,0.030183852,0.024167374,0.0030340548,0.01849858,0.0033673153,-0.032188565,0.008309773,0.019500325,0.0040525044,0.0155408885,0.03333511,0.005474495,0.009956005,0.017579485,-0.005964092,0.019657731,0.006680239,-0.0052079717,0.009062535,-0.0010295494,-0.014057383,-0.018975202,-0.007842422,0.003441439,-0.014994788,-0.0077399383,-0.0064567127,0.0046673436,0.0043381457,0.008289554,-0.012430272,0.0032916907,-0.006297945,0.016465595,0.012449986,0.02090174,0.0051460844,0.026991934,0.026613828,0.006503389,-0.0038065983,0.001990289,-0.0050239176,-1.0680225e-05,0.010126649,0.01578451,-0.017384594,-0.005150966,0.009872618,0.0017837782,0.026982617,0.004841079,-0.019613737,-0.0012836468,0.010275464,-0.016012793,-0.0013895867,0.029617317,-0.022790221,0.0147133,-0.007213034,-0.012152215,0.022793068,0.014166359,0.02410313,0.009275442,0.015660511,0.007658391,-0.006608782,0.02351749,0.011098023,-0.002062116,-0.007744986,-0.0071475953,0.0065152575,-0.01286725,0.013499679,0.016324762,0.0092818625,0.0136250695,0.021650538,-0.0064442954,0.010129262,-0.008729608,0.01066406,0.0026450942,-0.0036248711,0.020074937,0.0044466597,-0.009601003,0.02232835,-0.005557505,0.02698709,-0.005121575,0.013432905,-0.013601507,-0.009884578,0.009904996,0.0006649079,0.004866879,0.025659632,0.010350387,0.0014631654,0.016551713,-0.009320327,-0.010939475,-0.021077422,0.0066600465,-0.0074706837,-0.013890748,-0.008605415,0.012122677,0.019831153,-0.025650512,-0.01760364,0.009914186,0.008660331,-0.010545218,0.0030709123,0.005441257,-0.018812329,-0.0141004855,-0.0037008428,0.016807048,0.022524556,0.013386974,0.004533723,0.010269877,0.0091847805,-0.008729293,-0.010053311,0.0287129,0.0044903047,-0.029536514,0.0031682204,0.015455664,0.0075313956,0.0057636965,-0.0073747705,0.0091254,0.00453263,-0.0065277335,-0.0049436805,0.0059499764,0.0027822696,0.01658429,-0.014859599,0.028385567,0.009006977,-0.017186442,-0.011086871,0.010460905,0.014969969,0.0036376507,-0.025831433,0.019448165,0.0055646133,0.0026305467,-0.010173456,0.00090111996,0.008455119,0.0010391014,0.0051819864,0.0065242443,-0.013123082,0.015130564,0.013698069,-0.010966997,0.017967721,0.0061464687,0.012437472,0.0044729593,-0.015902555,0.016259767,0.031162757,-0.015623863,0.010832196,0.01136119,-0.0020417075,0.0112199085,-0.013853548,-0.019652588,-0.0058871927,-0.00053379335,0.010216076,0.00039240936,-0.009196318,-0.0041649146,0.0066014626,0.0075845253,-0.004185165,0.019536942,-0.0061357236,-0.010528083,0.015628174,0.013192914,-0.0014505794,0.0033953034,0.005885399,0.009980933,-0.0060555753,-0.0056223692,0.0050720107,-0.004462618,-0.013808523,0.005163064,0.038370505,0.013359188,0.012190888,-0.00990103,-0.0025485866,-0.008816823,0.0017960924,-0.0038893041,0.017144123,0.022161778,-0.008663965,-0.026139267,0.0075245313,0.015424429,0.0026958107,0.009223961,0.0084271,-0.0093212705,-0.009417518,-0.017159438,-0.0005710437,0.005719808,0.024841132,0.009832122,0.008845166,0.00635005,-0.01626532,0.019236678,0.01709432,-0.0074602207,-0.0036928137,-0.000978399,-0.01404738,-0.005195958,-0.020176582,-0.025582833,-0.002434298,0.010372721,-0.026765773,-0.017579306,-0.010835487,0.018179474,-0.005953185,-0.0075647533,-0.0036122927,-0.009295247,-0.0074536735,-0.03321345,-0.0024752358,0.007188211,0.03414743,0.0153564345,0.011034301,0.004258398,0.0028255468,-0.042617407,0.012285487,0.022042643,0.01796311,0.0024461679,0.0335313,0.034513105,-0.015836166,0.019674053,-0.013290965,0.027123647,0.022172598,-0.009126858,0.017329244,-0.0022611718,0.0033288952,0.0065216757,-0.009383448,0.042891353,0.008264338,0.015088453,-0.0065042055,0.00039381575,0.01809549,0.016788462,-0.0109037105,0.002880289,0.00036456244,0.005205902,0.009013254,0.020041881,0.004297295,0.022231488,0.025908422,0.020718088,0.001173756,0.01994922,0.0007833524,-0.002272549,0.024847226,0.017604139,0.0014472024,0.0028578332,0.010666751,0.008606986,0.03462359,0.0063205743,-0.008999824,0.017769968,0.019638829,0.015291251,0.011284036,0.0108744595,-0.0252295,0.016969152,-0.0029455367,-0.0011884575,0.0040004756,0.004908792,0.0065870206,0.00023048637,0.006060305,0.020596076,0.01392665,0.009785615,0.02306969,0.008935173,0.0045709177,0.011946623,0.002382305,-0.0039203833,0.018637877,0.018136391,-0.013052316,0.01681438,-0.0021148974,0.010087646,-0.005271578,0.0014524166,0.009764323,-0.009475442,0.020944528,0.024203528,0.00324698,-0.0018484025,-0.005042824,0.0068165334,0.004371241,0.00501221,0.005205127,-0.023928814,-0.007872661,0.008031566,0.015095544,0.010163435,0.026756085,0.021426853,0.005708033,0.008607844,-0.032353852,-0.013157455,0.008104265,0.0038824386,0.01719675,-0.011739585,-0.00061020383,-0.0061217127,0.0057027712,-0.01583996,-0.0109394835,0.01345185,-0.021485712,0.01360057,-0.00014041743,0.0064564333,-0.0050739218,-0.0018916706,0.013103297,0.026054654,0.06667528,-0.05580897,-0.0788166,-0.08585591,-0.07738884,-0.08183821,-0.05966677,0.05550331,-0.086900644,0.027101379,-0.08589597,-0.05318566,-0.061182234,0.058248814,-0.07729513,-0.06710963,0.06030319,-0.07098341,-0.061271828,-0.07772225,-0.08924687,0.04006422,-0.06776307,0.051514644,-0.03502863,-0.04170856,-0.06387813,-0.060691807,0.06374525,-0.05979621,-0.03991798,0.0641042,0.049091958,0.04692079,0.009651667,-0.08536389,0.088081285,-0.06890633,-0.07221193,-0.07546564,-0.05757514,-0.086450234,-0.09020068,-0.06758409,-0.07428993,0.04199153,0.07110986,-0.06415646,-0.0769381,-0.09201238,0.05675627,-0.0655167,0.043913234,0.057340514,-0.05513928,-0.09575719,-0.007105972,-0.055136383,-0.069483645,-0.078181565,0.08527338,-0.07344013,0.017638672,-0.07028317,-0.07283328,-0.05138022,-0.07645649,0.04544091,-0.07817081,-0.10459486,0.046787687,-0.096666634,-0.07312418,-0.056767087,-0.077890515,0.07940532,-0.0687087,-0.08324867,0.06613453,-0.08175766,-0.09668364,-0.065744795,0.10291831,0.079804234,-0.080144085,-0.07156292,0.0700892,-0.09023536,-0.075182304,-0.08570795,0.0471767,-0.08900378,-0.06369846,-0.06453727,-0.08312959,0.055344973,-0.067832015,0.08845353,-0.08580706,0.0028003366,0.036919072,-0.088400476,0.06569725,0.043540474,-0.0678769,-0.06676742,0.06427412,-0.08329172,0.010821458,0.055133175,0.06624457,-0.08458928,0.059566434,0.0009779673,0.06740014,-0.11193134,-0.08375555,0.031419747,-0.0044546146,-0.08893976,-0.018881196,-0.061787374,-0.08339003,0.052909005,-0.056348994,0.06363029,-0.08823987,-0.082672,0.020415561,-0.0049283276,0.013046269,-0.0034191906,0.0021068975,-0.00617675,0.002511241,0.005504235,-0.007650502,-0.004758583,-0.011369146,0.0066061234,-0.0068201325,0.01069339,-0.0012346992,0.01572692,0.009420918,0.0072884867,-0.012028713,0.018804293,0.0002909176,0.005754864,0.00032976235,0.0065581133,-0.0049371496,0.012189897,-0.0123456335,-0.00017592807,0.0038018685,0.015250123,-0.01380112,0.018064031,0.0055631106,0.008229232,-0.0037673567,0.009935253,0.010087002,0.011830161,0.010605236,0.008635247,0.0070741437,0.01838408,0.005218774,0.00054524385,-0.003935675,0.0053107925,0.005186943,-0.0068379375,0.013303979,0.013755912,0.010140872,0.0016178716,0.0070790136,0.008996607,0.0037251771,-0.0030133137,-0.025079377,0.0077345716,0.008116129,-0.0064605186,0.0061701876,0.021207092,-0.010816295,0.0058630384,-0.00031863604,0.009757023,0.0035583882,0.01878653,0.004196127,-0.011556341,0.011390989,0.0005566212,0.018440979,0.0110054985,0.0068721697,0.01212639,0.004173479,-0.0004118884,-0.011503702,-0.015888782,0.005973089,0.014147777,0.017346451,0.0029409388,0.012051826,-0.018344166,-0.008993565,0.0024971718,0.0072429436,0.005001091,0.016228413,0.020548658,0.007954127,-0.012645185,0.005342427,-0.0038456153,-0.0009232585,-0.0017246453,0.015058503,-0.023803994,-0.0054371934,-0.006456258,0.011225839,0.009839203,0.016109874,0.018207712,0.0036707348,-0.0076442533,-0.010980805,0.016725738,0.015234862,0.00704372,0.017772727,-0.0057134707,0.03151999,0.0019280366,-0.015763098,-0.019583296,-0.022040475,-0.0027921065,0.0044180546,-0.006593892,0.0038044911,0.0034400166,-0.04274618,-0.005587359,0.005964654,0.040680926,0.03941737,-0.07197422,-0.057275284,-0.05312853,-0.06770101,-0.037508797,-0.074781485,0.0479476,-0.058546387,0.0041240193,-0.036367353,-0.06505768,-0.05019339,0.047185935,-0.074943416,-0.06617766,0.053194825,-0.052304223,-0.06933649,-0.039161548,-0.04413163,0.035600554,-0.032874845,0.043954447,-0.07223021,-0.07868,-0.054069337,-0.08503902,0.05848159,-0.06127589,-0.070142604,0.06113301,0.06460132,0.048880618,0.011501122,-0.04648809,0.08225722,-0.060607005,-0.05078893,-0.069369294,-0.08086184,-0.05956463,-0.059052676,-0.05606449,-0.042593215,0.027979821,0.066162206,-0.033874866,-0.048652094,-0.05588953,0.054283738,-0.058047194,0.045407403,0.054853264,-0.06866192,-0.06004276,-0.0012931348,-0.048177734,-0.05724945,-0.06156369,0.039755926,-0.055040028,0.0037917953,-0.041158125,-0.04201623,-0.060152315,-0.05515972,0.060121756,-0.049580168,-0.06390279,0.046787594,-0.054290604,-0.05518916,-0.053078298,-0.050221987,0.05682791,-0.044330567,-0.054964747,0.040448803,-0.05020519,-0.043968666,-0.04220924,0.10115427,0.05329112,-0.029178087,-0.054112826,0.051604122,-0.042999722,-0.040010985,-0.054291222,0.04524344,-0.073042646,-0.047864515,-0.06779015,-0.059124053,0.049925867,-0.06199449,0.08746541,-0.04377571,-0.011727854,0.045283213,-0.058197908,0.043532744,0.048109036,-0.04110818,-0.058055047,0.048509333,-0.044122107,0.021058641,0.041166343,0.041822474,-0.04438404,0.02923213,0.010155177,0.045109976,-0.045424487,-0.06712554,0.028267693,0.0067486195,-0.06613545,-0.015446285,-0.046841078,-0.052311305,0.03881967,-0.07034145,0.0257874,-0.035952616,-0.0745236,0.039004385,-0.08403493,-0.06536728,-0.053928092,-0.063403964,-0.064228736,-0.04329049,0.057263706,-0.04599118,0.0028662074,-0.06368689,-0.0503918,-0.0650176,0.072945826,-0.05608586,-0.05305452,0.08233956,-0.06436805,-0.056959108,-0.06516172,-0.047375463,0.048364893,-0.049608786,0.06820114,-0.07550332,-0.070712864,-0.06268309,-0.055893987,0.05895544,-0.070860945,-0.06274973,0.05722431,0.06540339,0.060798038,0.02615289,-0.039476052,0.10919794,-0.05801501,-0.065498225,-0.07564584,-0.0669338,-0.038881168,-0.055987265,-0.05610633,-0.064471714,0.059861783,0.046980593,-0.05071059,-0.07553977,-0.049452186,0.054716196,-0.047745097,0.04727364,0.061116863,-0.051052272,-0.07630489,0.018273491,-0.055128243,-0.042225704,-0.056310505,0.056759555,-0.068133935,0.02337211,-0.042175863,-0.05991535,-0.08298342,-0.0695966,0.0745685,-0.049702603,-0.042376004,0.057039198,-0.054181356,-0.04578941,-0.047076657,-0.04838844,0.103137806,-0.06022221,-0.03717474,0.056269363,-0.063701,-0.06034505,-0.07049136,0.11302563,0.058652412,-0.05734376,-0.07940946,0.06552375,-0.048653588,-0.044418547,-0.061264534,0.040998396,-0.075019754,-0.06891447,-0.07084143,-0.05940671,0.05711221,-0.072850905,0.09786171,-0.06080687,0.021909986,0.082827695,-0.06265589,0.06901087,0.06406537,-0.074914165,-0.052585494,0.051507864,-0.060460795,0.024424125,0.07185088,0.0511938,-0.054401025,0.061029773,-0.0056852885,0.056526456,-0.051218096,-0.077231325,0.057212964,-0.011945136,-0.05519438,-0.003923466,-0.056792796,-0.042899214,0.076987736,-0.09229592,0.079341054,-0.06275598,-0.07173083,0.0707088,-0.057049416,-0.059760056,-0.06061112,-0.06302283,-0.101018034,-0.053190067,0.078316405,-0.08138928,0.044172447,-0.061433434,-0.06838725,-0.053534772,0.07792761,-0.08694269,-0.050749037,0.107359976,-0.05841844,-0.07030857,-0.07870119,-0.0604564,0.07725313,-0.062190082,0.08762551,-0.06726801,-0.046273984,-0.02774317,-0.073344,0.0699583,-0.07072364,-0.041172303,0.08433294,0.077280894,0.09387047,0.04506442,-0.07221852,0.12368914,-0.046428565,-0.064680144,-0.08443514,-0.05613065,-0.055006765,-0.065695174,-0.048737403,-0.068313636,0.08721666,0.06276002,-0.06257425,-0.045671444,-0.05241313,0.08246118,-0.05148963,0.08181975,0.0984575,-0.065090425,-0.06840865,0.025406398,-0.048540656,-0.060390197,-0.08858001,0.0760513,-0.07023218,0.051758077,-0.03826228,-0.08278799,-0.032064173,-0.066028066,0.08460965,-0.06306692,-0.06769003,0.071818545,-0.055622887,-0.06293965,-0.059422776,-0.054696254,0.11674846,-0.05804335,-0.09041978,0.08966093,-0.050926603,-0.068242975,-0.07033787,0.12348346,0.07516363,-0.08136846,-0.039563753,0.07118794,-0.06474044,-0.07324742,-0.06391504,0.066882305,-0.06854659,-0.04837056,-0.05282957,-0.070595495,0.0921864,-0.09761381,0.12820666,-0.04580989,0.035503745,0.10669548,-0.06508557,0.0978133,0.08968788,-0.06278217,-0.06651708,0.075234964,-0.07645048,0.050867967,0.07713463,0.09381063,-0.071081385,0.08325204,0.012384651,0.07849462,-0.05232555,-0.049409937,0.07366648,0.023009919,-0.08025141,0.023743965,-0.07964643,-0.06443276,0.106502,-0.056342047,0.09925627,-0.074284464,-0.051347855,-0.0028715022,-0.0018606192,0.010994585,-0.017868273,0.01379241,0.020142118,0.0055347146,-0.004711917,-0.008141906,-0.019374074,-0.0021260947,0.018913724,0.0023889279,0.010331297,0.038110286,0.010517543,0.01224387,0.018285751,0.0042515006,0.032360826,0.0033439395,-0.0023414043,0.004920172,0.012223944,-0.013422501,-0.0066205678,0.013057657,0.036969982,0.005709993,0.007849961,-0.0008522711,-0.001246922,0.025347881,0.013960915,-0.030050691,0.0069427844,-0.00893232,0.016056383,0.009358432,0.013216846,0.014116961,0.024242237,0.015914254,0.0066809454,0.009705632,0.0056879097,-0.013014873,0.015602929,0.0019499349,0.025824081,-0.0034497792,0.013183452,-0.011699286,0.0010869055,0.0010564643,0.010613024,-0.0024302755,0.0065887026,0.014616749,0.0037269082,0.011092821,0.012935401,-0.017248211,0.009753737,-0.01887121,-0.0030059167,-0.0013837902,0.029489907,0.014169022,0.0024195986,0.011345259,0.0081917895,0.0010878933,0.016960302,0.010559875,-0.0026387114,0.012950788,0.016772913,0.0015129516,-0.004202623,0.00020377373,0.030407496,0.0054182517,-0.012370604,0.003100841,-0.009524785,0.006019495,0.012763447,-0.009972161,0.0054471022,0.0015921546,0.018490346,0.015035222,-0.00035441332,0.00888738,0.0009400243,0.032585982,-0.0012862642,-0.021286387,-0.041633062,-0.0306542,0.018238043,-0.0033591096,0.010456442,0.015238878,0.023019295,0.009311841,0.0006293358,-0.03237165,0.025609164,-0.008626972,-0.0070566954,0.009956404,-1.0528555e-06,0.023735609,-0.007008542,0.004921385,0.0018011216,-0.02444998,0.008672317,-0.01697599,-0.007275653,0.0015739051,-0.011448261,-0.024223391,-0.0026624408,0.009018278,0.023194296,0.02319299,-0.022592807,0.003962351,0.008644703,-0.0076444745,0.0007555277,-0.010709172,0.00222762,0.010067738,-0.021121759,0.019387964,0.017350167,-0.012289406,0.029021127,0.017728187,-0.0025332395,-0.005807659,-0.00017154684,-0.016935904,-0.007364695,-0.009375012,0.016710632,0.0006581133,0.01173838,-0.017242098,-0.00988868,-0.0030557003,0.018970242,0.012557872,0.0041665626,0.0072868676,0.013147713,0.014980648,0.008210813,-0.01388852,0.015331344,0.014013905,0.010718897,0.0012272642,-0.011953501,0.008566097,0.021866608,0.01887951,0.009685975,0.012402364,0.017902318,-0.0057333643,-0.0009929059,-0.0016870856,0.006245301,0.018245507,0.0048034783,-0.005811113,0.0033822157,0.0141571965,0.017288413,-0.008731751,-0.005098714,0.010419616,0.02219112,0.015146295,0.011953734,-0.012955248,0.012906761,-0.017008543,-0.012826766,0.0018019269,-0.0008272364,0.01770612,0.0029546507,0.0253102,-0.0016709339,0.0053277337,0.0012250599,-0.00036584967,0.017526686,0.0010152364,0.0064877677,0.011609227,0.010515778,0.003971124,0.0034968941,0.013072299,-0.0026071763,-0.015805846,-0.011529935,0.018899579,0.0125791365,-0.010544381,0.028207362,0.012834728,0.0041139256,0.01725598,0.009107224,-0.007808463,-0.00095065194,0.015737008,0.01364033,-0.00028197677,-0.012290607,0.0068435413,0.009646698,0.015485977,0.008568359,0.019251855,0.012635891,0.0020523085,-0.009033639,-0.015001092,0.021720964,0.0022793405,-0.013738546,0.026694072,-0.024909317,0.023482667,0.016292104,0.0003527301,-0.023111308,-0.020894922,-0.008718968,-0.022495158,-0.02185571,0.018790456,0.028550843,-0.014127172,-0.00907411,0.007075497,0.0015807177,0.07219635,-0.050473563,-0.07601535,-0.054819033,-0.0794408,-0.06282102,-0.074615695,0.07825349,-0.07285418,0.008322026,-0.09741926,-0.0886975,-0.09142409,0.05699956,-0.07223233,-0.08377488,0.07417227,-0.09084995,-0.06555574,-0.086847864,-0.06146971,0.06229047,-0.08777502,0.08717621,-0.06876385,-0.054944977,-0.050747838,-0.09013491,0.07208559,-0.09357188,-0.0638034,0.07240553,0.046857182,0.06443926,0.036520317,-0.08015762,0.1318206,-0.07233091,-0.07946785,-0.07759435,-0.078688495,-0.09830176,-0.086166486,-0.07811235,-0.061279967,0.05589972,0.09119507,-0.073246405,-0.05518904,-0.08143232,0.0722733,-0.06247315,0.08557045,0.089824945,-0.07288414,-0.08095695,0.027953327,-0.083017536,-0.10721417,-0.041323774,0.07562916,-0.091816954,0.06776083,-0.11783117,-0.084588714,-0.059617594,-0.08446254,0.07812914,-0.0779233,-0.095524624,0.06591963,-0.10173131,-0.084163085,-0.068144836,-0.06899085,0.11267917,-0.10263463,-0.087481365,0.07384204,-0.08918752,-0.08759741,-0.062006645,0.1182844,0.0577531,-0.111302905,-0.063668594,0.056304142,-0.08800895,-0.098228656,-0.08887999,0.06293317,-0.08676186,-0.11256695,-0.06815337,-0.06928336,0.0732271,-0.079096116,0.12860352,-0.055462748,0.011696841,0.09971644,-0.075709894,0.07007461,0.076222725,-0.06320165,-0.07808241,0.07661263,-0.072722115,0.042779837,0.060288798,0.080574915,-0.059219167,0.07712596,0.019162633,0.0664251,-0.061855,-0.07677828,0.066911355,0.00859051,-0.11026318,0.0028968945,-0.06998897,-0.05080282,0.06499571,-0.06920612,0.086478405,-0.052125882,-0.08738717,-0.0043560523,-0.007606853,0.019923981,0.017072571,0.050118096,0.024925102,0.0483122,-0.007283659,0.028356781,-0.029022062,0.027398638,0.054307353,0.03351932,-0.02363767,0.059262097,0.03745174,-0.030206095,0.019547094,0.0032022658,0.048157584,0.028402492,-0.02057666,0.01108637,-0.028049685,-0.0036785742,0.0012716225,0.00903492,0.029840432,-0.041354325,0.020508945,0.011490314,-0.039980788,-0.011512919,-0.01835679,-0.028818589,0.05003121,-0.07053057,0.043909002,0.038232002,0.048888125,0.037704058,0.051801253,0.0400969,0.030197324,0.025057277,-0.030520823,-0.014316074,0.04273972,0.024452627,0.05837889,-0.013484311,0.015473779,-0.005302663,-0.041467078,0.046170067,0.02433175,-0.015331904,0.03499985,0.03299832,0.044093065,-0.04387722,0.027826848,-0.05693487,0.02766446,0.024675462,-0.006701222,0.023310466,-0.016994927,0.043152463,0.0374836,-0.022602217,0.027039658,0.02262832,0.0300551,0.05243954,-0.05511326,0.029774344,0.027528694,-0.015633354,0.0394531,0.021318296,0.028743,-0.07749364,-0.013713366,0.028070955,0.022146838,-0.031785056,0.03492151,0.030298494,0.015715724,-0.041190237,0.060045786,0.011408512,0.013990905,0.008687098,-0.02655904,0.03961561,-0.08334517,0.012102911,-0.032613985,-0.05493717,0.033262197,-0.02853928,-0.018403104,0.043252476,0.03985285,-0.022323484,0.020366753,-0.040893067,-0.020033885,-0.020418284,0.03468101,-0.02185542,-0.013147826,-0.026280528,0.021202859,0.03314409,-0.054403685,-0.021907095,0.039808545,-0.02831068,0.006280988,0.005689197,-0.017725974,-0.013251479,-0.07430514,0.024622124,0.058428634,0.0050770054,0.00092920417,0.0056786602,0.018621065,0.0315321,0.025001632,0.0231416,-0.013745528,-0.004131569,-0.0021258467,0.024835184,0.046722297,0.031075854,-0.022806503,0.07096661,0.020317208,-0.015506858,0.022539236,-0.0041976934,0.052173287,0.019573256,-0.01742279,0.00277334,0.0013223774,-0.0011517977,0.005137874,0.0001481331,0.029257955,-0.014412863,0.015291409,-0.006210522,-0.016223572,-0.015895493,-0.010506789,-0.02096501,0.032788284,-0.049994256,0.027945174,0.024989966,0.045442577,0.0055459314,0.038120035,0.071644075,0.02509154,0.024891786,0.007980368,0.0019637223,0.044053998,0.0108552165,0.040826056,-0.0069782888,0.022047075,0.018204559,-0.0013697504,0.029027639,0.011625407,-0.03441125,0.030075042,0.019601578,0.02699874,-0.016970625,0.01562496,-0.021570165,0.050136235,0.022305336,-0.00883985,0.024291683,-0.0039873286,0.014756759,0.018364014,-0.009837877,0.024291703,0.014485623,0.0313444,0.027133819,-0.035884943,0.0077277464,0.023320543,-0.012919411,0.006782244,0.0037028582,0.015102051,-0.03774469,-0.017908731,0.017621186,-0.00907969,-0.017251654,0.026263328,0.021777354,0.018064337,-0.0038213762,0.03361945,0.008311268,0.0106205335,0.023452563,-0.007904282,0.03094893,-0.02365984,0.015451053,-0.015416267,-0.036765374,0.022718823,-0.011438008,0.00058296224,0.054434393,0.040410083,-0.013856081,0.0065743653,-0.04976673,-0.0089681465,-0.015899604,0.02551604,-0.013570279,-0.022864882,-0.011051451,0.017590025,0.03286138,-0.04529122,-0.03653271,0.037560686,-0.034184564,-0.008560763,0.018002255,-0.005849931,-0.0064005135,-0.0293005,-0.002761538,0.041152265,-0.0039620744,-0.009652385,0.00035035965,0.0069053276,0.0044118175,0.020265149,0.015173425,0.005662159,0.0145722125,-0.028061572,-0.0038794295,0.004230986,0.039660018,0.008463915,0.039946828,0.022971395,0.016259111,0.009106545,0.010660244,0.011432738,0.017022047,-0.009795672,0.013337279,-0.009807141,0.0028682402,-0.011918696,-0.012838934,0.010247229,-0.011240319,0.007228895,-0.0010954009,0.010179065,-0.017783133,-0.005744677,-0.013614538,0.01626498,-0.004059225,0.03287864,0.011970105,0.024785032,0.026679121,0.0332303,0.003291674,-0.0056407745,0.019566461,0.015468668,-0.0007854255,0.014760034,0.028249705,0.008928797,0.007696018,-0.010052799,0.010920732,-0.014184048,0.015263344,0.011726469,-0.026202442,0.013848501,0.013113193,0.008701534,0.00095381745,0.019816836,-0.006589398,0.011491155,0.010413114,-0.0109649915,0.01140804,0.010191613,-0.0007367427,0.0020410551,0.0127847865,-0.008597699,0.013506137,0.002628979,0.0052498025,0.0020102668,-0.0022763396,0.0064509376,0.0065883845,0.0073314263,0.00068430684,0.0127476305,0.0008270813,0.015330496,0.014374678,-0.016056156,0.0024095129,0.00568338,0.009666467,0.0025341148,-0.001698992,0.043018408,-0.0011261263,-0.0076191514,0.0013181656,0.0033812218,0.019922156,0.001199722,0.0001455968,-0.0214767,-0.027250098,0.008801485,-0.0011645444,0.0140073225,0.013842249,0.029909998,0.0018064929,0.015006072,0.0013140884,0.007916955,-0.00023103732,0.008962553,0.0038951763,-0.03546765,0.024375135,-0.0010341005,0.015946224,-0.008479774,-0.037691124,-0.0011467492,-0.031093875,0.012412815,-0.0020524508,0.00837468,-0.026097298,-0.010284262,0.0027888913,0.0075447476,0.0030174837,-0.0016850369,-0.0031386167,0.00168252,0.004612175,0.009610919,0.0017942599,0.0041763806,0.015647285,-0.01703454,0.0070753214,0.006916425,0.0024892667,0.021465104,0.042070705,0.013300991,0.011558795,0.01447143,0.0011354649,0.036789604,-0.00406148,0.0017231554,0.009162485,0.008134564,-0.020378036,-0.006866864,-0.011846039,0.0096300235,-0.014060714,0.020011056,0.002693983,0.009271843,-0.0007926703,0.005108517,-0.030150313,0.0066736997,-0.0001804429,0.02314263,0.008242865,0.026879348,0.009139481,0.025445914,0.018638596,0.002753549,0.0045462013,0.0091499705,0.0007734399,0.02848207,0.015706768,0.029545305,0.0039018407,-0.0064188032,-0.012263164,-0.008579287,0.010146272,0.038414165,-0.018149113,0.021558456,-0.004510272,0.008280763,-0.009013358,0.0059419153,-0.025347315,0.0014569396,-0.0063265264,-0.0020961296,0.0049018743,-0.0056728446,0.028818995,-0.003272503,-0.018891294,0.00870499,0.011743024,0.015750773,0.025110602,0.0029474949,0.011185874,0.006120152,-0.0016158221,-0.0017953987,0.0006524488,0.0012023164,-0.00831733,-0.008611093,0.010552422,-0.015323272,0.009805069,0.0045738756,0.008597553,0.028186297,0.018398354,0.025711248,0.012931851,-0.001943387,0.0032613566,0.009496344,0.034649733,-0.01340605,-0.0019189743,-0.014687584,-0.015446361,-0.00174548,0.014534967,0.0014004229,0.0369353,0.017879631,-0.0108083375,0.008927967,-0.020516932,0.002794087,0.011632227,0.0006525116,-0.0045257,-0.013186725,0.014227554,0.009140518,0.016588332,-0.016075427,-0.024570763,0.015089837,-0.008537347,-0.0057405373,-0.0029908973,0.012448319,-0.007434833,-0.00817678,0.014883076,0.01731027,0.017992698,-0.018594993,0.01308654,0.010582042,0.0053030523,0.013508997,0.007978396,-0.0018707504,-0.00035378605,-0.027261976,0.009929504,0.02196941,0.0069393846,0.0027658136,0.042736858,0.03873564,0.005769811,0.011225804,-0.024857137,0.013722829,0.009533663,-0.0054981085,0.0007925218,0.0032295864,-0.009053797,-0.005819045,0.020730978,0.011616217,-0.0032337923,0.021565832,0.0137811825,0.0018137264,0.020161565,0.0044960505,-0.022418104,0.01711062,0.010540494,0.016795998,-0.014094513,0.039617524,0.0076417625,0.022746656,0.008689415,0.008802752,-0.0024069117,-0.002774777,-0.00068255514,0.01746598,0.0071888245,0.030556474,-0.008205742,-0.0014776563,0.009396866,0.008004042,0.0025717285,0.018483056,-0.022014575,0.018147353,0.026494842,0.00064435066,-0.0056628217,-0.007878195,-0.024015596,0.017558763,-0.010826415,-0.0052839094,-0.0010507101,0.0041854274,0.024466626,0.014162487,0.0069052847,0.014317183,0.01263757,0.022031715,-0.0141980555,-0.0189449,0.014989571,0.0011933831,-0.011471795,0.0072854636,0.019225478,-0.009689752,-0.0093752,-0.0021894427,0.017979698,0.00097590825,0.002776565,-0.0140768755,0.0016426586,0.016971668,-0.003205521,0.04126535,0.012164403,0.002519459,0.0039110603,0.006550843,0.030221587,-0.008541532,0.012742188,-0.029225882,-0.007542861,0.018843276,-0.0057862666,0.0074632205,0.038124844,0.018970413,0.0011121538,0.00486456,-0.02945047,0.0086130565,0.017193194,0.0025354733,0.0029702159,-0.029306239,0.012602197,0.002724606,0.020078275,-0.034705456,-0.018623495,0.004311832,-0.009900953,-0.0069755837,0.01698239,0.0064746966,0.011938588,0.006087867,0.009042489,0.03282881,0.049234748,-0.07277468,-0.05206103,-0.026446342,-0.063781604,-0.04766906,-0.06275691,0.03523287,-0.040567417,0.021577125,-0.027355634,-0.061531495,-0.06227359,0.04589511,-0.0562729,-0.0669155,0.05039055,-0.0580015,-0.053524435,-0.05539955,-0.047789305,0.037231408,-0.06429322,0.04211601,-0.06551202,-0.066723116,-0.059962105,-0.056980357,0.0558475,-0.056010082,-0.057534005,0.063681945,0.044982463,0.045811623,0.005684918,-0.04850707,0.09935894,-0.049285,-0.032745436,-0.05439211,-0.046653423,-0.07218769,-0.05419369,-0.053753693,-0.058281302,0.04907407,0.037967965,-0.036983915,-0.076197,-0.059562955,0.06333906,-0.038371116,0.035698697,0.06276462,-0.057538025,-0.038779028,0.015696935,-0.05943577,-0.06756384,-0.02674488,0.047419675,-0.060903694,0.015908236,-0.06935819,-0.061185207,-0.059053633,-0.048866067,0.044933323,-0.05579911,-0.049970355,0.049866077,-0.07022616,-0.048235856,-0.055866845,-0.044123996,0.057397693,-0.042757683,-0.07124706,0.059308242,-0.042586155,-0.04121808,-0.044687938,0.105165005,0.057017006,-0.051225476,-0.049623717,0.04079161,-0.043263264,-0.040827826,-0.059296202,0.062519744,-0.05104791,-0.053905293,-0.07210528,-0.055085544,0.04137078,-0.07236103,0.07199826,-0.036656853,0.00093212974,0.02778813,-0.04563408,0.041138597,0.047378156,-0.053391937,-0.058308683,0.06373999,-0.054920856,0.012591311,0.045832954,0.03870127,-0.0403246,0.03592004,0.0027658392,0.046719838,-0.03780314,-0.05586087,0.016686032,0.02494494,-0.06125819,-0.042445004,-0.06605416,-0.05673714,0.04384293,-0.07526129,0.039455365,-0.0322485,-0.06974531,0.035091404,-0.114610784,-0.04938913,-0.03356453,-0.061797563,-0.039656844,-0.04946896,0.053295042,-0.048891664,0.0029733807,-0.040699903,-0.05971175,-0.05444606,0.0568789,-0.049667105,-0.048971396,0.05709348,-0.055636026,-0.0855927,-0.057045482,-0.05812314,0.054392003,-0.068088405,0.056441873,-0.07551844,-0.0755419,-0.07402945,-0.0575359,0.04896428,-0.051569916,-0.06750978,0.065959156,0.059354316,0.046943005,0.0008671695,-0.06040939,0.10457333,-0.052856233,-0.044257037,-0.062614016,-0.050582968,-0.06316754,-0.056727227,-0.05262301,-0.06749699,0.041878045,0.05455243,-0.036150053,-0.081549816,-0.061944712,0.051836394,-0.035184618,0.05804251,0.038820855,-0.0588948,-0.055970985,0.01889185,-0.058700394,-0.046540175,-0.04859585,0.07379435,-0.053922318,0.019973274,-0.054732464,-0.051391985,-0.07730581,-0.043559182,0.0687959,-0.056820083,-0.060753815,0.08293429,-0.049647864,-0.05987665,-0.036270287,-0.057673372,0.09648044,-0.048885114,-0.038282927,0.068821326,-0.051258612,-0.059205357,-0.044819824,0.12780868,0.058013126,-0.047374956,-0.050349988,0.04644578,-0.06428541,-0.060727634,-0.06128217,0.05725203,-0.04774086,-0.0354777,-0.06850961,-0.059167996,0.053553563,-0.054627348,0.082069136,-0.06878884,0.0021967504,0.05498894,-0.06817032,0.0597731,0.070387654,-0.06754141,-0.05436038,0.031971738,-0.03900749,0.030796679,0.06788589,0.06428386,-0.0487582,0.06411338,-0.0013560447,0.0710127,-0.039827567,-0.049386848,0.05302527,-0.024533749,-0.04089162,-0.012369918,-0.06003816,-0.04558832,0.062404078,-0.07900183,0.053591307,-0.05144099,-0.053267583,0.0045525245,-0.03061537,0.012418948,-0.0093095265,0.013805657,-0.007370942,0.007707167,0.017822789,0.00583013,-0.0047278195,0.0016934916,0.0021618651,-0.0016228331,0.017352562,0.002113055,-0.00891337,0.0112144705,-0.013141951,-0.011665818,0.0015257783,-0.01353542,0.030163389,0.0033288049,0.023660025,-0.015859896,0.0065807886,-0.0056427508,-0.0036807102,0.021988297,-0.0040402766,-0.0059210937,0.009173222,0.01989434,0.0034895705,-0.030901283,0.018589037,-0.0069599235,-0.0083245635,-0.0054378556,0.0050368216,-0.0056220572,0.005188328,-0.0030293611,-0.022888191,0.0006789248,-0.0035096232,0.026056286,-0.012243017,-0.02876458,-0.0066103865,0.012699287,-0.0035606034,0.016427051,0.0227575,-0.0025805829,0.017246801,-0.009102715,-0.012892043,0.008681838,0.008833521,-0.0002161082,-0.0046433043,-0.0056199036,0.006326123,-0.015086006,-0.010080104,0.009111153,0.0064523467,0.014917303,0.010698449,0.005092203,-0.004797509,0.005700613,0.004248456,0.0013056409,-0.007134537,0.006660428,0.00043226764,0.0069221905,0.006029498,0.010041279,0.0010442596,0.045425076,0.008252756,0.017135806,-0.028302496,0.01729154,-0.020337854,-0.0020230417,0.0050939913,0.004967277,0.009707712,0.007743442,-0.009779531,-0.012110252,0.005255881,0.0005125093,0.015015303,0.014357809,-0.009981621,-0.020589035,-0.009090154,0.0027755585,0.012836793,0.010522544,0.0027591193,0.023499612,-0.008951583,-0.0073992372,0.0132902935,-0.0007767069,-0.00093206775,0.004347022,-0.025151651,0.0012030182,-0.00077200995,-0.009201075,-0.021893686,-0.005987756,-0.0019249043,-0.014480775,-0.005052072,0.0030161398,0.017689688,-0.014213859,-0.0151265925,-3.2240463e-05,-0.008018018,-0.008840595,-0.013834019,0.014003388,-0.009846669,0.02872413,0.013751558,0.03990735,-0.020858144,0.017890818,-0.034170352,0.013502626,0.0403738,0.035762344,-0.010239194,0.06753957,0.019462839,-0.011218081,0.041102335,0.009903858,0.07209928,0.024449212,0.00025569642,0.033999722,-0.0060332925,-0.016455797,0.0010557725,-0.009143153,0.025996588,-0.03233515,0.018926883,0.0051671066,-0.024853189,-0.008743926,-0.023016568,-0.025600139,0.029179884,-0.01700183,0.01698407,0.014448363,0.055454683,0.0039072973,0.030611945,0.052207734,0.033588935,0.0014086659,0.0029434098,-0.029434396,0.042401627,0.013411088,0.059262093,-0.017448638,0.01893258,-0.0014188954,-0.016138952,0.055009887,0.0102243135,-0.037411302,0.03729883,0.026788492,0.014037588,-0.026034199,0.005139595,-0.039705854,0.029595656,0.0030600203,0.001307561,0.0150881745,-0.008653754,0.01522269,0.006644953,-0.016160136,0.03628742,0.013958355,0.037372094,0.03181537,-0.042958524,0.021921601,0.039901555,-0.009996154,0.018372897,0.025140021,0.001614724,-0.047258306,-0.008787837,0.0063087284,0.011402922,-0.013315946,0.008038147,0.011942404,0.032690816,0.005969284,0.06954234,0.019414553,0.0054916106,0.024248758,-0.03716407,0.057542223,-0.03930623,0.017882157,-0.015011587,-0.02105087,0.021729192,0.008219569,-0.025373267,0.01945354,0.03749632,-0.007804198,0.014328435,-0.045069914,-0.0130643565,-0.012922965,0.017253023,-0.0073104235,-0.01600883,-0.0055552507,0.031520084,0.04035537,-0.058367867,-0.04247809,0.028045848,-0.015738094,0.02121,0.015644442,-0.02358617,0.0066544088,-0.045432925,0.012327297,0.040524982,0.03863758,-0.08478989,-0.024462575,-0.054410823,-0.02923471,-0.008992381,-0.05245355,0.05109518,-0.03537532,-0.0040641297,-0.047890123,-0.03131067,-0.0510004,0.051946577,-0.076930106,-0.06778044,0.05138722,-0.04172055,-0.072371155,-0.04229346,-0.041502707,0.050795816,-0.044040192,0.05369838,-0.083146706,-0.06828453,-0.0652119,-0.051009018,0.047782723,-0.030318415,-0.06365853,0.06475377,0.037970267,0.038886037,0.015103306,-0.016564427,0.06141801,-0.061614767,-0.029965118,-0.03853905,-0.047374263,-0.042032182,-0.06222133,-0.03195261,-0.020932509,0.04773626,0.040641066,-0.04723913,-0.04435971,-0.05724536,0.047494166,-0.03845213,0.032196566,0.060228504,-0.048187107,-0.035386413,-0.0019849217,-0.033426706,-0.045921735,-0.034034986,0.051297218,-0.02987177,0.021512097,-0.034840636,-0.04626315,-0.081647,-0.027073814,0.057252407,-0.049380664,-0.031249598,0.028178131,-0.028603965,-0.050414346,-0.041802224,-0.03475181,0.08479957,-0.024609655,-0.019814515,0.053884808,-0.042785157,-0.028771888,-0.02125272,0.098253466,0.08239517,-0.033576775,-0.070444226,0.043692436,-0.05531075,-0.029105049,-0.024113683,0.05733827,-0.046185765,-0.03717876,-0.062410735,-0.04253936,0.051030304,-0.070759356,0.06986817,-0.038415086,0.009625468,0.018292941,-0.040903363,0.041828424,0.048525415,-0.051094756,-0.05077761,0.04466729,-0.03974931,0.02483893,0.04255174,0.061140224,-0.029104823,0.040866286,0.0028132084,0.036421712,-0.036755025,-0.05674368,0.040366292,-0.013898417,-0.033828005,-0.01596223,-0.062439956,-0.04207756,0.0424363,-0.10221573,0.040184718,-0.023667593,-0.04019602,0.02243385,-0.0155785475,-0.00814998,-0.0042856266,-0.014348831,-0.002220433,-0.0155152455,0.0068041696,0.0119298445,0.0026106066,-0.014425284,-0.021853207,-0.015872896,0.021015605,-0.024546815,-0.03320089,0.017304106,-0.012525576,-0.026842033,-0.021957073,-0.017880343,0.012044247,-0.022024581,0.02972622,-0.028585702,-0.02216534,-0.0523412,-0.040820077,0.03910415,0.011352341,-0.029449528,0.02475115,0.008068063,0.027010322,-0.0057369308,-0.0032744133,0.043476067,-0.04028075,-0.014932719,0.0033372699,-0.04666152,-0.029924488,-0.025294408,-0.029098982,-0.0059491186,0.030951872,0.026472112,-0.037716676,-0.015270043,-0.0065685324,0.02658686,-0.018693615,0.0111766765,0.045725398,-0.023999631,-0.011737589,-0.023642197,-0.021640271,-0.028442867,0.007280976,0.013577694,-0.0020344201,-0.008437859,0.0030489538,-0.008788159,-0.032503027,-0.019330023,0.0041144704,-0.0077252607,-0.018014219,0.031438444,-0.009685578,-0.00038301712,-0.022178756,-0.025288157,0.035736702,-0.030002132,-0.014527782,0.038232956,-0.021277398,-0.035433043,0.015436276,0.037067465,0.03614738,-0.01764517,-0.03185863,0.01444098,-0.019333817,-0.0040077586,-0.0016577964,0.015532482,-0.029353598,-0.0061374684,-0.05507104,-0.024017435,0.027204897,-0.024615401,0.02272297,-0.015672693,-0.01510314,0.0051375334,-0.008264315,0.018634941,0.00895259,-0.02185425,-0.018208912,0.033202015,-0.0028941936,-0.005919435,0.022503227,0.026083985,0.0034100513,0.010576045,0.0027291402,0.040018253,-0.00052435143,-0.013937947,0.009430789,-0.0278501,-0.030855749,-0.007186051,-0.0246299,-0.014713464,0.033523,-0.029271403,0.03195229,-0.023607457,-0.021929594,0.05601242,-0.099386014,-0.048577685,-0.038530275,-0.054583687,-0.03239896,-0.06346058,0.06619917,-0.05139641,-0.0022079716,-0.0480853,-0.051817764,-0.041218754,0.05431973,-0.034003973,-0.035047732,0.05445476,-0.05211605,-0.054856367,-0.034190007,-0.04568105,0.055040468,-0.039740775,0.0404412,-0.0887597,-0.07297281,-0.082098395,-0.052351095,0.07032298,-0.041702703,-0.06749816,0.057777517,0.03517687,0.05968558,0.015304337,-0.06607818,0.09585052,-0.049027022,-0.032971732,-0.038179226,-0.050699048,-0.05630397,-0.0475247,-0.040996734,-0.027067116,0.04727144,0.046747353,-0.03976255,-0.04557948,-0.04186199,0.05473216,-0.039369512,0.03365005,0.06472179,-0.044058885,-0.020947354,-0.008229261,-0.03154557,-0.033236258,-0.03512211,0.056697004,-0.046176553,0.014650702,-0.04648145,-0.042171597,-0.08731077,-0.031223243,0.051808625,-0.043891415,-0.058810223,0.056852255,-0.042278055,-0.011837318,-0.029296625,-0.030333031,0.09070296,-0.033666316,-0.064371295,0.055321973,-0.059167124,-0.047255136,-0.024933593,0.109940745,0.05099214,-0.04735574,-0.051079404,0.046797004,-0.046203382,-0.057387386,-0.056530878,0.047345813,-0.04644503,-0.048450507,-0.06667639,-0.02775587,0.074305505,-0.05811829,0.10140876,-0.022750586,0.007855613,0.059490513,-0.04458546,0.06097347,0.059488438,-0.06333107,-0.06224988,0.053838942,-0.03298421,0.048925497,0.05015873,0.0737862,-0.03517207,0.05742563,-0.021428315,0.06826131,-0.042785104,-0.0404561,0.04746025,-0.015790349,-0.053312074,-0.012549068,-0.06362202,-0.04189277,0.033173077,-0.06811988,0.04383639,-0.02899254,-0.06256895,-0.003329202,-0.0070378957,-0.005272196,0.006281853,-0.004548713,0.0010004683,0.008903424,0.024880432,0.018755212,-0.02909709,0.0019824558,0.029603848,0.023138737,-0.002053251,0.018875029,-0.0061852704,0.0031664756,0.0068492857,-0.016420383,0.044075895,0.00078721554,0.006345271,0.009163391,0.00838059,-0.015982082,-0.012574437,-0.0019048093,0.012481996,0.0022928189,0.0035305163,0.008073718,-0.0019051445,0.012755001,0.01363134,-0.025458498,0.023311518,0.0055975323,0.019122222,-0.0038604536,0.03425123,0.021501388,0.021567361,0.022875419,0.010023372,-0.009939322,0.006078316,-0.009231626,0.008940122,0.005898337,0.0068557784,-0.0063333567,-0.018849941,0.008501805,0.0058336793,0.012146477,-0.0060213176,-0.027613834,0.0033080513,0.00061767304,0.004280953,0.0038109322,0.0048908633,-0.02388605,-0.007545073,0.006092999,-0.0034936648,0.008690378,0.0023537995,-0.013975601,0.012205847,0.02240347,-0.003327729,-0.015640985,-0.002691083,0.003289645,0.009411862,0.010230845,0.00390468,0.0014136469,0.01146478,0.011084295,0.010759215,0.006876992,0.0088698305,0.010451159,0.0009549468,0.0059279036,0.0065922565,0.006633689,-0.025993258,-0.004575054,0.015232538,-0.0013175983,-0.0076650316,0.009863271,-0.01226111,0.014174868,-0.0012700297,0.021811947,-0.015811728,-0.008828105,-0.004784127,-0.009917834,0.009122604,0.025025062,0.01690405,0.012061198,0.013933446,-0.029499866,0.024963008,0.020012552,0.017372336,0.004586519,-0.0052443426,0.005342852,0.01240407,0.0050321757,-0.018150037,-0.009202351,0.00028664718,-0.023114657,-0.0020460004,0.0013089711,0.024574384,-0.01854304,-0.022321085,-0.011871075,-0.0024628458,0.0078818,-0.006914338,0.010769307,-0.006063473,0.008450489,-0.010735466,0.003501718,0.019297807,-0.010871045,-0.010398075,0.009035165,0.019224696,0.021537077,0.0072250064,0.008712245,0.027595904,-0.007948683,-0.01954228,-0.010802964,0.014990803,0.029651806,0.0034416004,-0.0006511506,0.0061170007,0.0040953048,-0.006071637,-0.0052329623,0.01992216,0.003050933,-0.0121441595,0.011144933,0.0016345909,0.0043333448,-0.012313623,-0.0112504,-0.0016176756,-0.0011577196,-0.0031307111,0.008597073,-0.0030190768,0.00893779,0.022599468,0.029100593,-0.0035187604,0.00067178486,0.0033161985,0.014659157,0.03142775,-0.010650718,0.018957963,0.0023313812,-0.0011778622,0.024006646,0.015472018,-0.011985914,-0.0024484931,-0.024376286,0.0075278254,-0.008201058,0.020199157,0.00688836,0.012457819,-0.047536366,0.004960756,0.0037105754,-0.0072009056,-0.015995307,0.0016559226,0.012889258,-0.011000183,-0.005346339,-0.007404262,0.0042919684,-0.008045926,-0.016265381,0.020064348,-0.015124462,-0.0046769893,0.010328744,0.01648937,0.0031138498,0.004968903,0.019860359,0.0030720434,0.004086034,-0.0018212346,0.0013057038,-0.007088662,-0.0066451738,-0.015527836,-0.0066674463,0.027412705,-0.0007778374,-0.01044289,0.0020952593,0.0070409137,0.029677657,-0.008157181,0.009570489,-0.021320548,-0.0049919896,0.011008956,0.019251417,0.014074379,0.020139677,0.009208301,0.0017383572,0.020338533,-0.01218349,0.008609663,0.024732511,-0.011785048,-0.003403187,-0.021799235,0.024190944,0.0053778654,0.0074420217,-0.022482466,0.00093722873,0.009780127,-0.033567492,-0.0015740234,-0.007880745,0.009951857,-0.006851697,0.0053725373,-0.0014698853,-0.004644632,0.026951712,-0.01790857,-0.005646195,-0.0038427329,0.009870906,-0.000116250165,0.01175627,0.016894137,-0.0015111215,-0.008095132,-0.01012896,-0.03578968,-0.010679987,0.0125194555,0.0048443833,-0.014813885,-0.0014685731,0.0038797804,-0.0092230635,-0.01602362,-0.0029470725,0.032441765,-0.015225348,0.036512967,-0.014597543,-0.021958446,0.006527018,-0.014470899,0.020490564,-0.009024957,-0.0064556613,0.0073078717,0.017792832,-0.00012272908,-0.011566781,-0.016736686,0.03567245,-0.021141795,-0.0135306325,-0.030382697,-0.011219163,0.0030376713,-0.0072325836,-0.0062452354,0.0050257454,0.007964183,0.007642968,-0.012938045,-0.035483267,0.0016322297,-0.0046453504,0.0023037067,0.007890331,0.021694213,-0.0029186176,-0.0019300247,-0.025382308,0.0031756551,-0.021275235,-0.013100748,0.02673593,0.013187064,-0.023231985,-0.0020455236,-0.0017123781,-0.011307842,0.013394634,0.01942506,-0.010384364,0.0006780748,0.015434377,-0.0035467783,-0.0104921535,0.005949537,-0.010538772,0.013639641,0.003906601,-0.022890583,0.021608597,-0.0067163804,-0.0048552467,-0.011318124,0.038741615,0.007663101,-0.015827604,-0.024040455,0.010328175,-0.004544857,-0.0042933873,0.00057645707,0.013163107,0.004955011,-0.007461507,-0.018783802,0.007823966,0.015771762,0.014666828,0.016293064,-0.013134907,0.0062904004,0.011636614,0.0027876014,0.010813473,0.0099561205,-0.016333852,0.0001943921,0.019952184,-0.0066062612,0.0027872177,0.009306836,0.019447748,-0.0056148726,0.02530091,-0.020357711,0.01408325,0.014852538,-0.020014592,0.025549421,-0.016015012,0.006618516,-1.960926e-05,-0.03329051,-0.0045456784,0.013000878,-0.007895259,-0.0023055307,-0.0054655275,-0.01208783,0.040891327,-0.07519164,-0.030196972,-0.039941695,-0.057987235,-0.032976665,-0.045559056,0.06456736,-0.03639603,-0.0053954683,-0.0489657,-0.047849983,-0.03232875,0.055372767,-0.057405498,-0.044857945,0.03894463,-0.029005772,-0.09059495,-0.040555228,-0.0131071,0.05527774,-0.024483526,0.060668003,-0.09803625,-0.07867528,-0.107902125,-0.058524895,0.0660474,-0.024375847,-0.076904535,0.051374756,0.03660044,0.0347853,-0.007991533,-0.054181248,0.0866268,-0.068869896,-0.027538834,-0.050370887,-0.049190026,-0.056860894,-0.039609853,-0.05893421,-0.030680472,0.04747586,0.051045723,-0.042363796,-0.048597936,-0.047640897,0.04913302,-0.043160044,0.03988363,0.05490879,-0.026163952,-0.047484748,-0.002387392,-0.05106767,-0.03196614,-0.02403271,0.04046774,-0.020621931,0.013140718,-0.026524734,-0.04259532,-0.09050858,-0.039798815,0.063529365,-0.025577174,-0.016588112,0.049989995,-0.022283603,-0.024003478,-0.043299567,-0.036538433,0.08049225,-0.028570984,-0.021847054,0.023060111,-0.047183894,-0.025841478,-0.037457373,0.11269792,0.044665404,-0.039795548,-0.059252914,0.03930534,-0.03623581,-0.04313252,-0.0206739,0.0554956,-0.041996136,-0.03526868,-0.0665934,-0.030039765,0.05100526,-0.048385877,0.0753234,-0.04365037,0.0096403435,0.060403347,-0.015289018,0.055027362,0.048757423,-0.04905086,-0.038969968,0.04928576,-0.040698238,0.0069103083,0.047398627,0.066121414,-0.025998214,0.06919142,-0.017537544,0.063023254,-0.026230166,-0.03439072,0.04331084,-0.031237196,-0.03735767,-0.009760047,-0.05603283,-0.04294739,0.034038235,-0.046420753,0.029362654,-0.01550524,-0.043736387,0.099445075,-0.010690013,-0.12086248,-0.12965363,-0.09285714,-0.08151184,-0.06585313,0.09001268,-0.13055219,0.04052304,-0.09737901,-0.049536195,-0.052086767,0.07957282,-0.084882125,-0.064917624,0.09688703,-0.12422073,-0.06679457,-0.065303475,-0.108171254,0.078492105,-0.08990826,0.09271187,-0.055350024,-0.05070511,-0.051308736,-0.08608409,0.08779538,-0.11684393,-0.060461298,0.08876993,0.083238214,0.099233456,0.07126279,-0.087698154,0.12375684,-0.06531622,-0.10634126,-0.09533749,-0.07817388,-0.07846747,-0.089266546,-0.08761648,-0.10736158,0.09212816,0.10559501,-0.05246498,-0.07073665,-0.08503658,0.07600772,-0.09403478,0.093272135,0.097623795,-0.08890463,-0.13547309,0.06343452,-0.07326695,-0.12248314,-0.09383396,0.079786666,-0.103485405,0.05378884,-0.11184268,-0.1158514,-0.040681057,-0.11414809,0.108486146,-0.075677395,-0.087419674,0.089499265,-0.12382561,-0.07769971,-0.11160275,-0.092759594,0.11915657,-0.10551939,-0.09951448,0.08803997,-0.09666204,-0.107501015,-0.1130223,0.11812273,0.10298277,-0.07745924,-0.05531464,0.08856867,-0.103157744,-0.11982517,-0.12900124,0.06840731,-0.06555391,-0.10891418,-0.066758,-0.12504344,0.11106588,-0.092905894,0.13374403,-0.124871336,0.05163403,0.13012205,-0.09503052,0.1031658,0.081059664,-0.07341492,-0.088526875,0.08350955,-0.09697953,0.07939413,0.091642395,0.098592505,-0.12616351,0.08470094,0.043493737,0.08900887,-0.1389302,-0.075601496,0.06313235,0.018791169,-0.098122075,0.036717944,-0.08004672,-0.10362251,0.09383914,-0.033458453,0.103404455,-0.07746779,-0.08913317,0.0057670902,0.011565181,0.025216531,-0.007855823,0.02230309,-0.0029027094,0.01990878,0.005367979,0.01067687,-0.01677233,0.02013819,0.018151935,0.0158808,-0.005462059,0.034570944,0.0060721464,0.0032045569,-0.004448746,0.00023159514,0.013089716,0.010813721,-0.0037033143,0.0066397362,0.0036248132,-0.004982801,-0.022520324,-0.007242122,0.039954193,0.0019473055,0.01970488,-0.001915167,0.0015457205,0.011367498,-0.008520208,-0.011300323,0.014616572,-0.009860139,0.015581,-0.010405914,0.019295666,0.012174911,0.029436154,0.03430852,0.010329101,0.015905298,0.015155019,0.0060484833,0.019896727,-0.012289213,0.0148575185,0.01435308,-0.005545451,0.021628456,0.010860716,-0.0028225426,-0.0011542194,-0.01102484,0.02472029,0.0006456742,0.024443714,-0.0077146334,0.011764578,-0.016989077,0.027640348,0.0034147298,0.006970516,0.0263883,0.007945309,0.008641179,0.0147596,-0.0038811371,-0.011911686,0.012324911,0.011372274,-0.008386208,-0.0122612845,0.018922096,0.006184557,0.004451739,0.0012066365,0.027667334,0.009574179,-0.014688933,-0.009623321,-0.0045433743,-0.006808448,-0.008385743,0.0006593427,-0.00049763883,-0.00905078,-0.00020287703,0.045228243,-0.004136798,-0.0025179265,0.0130822435,-0.0024655254,0.02737522,-0.013818132,-0.0012422423,-0.020077854,-0.018508393,0.01639217,-0.00440825,0.013967791,0.028466275,0.02355905,-0.004702755,0.006045811,-0.031374723,0.0023884284,0.0002836281,0.02162202,0.014760235,-0.026496448,0.0059577697,0.016907912,0.008124252,-0.013330891,-0.0010250218,0.027174553,-0.015919793,-0.008438165,0.005424129,-0.0018595528,-0.017691134,-0.017518295,3.465397e-05,0.0083429655,0.06879917,-0.08664081,-0.073160954,-0.056099094,-0.08020891,-0.07153839,-0.081436135,0.066182375,-0.0918709,0.0008258873,-0.07391975,-0.05672632,-0.061348416,0.07782704,-0.065043285,-0.05386773,0.07539462,-0.054856326,-0.03896202,-0.06594704,-0.08758605,0.06172427,-0.06378315,0.0690003,-0.0763338,-0.07351118,-0.04824644,-0.063145414,0.05285331,-0.07028474,-0.09447799,0.05836978,0.037963655,0.08173897,0.017136356,-0.06026063,0.11645114,-0.05651557,-0.087672666,-0.0663139,-0.0727443,-0.083666354,-0.062029455,-0.065149724,-0.06703734,0.05809661,0.067697346,-0.07934257,-0.07342342,-0.065358974,0.05572793,-0.07969707,0.07577955,0.07873569,-0.074007206,-0.065551825,-0.0102672735,-0.064199276,-0.06184329,-0.090606436,0.055322517,-0.0798725,0.028409932,-0.06391307,-0.06924421,-0.062039625,-0.07616168,0.085192405,-0.0675011,-0.052235343,0.081850804,-0.060351063,-0.075183295,-0.07966385,-0.06629125,0.11192781,-0.07353494,-0.0830716,0.07645705,-0.0799253,-0.08063553,-0.08213796,0.11923299,0.093606226,-0.101795636,-0.065476365,0.07556186,-0.06714497,-0.06023381,-0.073299095,0.07926156,-0.051327396,-0.058034595,-0.06366173,-0.0823877,0.059145484,-0.08105914,0.11435241,-0.06906003,0.013958837,0.07691889,-0.05806908,0.064285256,0.08128284,-0.077076964,-0.06779136,0.07177051,-0.08598044,0.06280911,0.05770119,0.051534317,-0.07953532,0.07346167,-0.0043913675,0.080744825,-0.06976146,-0.059354864,0.0496862,0.006012712,-0.079597846,-0.006262429,-0.068854585,-0.078111604,0.085768215,-0.09172457,0.07828357,-0.08428097,-0.07739163,0.007980031,0.004017476,0.0076478953,0.0114246635,0.03629546,0.0021558753,0.010522145,0.0052169235,0.024135962,-0.027266832,0.01772103,0.04563347,0.03556032,0.002834316,0.05427239,0.031944875,-0.012598165,0.018961946,0.007510516,0.04871718,0.010360804,-0.0073002875,0.017041337,-0.0028763814,0.008840771,0.01084091,0.013430223,0.024134843,-0.0051727095,-0.0007908569,-0.0018163886,0.0018921623,0.009494348,-0.004526959,-0.022103839,0.00996243,-0.012831094,0.01962045,0.022310456,0.059221406,0.036460456,0.021658251,0.05387559,0.014987096,0.01192047,0.0074052396,0.0027260338,0.022046188,0.02667489,0.03785243,-0.00086582743,-0.0073915236,-0.010501028,-0.01334677,0.0120195635,0.031308897,-0.026745016,0.027324772,0.008113015,0.0071840296,-0.034395788,0.019442081,-0.024034688,-0.0005734086,0.021173347,0.007680175,0.020872928,9.634406e-05,0.024039738,0.021021107,0.008088565,0.016163131,-0.0020741844,0.033680405,0.038982704,-0.010943136,0.016176047,0.03238152,0.0011869373,0.014647577,0.009623809,0.008897875,-0.039067127,-0.010189472,0.007865519,-0.0207644,-0.008521098,0.018432576,-0.008063266,0.0046181707,-0.012501982,0.050210785,0.030983256,0.0045747394,0.020906232,-0.011777757,0.045644622,-0.03353471,-0.0090132775,-0.0063866004,-0.0078323,0.033189222,-0.001528139,-0.0023987598,0.039936375,0.04530429,-0.009969781,0.015325183,-0.0023733287,-0.006536138,-0.00427461,0.013416796,-0.015542591,-0.0110809,0.015968751,-0.008353816,0.033267654,-0.024180409,-0.031406555,0.01107746,0.004103635,-0.010484266,0.014197323,-0.0036664943,0.008135938,-0.030858446,-0.0067024645,0.02796983,0.03222214,0.0031582904,0.0047356645,-0.008778757,-0.00022139885,0.004445266,-0.0048306887,0.017082734,0.020003606,-0.01406882,0.024133496,0.013425877,0.006631615,0.0005765458,0.015112349,0.015969558,0.014443717,0.018582644,-0.013515155,0.0020059575,0.0073080664,-0.0049937824,-0.008892202,0.0018876389,-0.016295237,-0.010661472,0.006261621,0.0030891637,0.0033566714,0.0020545342,-0.0025591487,0.020845901,0.018039184,-0.005999742,-0.018125124,0.010809658,0.008904377,0.0006279777,0.01442917,0.01110412,0.0046762745,0.015138288,0.018888958,-0.008488293,0.0007165334,0.0038375857,0.011630022,0.014861839,-0.004024712,0.043478705,-0.0063894265,-0.009673605,0.018415025,0.009004898,0.011256858,0.01799573,-0.025757674,0.005001271,0.00062035106,-0.0068080933,0.009769318,-0.004830613,-0.019037638,-0.0023381098,-0.0009679823,-0.00065675745,0.0019011283,0.009715358,-0.0107240565,0.010140591,0.028242407,0.005542663,-0.00030424254,0.001648263,0.00084985275,0.0011565285,0.022521924,0.01967081,0.012670159,0.017957503,-0.004623017,0.0046690283,0.013576489,0.005276397,0.00058404176,-0.016596355,0.014742743,0.010901491,0.013696586,-0.0037931914,0.0025417444,0.01929635,0.012858493,-0.008848737,0.0060985107,0.01618849,0.014345886,0.0063511673,-0.012982544,-0.0060503674,0.006279059,0.011919051,0.0075251386,0.002336803,0.0067140083,0.007719002,0.011044397,-0.0075044385,-0.009508223,0.016603364,-0.002284815,-9.8713965e-05,0.029235564,-0.015895458,0.0037085665,0.014742254,0.027213583,-0.007682987,-0.021280332,0.006586402,-0.010342839,0.0068705683,0.010029996,0.02513224,-0.006302738,-0.001603274,-0.0025184888,-0.0032103804,0.016116252,-0.08123973,-0.029885266,-0.029186213,-0.04035859,-0.01048876,-0.043379262,0.061375964,-0.018186064,-0.005989535,-0.036513302,-0.04829165,-0.045722187,0.033462316,-0.053311337,-0.06875712,0.03799205,-0.03641736,-0.08699709,-0.046015896,-0.037163917,0.052416284,-0.029461885,0.031046662,-0.0821868,-0.07165964,-0.07309307,-0.04303548,0.03384828,-0.023059875,-0.053290185,0.033234645,0.031591166,0.053355005,-0.0071203555,-0.04108536,0.0591356,-0.035128213,-0.031175978,-0.029767882,-0.042623047,-0.036785696,-0.053591385,-0.025117146,-0.012080119,0.033870924,0.044356592,-0.030660452,-0.053923864,-0.028843952,0.04162996,-0.012954022,0.043987915,0.05212217,-0.06543951,-0.025850112,-0.012580585,-0.025092494,-0.026407138,-0.03062368,0.030715438,-0.019978868,-0.0045850715,-0.038072623,-0.02984326,-0.06658605,0.0028208576,0.024043554,-0.042228725,-0.037646413,0.031765867,-0.006364662,-0.033974476,-0.03616682,-0.02514549,0.085729435,-0.048004728,-0.0146659855,0.037789952,-0.020072352,-0.044312913,-0.026837785,0.07776858,0.050962716,-0.03466103,-0.048643485,0.045491647,-0.019510362,-0.05039713,-0.020814262,0.03490749,-0.04063382,-0.02588237,-0.06257119,-0.040571395,0.055248886,-0.05093348,0.06234911,-0.03526565,0.00529518,0.028018447,-0.029027466,0.04955195,0.03672669,-0.047148008,-0.055686913,0.030041758,-0.02379712,0.014503328,0.032651708,0.049162064,-0.03407104,0.033957463,-0.006648814,0.0584571,-0.021293372,-0.0270588,0.0095627615,0.0008387273,-0.028886896,-0.017355463,-0.052549336,-0.02322307,0.05240446,-0.07497631,0.042137884,-0.028549934,-0.03207741,0.029760044,-0.017170127,-0.012291031,-0.015905533,-0.02035308,0.0062820977,-0.017225802,0.023136478,-0.0034565334,-0.00801447,-0.009660347,-0.013315558,-0.017912569,0.02861674,-0.03292677,-0.037509896,0.032484714,-0.013007085,-0.021859517,-0.039860062,-0.0030261916,0.03158708,-0.024076875,0.014803427,-0.02991716,-0.039418813,-0.047541533,-0.05488264,0.03268266,-0.008701716,-0.049439702,0.03413394,0.029172942,0.02446052,-0.018459054,-0.035626926,0.055257607,-0.035701804,-0.018125724,-0.014568432,-0.04271773,-0.014169284,-0.024161795,-0.017886061,-0.021509593,0.028082585,0.021519354,-0.03542044,-0.048325296,-0.03823597,0.05005168,-0.0069357064,0.022754952,0.023672333,-0.029968893,-0.014567759,-0.02612104,-0.031060683,-0.020393789,-0.01568053,0.033689536,-0.022119718,-0.0053939754,-0.023605207,-0.008039328,-0.053224154,-0.002913178,0.030432332,-0.026568286,-0.008996708,0.033970647,-0.021313,-0.031720478,-0.013965596,-0.023615228,0.034763463,-0.015593631,-0.027671905,0.027361827,-0.0386027,0.00993796,-0.010561361,0.057965133,0.0340162,-0.009905713,-0.03238457,0.036495186,-0.015839918,-0.024053665,-0.020881198,0.022670556,-0.032202616,-0.028192628,-0.05282365,-0.01769223,0.020953631,-0.03946396,0.04430071,-0.016171247,-0.013120927,0.022741014,-0.021049358,0.05177171,0.030532815,-0.011897195,-0.03203561,0.039373722,0.015639076,-0.0059989723,0.033659827,0.014180773,-0.0039814305,0.0114446785,0.00015666265,0.023833904,-0.016423631,-0.019788222,-0.0021681353,-0.011443975,-0.010303423,-0.01639092,-0.06607562,-0.0015675799,0.025360899,-0.036441147,0.017821979,-0.026592,-0.013534794,-0.023929395,0.003171836,0.019672545,0.015123241,0.044190336,0.0017117243,0.040786568,-0.026648434,0.02735477,-0.028483698,0.03724999,0.060961757,0.03190851,-0.041344527,0.05708387,0.035060156,-0.017988402,0.026071526,-0.0065409476,0.044993863,0.03345972,-0.024471553,0.017064124,-0.011837784,-0.017977139,0.026442476,0.015247776,0.034748536,-0.049406204,0.032920975,0.032913554,-0.018106513,-0.010566822,-0.009810635,-0.026087351,0.03718934,-0.054876532,0.03607322,0.01743559,0.037664216,0.031381108,0.049759876,0.06274064,0.021677142,0.016656151,-0.030805971,-0.050276816,0.024472479,0.021961316,0.06525576,-0.023278555,0.008377553,-0.013441972,-0.030233895,0.031608853,0.033079706,-0.028428119,0.027657574,0.011646357,0.026984837,-0.022733772,0.013321436,-0.050436012,0.047066852,0.030589487,0.024730874,0.020868596,-0.029026406,0.015184795,0.016695552,-0.020073893,0.020201975,0.041571774,0.042529248,0.04213473,-0.052837808,0.03776138,0.0476617,-0.0139996,0.019753553,0.033705227,0.02391914,-0.06423341,-0.03239501,0.010192638,0.0269473,-0.020990795,0.02661189,0.02582139,0.028866662,-0.00035259622,0.06898192,0.00845386,0.014915622,0.025268922,-0.02958896,0.052734453,-0.039970417,0.02943582,-0.02133572,-0.0479814,0.036681972,-0.028631825,-0.036948483,0.021950783,0.05657644,-0.02021828,0.017199136,-0.06313752,-0.0028199062,-0.0073426496,0.0056424574,-0.042584863,-0.020251077,-0.010189563,0.020646855,0.031914495,-0.048042934,-0.029530453,0.031943705,-0.017790858,0.014508126,0.04163906,-0.017159175,-0.009353165,-0.074754834,0.022339378,0.04159314,0.003589961,-0.010088963,0.021856084,0.017724607,0.046344243,0.021450257,0.02296761,0.001549302,0.012641218,-0.014513889,0.024941972,0.0347249,0.015769968,-0.01309129,0.06677542,0.025642544,-0.025666427,0.021290204,-0.011151151,0.030921912,-0.0016800308,0.010828404,-0.0036749756,-0.020163942,-0.0027139834,0.0014044289,0.0068889325,0.032683134,-0.018392015,0.018351832,0.023829158,-0.010144105,-0.016744534,-0.008239549,-0.01598968,0.022750342,-0.035360333,0.037872534,0.011472811,0.025334423,0.007757384,0.046299137,0.06159643,0.016711716,0.022174552,-0.008802635,-0.037453506,0.05076611,0.008760601,0.054889534,-0.006915552,0.0065257726,-0.009739963,-0.00044661743,0.025298648,0.0040426706,-0.022412548,0.03174576,0.022330161,0.011225236,-0.01722152,0.026599368,-0.03093267,0.041494627,0.017184382,0.010446258,0.015305115,-0.014063856,0.037710357,0.012748598,-0.009121404,0.011804409,0.0126328925,0.007983066,0.041756343,-0.018286899,0.025248451,0.05166597,-0.01787723,0.01773901,-0.008348766,0.0029707688,-0.044937253,-0.010415665,0.024560845,0.0076767723,-0.011470681,0.0514586,0.016252974,0.02283569,-0.0062322826,0.07381432,0.012050745,-0.005739793,0.036654804,-0.020036897,0.04525194,-0.04042761,0.019840728,-0.02252793,-0.029984782,0.027660666,-0.015251757,-0.01649729,0.04566242,0.046822857,-0.013574527,0.017089905,-0.017758898,-0.019124288,-0.017263994,0.020985909,-0.029832434,-0.037218105,-0.01160016,0.014141321,0.03265237,-0.030078545,-0.034640998,0.014264312,-0.0063621076,0.0012566615,0.026862469,-0.011900005,-0.015752127,-0.025718503,0.0134927025,0.035881568,3.2990647e-05,0.00013673183,0.025284648,0.02577247,0.041052006,0.013416247,0.033275392,-0.010078972,0.03192726,-0.021658722,0.028265957,0.034915574,0.037132874,-0.03294286,0.048675057,0.024117662,-0.015586692,0.025303984,0.0013364593,0.05568863,0.024416396,-0.017132804,0.04300284,-0.012548112,0.006660291,0.012080788,0.00404465,0.04864974,-0.02184104,0.024592277,0.007773775,-0.005596402,-0.007379429,-0.0015568258,-0.052604496,0.026430018,-0.05673863,0.023450686,0.016703945,0.05192873,0.021340253,0.03930978,0.05187246,0.009033883,0.021719389,-0.019805286,-0.027755508,0.04993148,0.0010666086,0.05111672,-0.009586233,0.018135902,-0.009827631,-0.021940501,0.04251404,0.029008487,-0.021016788,0.03099074,0.008908074,0.033076122,-0.01495642,0.024112668,-0.044368926,0.019980183,0.02609754,0.0016082645,0.014755702,-0.030179301,0.031955495,0.015705734,-0.009887694,0.0372513,0.03323907,0.035824668,0.04209903,-0.04553169,0.011998208,0.03673236,-0.012830293,0.01728639,0.021829644,0.0175901,-0.07021629,-0.030311115,0.017532729,0.008847971,-0.015634509,0.018065207,0.017103197,0.01945176,-0.015585614,0.05353382,0.019040173,0.0024325708,0.017742518,-0.021519674,0.03987115,-0.048692375,0.027483687,-0.01749564,-0.034947746,0.020293718,-0.022842828,-0.019767504,0.0447734,0.0418231,-0.02327488,0.037102945,-0.04605365,-0.032173056,-0.013696892,0.017918019,-0.015962992,-0.03690277,-0.017241225,0.031543233,0.035191603,-0.048595488,-0.017939208,0.023636583,-0.025308764,0.010650242,0.033012766,0.0031073275,-0.018183209,-0.057636667,0.009887401,0.054868117,-0.022757791,0.0022083316,0.0175375,0.017187752,0.03532583,0.026388204,0.019778807,-0.0036947369,0.021982938,-0.027342083,0.03294419,0.039949097,0.036826383,-0.014256572,0.039419815,0.022735106,-0.0026758094,0.026213106,-0.003729191,0.04868449,0.023584487,-0.018984672,0.009259237,-0.0024417003,0.0049709976,-0.0014942643,0.008663972,0.02271785,-0.034611158,0.02735266,0.009264083,-0.00024996934,0.018095765,-0.026345953,-0.022290118,0.018604646,-0.030189045,0.02631849,0.015663251,0.036446303,0.041869406,0.026279412,0.05163174,0.0065162634,0.010617311,0.00031346743,0.011580852,0.029106632,0.018051233,0.06279605,-0.021487342,-0.016680706,-0.010690406,-0.011901849,0.04409228,0.009768904,-0.012578738,0.03402955,0.009216806,0.014510466,-0.0047338135,0.023140065,-0.031929474,0.012717105,0.026023077,-0.0093525695,0.023838064,-0.013929912,0.015945612,0.019425005,-0.007161632,0.03024221,0.026686328,0.026481261,0.041736223,-0.02329698,0.025732368,0.0314001,0.0026575446,0.007621387,0.02345821,0.019466346,-0.068178974,-0.022263596,0.02828106,0.0050294013,-0.0037757636,0.025634572,0.017675482,0.036419205,0.0060172263,0.0526899,0.009764841,-0.0017120562,0.029498205,-0.042343087,0.033853024,-0.032882515,0.014597604,-0.015661238,-0.04233938,0.02121224,-0.011609854,0.003623887,0.0462424,0.055455178,-0.008117967,0.0036350936,-0.041872624,-0.018812362,-0.0035824426,0.022714416,-0.00032964893,-0.024002988,-0.0034360916,0.0068927235,0.043250855,-0.045573838,-0.013760221,0.027551893,-0.019391838,-0.011328866,0.020089846,-0.020813128,-0.01097979,-0.041771032,0.004911794,0.03998815,0.034910675,-0.07647402,-0.03132434,-0.037532933,-0.033076867,-0.030373858,-0.04332144,0.045942005,-0.023572996,-0.0077034608,-0.05655475,-0.029995289,-0.03653828,0.044120897,-0.040454943,-0.057405144,0.050944455,-0.05034226,-0.06951897,-0.03171036,-0.034813944,0.05072475,-0.032050684,0.04392666,-0.0943035,-0.1098116,-0.072545186,-0.059108358,0.047229525,-0.022753723,-0.058387615,0.04074004,0.020557633,0.041771233,0.0014250864,-0.043794855,0.095130645,-0.055239778,-0.026928786,-0.031106386,-0.07967925,-0.039335154,-0.03733516,-0.040849578,-0.049812693,0.06091766,0.04182964,-0.050230693,-0.069331124,-0.031742264,0.051715527,-0.04338639,0.04373453,0.045581833,-0.040638432,-0.03823537,-0.019918818,-0.046795957,-0.03015781,-0.046804477,0.047143236,-0.017991044,0.010577919,-0.024542835,-0.037191246,-0.093693785,-0.04195067,0.03350089,-0.030614944,-0.053369697,0.052758235,-0.037767082,-0.041896995,-0.034301236,-0.03686315,0.07446043,-0.035715133,-0.031887364,0.047517862,-0.027378608,-0.017402746,-0.034328368,0.12587191,0.04899852,-0.042733364,-0.05765154,0.049741525,-0.035633367,-0.023506118,-0.033381034,0.035566792,-0.0364474,-0.034766957,-0.0568072,-0.01672789,0.06456602,-0.044369858,0.08826062,-0.027075287,-0.014662316,0.034485538,-0.027267503,0.056513354,0.056275018,-0.0476496,-0.036829825,0.062437367,-0.028149517,0.018987363,0.04767716,0.0557718,-0.027105423,0.04526921,-0.012734233,0.07079995,-0.016004983,-0.0493628,0.028126935,-0.015077295,-0.043236535,-0.016398896,-0.06399909,-0.032119334,0.045871496,-0.045928,0.026182396,-0.02943224,-0.033785548,-0.007126305,0.016948884,-0.0009426713,0.0054725218,0.042544078,0.011766684,0.027560404,-0.0055885604,0.014087249,-0.028966878,0.022929577,0.019655045,0.0014080973,-0.008542742,0.05261762,0.033540163,-0.011312183,0.010353565,-0.00174388,0.035035636,0.007493992,-0.012419372,0.0046310606,0.0039908285,-0.0024101716,-0.006976784,0.0054177414,0.045127228,0.0053690146,0.0049130735,0.006642402,0.0125395665,-0.013176265,-0.00955515,-0.024101548,0.0010831202,-0.010948265,0.04340239,0.020602344,0.02473012,0.010849856,0.03314563,0.06216855,0.009352788,-0.0073468564,0.0027291384,-0.009505795,0.01807418,0.023076829,0.04062227,0.007774554,0.014639842,0.02109354,0.00932671,0.018932223,0.010595847,-0.014530557,0.017129948,0.0045633567,0.036496967,0.0005914273,0.014311831,-0.02153297,0.047913875,0.0039241766,-0.00044204862,0.0067720935,-0.009818157,-0.012473526,0.015586337,0.019038571,0.023523485,0.01659191,0.02291859,0.015876172,-0.014519845,0.014819545,0.023943456,-0.009468611,0.0005744526,0.014024636,0.018984329,-0.029609041,-0.018173432,0.00467254,0.019412735,0.014413812,0.004042516,0.015935974,0.012442105,0.0028806347,0.047709055,0.014371295,0.010260062,0.028120896,-0.020643964,0.058580182,-0.027219493,0.008960218,-0.025297435,-0.02571487,0.013134953,0.0034246221,0.00034651643,0.047080453,0.049215846,-0.007109119,0.031651437,-0.021767022,0.0053934823,-0.02436236,0.0071099163,0.003098103,-0.009185899,-0.008525404,0.0014014874,0.033805836,-0.032383393,-0.036924697,0.027857982,-0.041362613,-0.011985422,-0.0020799504,0.018234545,-0.0066382457,-0.0026893155,0.012108851,0.049871214,0.033425782,-0.003279052,0.011143558,-0.00430269,-0.020911923,-0.009671989,-0.019231033,0.01366836,-0.012985702,-0.020666933,-0.010737871,-0.01489074,-0.0032972186,0.012720597,-0.009568689,-0.026288804,0.017712098,-0.0184069,-0.018353878,-0.0209569,0.00076167646,0.032413617,-0.012999684,0.021745173,-0.025740301,-0.01580654,-0.03631954,-0.013434663,0.02242553,0.014803505,-0.025142934,0.03757047,0.020062013,0.02754648,0.0012542473,-0.021327429,0.029927773,-0.010445974,-0.0039271708,-0.0045620776,-0.031189257,-0.014295551,-0.0062540052,-0.0020024055,0.010698258,0.01352483,0.009360108,-0.012680225,-0.043318357,-0.01542016,0.017409762,-0.0062872567,0.020587014,0.01435667,-0.031200308,-0.010110993,-0.0045172456,-0.027541304,-0.0045477976,0.010013288,0.012408913,-0.011329838,-0.00754179,0.00352875,0.015791891,-0.03042941,-0.011389188,0.016637787,-0.026275802,-0.00059567095,0.019767888,-0.026312497,0.0030972667,-0.01760142,-0.013413982,0.048005328,-0.0062336037,0.004012658,0.04705057,-0.029004948,-0.017418029,-8.768382e-05,0.05506523,0.031334534,-0.019062933,-0.026128996,0.014750659,-0.01292699,-0.018289004,-0.014326722,0.01531918,-0.006899041,-0.014719495,-0.028446313,-0.0010426389,0.021828007,-0.016613573,0.027711326,-0.0057282248,-0.012542186,0.02191667,-0.011641854,0.008495263,0.03269888,-0.006194021,-0.031774733,0.009513467,-0.0025343937,-0.0034895933,0.023301298,0.025361558,0.00053041155,0.032373052,-0.020660698,0.008895373,-0.002194169,-0.011108806,0.00067068037,-0.009444573,-0.0054129898,-0.004202359,-0.019156948,-0.005606443,0.015547445,-0.018212078,0.026466386,-0.023297377,-0.007696739,0.06490161,-0.123274505,-0.05197884,-0.06299023,-0.059494205,-0.060291145,-0.068455845,0.052973352,-0.05080074,-0.006820888,-0.061779696,-0.05373127,-0.044650692,0.053015284,-0.06477056,-0.083221585,0.04773131,-0.070202366,-0.06562307,-0.06640936,-0.053346574,0.053369153,-0.052381434,0.06980486,-0.07078263,-0.07098142,-0.072617985,-0.062032472,0.06368957,-0.048408914,-0.068898216,0.062848285,0.040472202,0.072575755,0.028840652,-0.066995904,0.10021126,-0.052211747,-0.06278864,-0.08299873,-0.04938124,-0.047090575,-0.05870025,-0.056426946,-0.050818197,0.055584267,0.06429543,-0.056109328,-0.042028893,-0.05477498,0.04666458,-0.055613883,0.04708659,0.063241735,-0.059592992,-0.0625956,0.0032210364,-0.06211712,-0.06311427,-0.06210554,0.06621887,-0.047586046,0.03160498,-0.04990148,-0.048722222,-0.066087686,-0.047291562,0.06733214,-0.071832925,-0.048854224,0.058150183,-0.061801855,-0.07363788,-0.04928961,-0.059052587,0.09369892,-0.054568496,-0.056678943,0.062732406,-0.04772212,-0.05282133,-0.050231647,0.13972057,0.07028146,-0.043038417,-0.060981277,0.057861373,-0.041521907,-0.052282233,-0.055835668,0.058395304,-0.07294971,-0.067753576,-0.06460181,-0.06679455,0.052217636,-0.05895901,0.09578454,-0.03266181,-0.01916798,0.073965095,-0.06960409,0.08185815,0.069933824,-0.0639002,-0.05833303,0.06507566,-0.06313945,0.0250913,0.05780257,0.049122944,-0.040522747,0.06422335,-0.0185872,0.07358953,-0.047292747,-0.048402432,0.04860751,-0.0018394181,-0.05232424,-0.018663343,-0.06227979,-0.058536194,0.077573,-0.10794757,0.05868383,-0.056932718,-0.04401705,-0.00062075217,0.010287818,0.024359938,-0.0023676297,0.042981684,0.011759619,0.02301046,-0.008312788,0.0036773984,-0.015265578,0.01647266,0.04713317,0.017405463,-0.027573017,0.039227687,0.024078624,0.0057896194,0.021364288,0.0018574996,0.020923048,0.012732479,0.009915982,0.005740903,-0.002089084,0.006764798,0.0021891913,0.009397017,0.04016137,-0.018513223,0.03277401,0.0113603035,-0.003991122,0.0007696956,0.00861131,-0.030817337,0.025407564,-0.015488914,0.028208118,0.012343961,0.041095328,0.019474577,0.023864979,0.049120508,0.0093345465,0.0168514,0.005380904,-0.008657887,0.037426785,0.007456868,0.035231348,-0.0070576756,0.010782684,0.004737088,-0.0010284707,0.031779576,0.008216863,-0.026787711,0.021632245,0.0016113822,0.0134718055,-0.006784677,-0.013154218,-0.0270643,0.008689568,0.009097841,0.0056959013,0.0018850374,-0.014743352,0.03522382,0.0053291344,0.0024951654,0.0027559202,0.027923815,0.020135442,0.009767631,-0.0183292,0.008066652,0.029490037,-0.008080976,0.00575384,0.029348169,0.012678429,-0.017187482,-0.0007213322,0.005419913,0.018054381,-0.004266241,0.00550352,0.016336609,0.008745438,0.011416379,0.050935198,0.019184552,-0.0032974533,0.015876105,-0.016235745,0.042831685,-0.027513266,0.017896837,-0.03922626,-0.015085409,0.00937211,-0.0006593127,0.013597483,0.038154233,0.034938063,-0.026756145,0.032299004,-0.013404911,-0.0160313,0.0031091275,0.027182642,0.006940215,-0.03836101,-0.018311583,0.008402625,0.016698541,-0.039179016,-0.03527092,-0.0011720726,-0.0019430501,-0.0018383624,-0.0061030993,-0.005905849,-0.007880132,-0.024912953,0.012328308,0.039924104,0.059727345,-0.09550606,-0.06535412,-0.057684407,-0.06519094,-0.056629326,-0.05251589,0.054851245,-0.06578917,0.014442188,-0.058371384,-0.05750393,-0.06322878,0.05449513,-0.07744808,-0.057869866,0.06415301,-0.055824,-0.07820174,-0.057277873,-0.055507578,0.05944096,-0.054170888,0.0693902,-0.066617526,-0.06964448,-0.06747655,-0.08514062,0.04954702,-0.05328767,-0.061338063,0.05284787,0.060034733,0.061681822,0.012679053,-0.056594685,0.109224714,-0.05539132,-0.082429044,-0.07405714,-0.056622267,-0.065464556,-0.07111693,-0.06132945,-0.056181755,0.050540708,0.061339997,-0.06527096,-0.05755457,-0.08310835,0.071943,-0.067123875,0.06432344,0.05414137,-0.0679254,-0.05047984,-0.008141544,-0.071773104,-0.0493242,-0.079356894,0.06451592,-0.063216664,0.028027965,-0.0579105,-0.060343448,-0.06976442,-0.06595594,0.056217115,-0.051399916,-0.062281534,0.06250793,-0.05190796,-0.060200464,-0.055769026,-0.06777804,0.11666424,-0.07258248,-0.05757705,0.05467174,-0.04409473,-0.06997857,-0.0619164,0.13082992,0.05833487,-0.05784651,-0.056149017,0.0595771,-0.06597073,-0.06573432,-0.052895423,0.06702376,-0.07041263,-0.05670676,-0.07076306,-0.05253296,0.07248063,-0.066896886,0.10752675,-0.053526763,0.035169892,0.06998463,-0.07994164,0.08983126,0.05660591,-0.092899784,-0.05144945,0.084301755,-0.0656732,0.03746837,0.065602824,0.07044736,-0.0615477,0.0641467,-0.013100105,0.06967438,-0.085981496,-0.04313392,0.058145106,-0.0017318566,-0.0686256,-0.023389092,-0.06140371,-0.044610005,0.07909423,-0.10802835,0.08564382,-0.06785073,-0.05083667,-0.011109113,0.009155518,-0.0034369633,0.020342348,0.034756202,0.019212544,0.02153143,0.00788061,0.030562403,-0.03972864,0.003626304,0.030970218,0.02836934,-0.016092407,0.056377012,0.029010816,-7.200347e-05,0.015187861,0.002952528,0.050004642,0.03493593,-0.010870233,0.019469874,8.111643e-05,0.014537693,-0.0014327043,-0.012869713,0.03970522,-0.0076448517,0.016512759,-0.016883869,0.00014379963,0.0106272735,-0.007592836,-0.016477227,0.031247407,-0.025064908,0.027140446,0.015694752,0.045056924,0.028811976,0.035136834,0.04496374,0.022847572,0.0021482867,-0.010458001,-0.002909586,0.048225537,0.018626098,0.03855132,0.028761018,0.008509605,-0.007057777,-0.015168021,0.028914142,0.007023077,-0.04064862,0.03533343,0.023366973,0.010522926,-0.023722723,0.014084725,-0.036788836,0.019318786,0.013226582,-0.0021241992,0.008583121,-0.024007734,0.0054150526,0.011858618,-0.018264974,0.013979014,0.004624766,0.0022014931,0.045421463,-0.012067666,0.011296911,0.036208905,-0.021353928,0.005365978,0.010164258,0.022241928,-0.050930846,-0.017098943,0.03100029,-0.008531389,-0.012510896,0.005601555,0.00036586804,0.019741276,-0.0050056987,0.06526727,0.019682052,0.012964808,0.0008085129,-0.011403234,0.028252684,-0.0123382,0.00037448405,-0.0251216,-0.032691047,0.022330519,-0.008674585,0.014440464,0.055079963,0.044648185,-0.009121164,0.009002571,-0.030145492,0.005117183,-0.012582664,0.0120987985,-0.0038654013,-0.03403227,0.0023106798,0.025371943,0.045488168,-0.020504523,-0.016118323,0.032156352,-0.031558007,0.0023848342,0.016913215,0.003051958,0.0073049334,-0.020571794,0.01546718,0.048494764,0.055903316,-0.087903015,-0.069492735,-0.057187896,-0.06252388,-0.05438601,-0.06181148,0.044888243,-0.073244564,0.0139495265,-0.05992512,-0.052001778,-0.04824832,0.05304352,-0.08462846,-0.08007229,0.058852762,-0.054748848,-0.065608054,-0.06513709,-0.0628315,0.061684534,-0.056197345,0.051416688,-0.06740468,-0.071730316,-0.073437616,-0.0578048,0.07269709,-0.050632134,-0.08503533,0.063061364,0.059511483,0.059869308,0.019323248,-0.06702631,0.09931365,-0.06676893,-0.043990705,-0.058799863,-0.06663938,-0.0697976,-0.056836944,-0.05231247,-0.06160269,0.052128714,0.069414325,-0.07276425,-0.07506672,-0.063515395,0.06178267,-0.070986465,0.07367696,0.07050779,-0.07786362,-0.059228215,0.014622071,-0.061746873,-0.06872529,-0.06619407,0.058314007,-0.05631873,0.02315546,-0.0569151,-0.08379921,-0.06410453,-0.06261772,0.055106256,-0.067947015,-0.07934681,0.061581016,-0.04833148,-0.067766264,-0.06392644,-0.05959359,0.12009766,-0.048403185,-0.06662023,0.07787619,-0.05544945,-0.03918596,-0.06012859,0.1204319,0.052523997,-0.055622175,-0.058849532,0.0656433,-0.06497214,-0.059163347,-0.05295088,0.06981688,-0.07511377,-0.052879643,-0.07717145,-0.052288447,0.06659579,-0.07354157,0.11761205,-0.054403886,0.023728902,0.085448034,-0.05067043,0.063430995,0.058856603,-0.09310941,-0.07168816,0.0629849,-0.06373764,0.04437103,0.05978255,0.075679675,-0.06792931,0.05958587,-0.006858847,0.06446145,-0.06422476,-0.05750962,0.041154757,-0.006153561,-0.0663214,0.0031325547,-0.051415358,-0.06090144,0.055473506,-0.115210295,0.07503547,-0.07073673,-0.084691636,0.06586524,-0.083580166,-0.02823867,-0.048416212,-0.05065712,-0.04118484,-0.050427157,0.052767944,-0.028926633,-0.013511278,-0.037951414,-0.059397537,-0.046810713,0.06646033,-0.034222923,-0.050059978,0.059385754,-0.042533077,-0.074204065,-0.07626554,-0.026361208,0.047269937,-0.035940316,0.056837507,-0.101877674,-0.08900887,-0.056333292,-0.045984168,0.061598055,-0.035314497,-0.06470229,0.035751674,0.040770646,0.05511629,0.011084289,-0.035604622,0.075051345,-0.04538438,-0.04149889,-0.04949234,-0.07249852,-0.019073302,-0.052305687,-0.04946948,-0.042812843,0.045763478,0.042119518,-0.04670921,-0.04467255,-0.04143061,0.05296655,-0.048612572,0.046969272,0.051898487,-0.066230126,-0.04057072,-0.0121164005,-0.049322825,-0.049560618,-0.024157833,0.046991013,-0.046124566,0.028069815,-0.039183,-0.036003202,-0.07359755,-0.051648505,0.05591625,-0.054881234,-0.04518151,0.036148496,-0.039585862,-0.054033212,-0.037830546,-0.05274465,0.07973076,-0.03136292,-0.03839733,0.051995773,-0.038512316,-0.06638415,-0.05242095,0.13097319,0.07098175,-0.062324513,-0.06161488,0.059415586,-0.045498066,-0.020819884,-0.03468937,0.051468324,-0.051474825,-0.05922264,-0.07004806,-0.028910255,0.045396946,-0.060518116,0.090316,-0.039805483,0.008274952,0.034606747,-0.046803925,0.06779319,0.063970454,-0.04152191,-0.054858033,0.056797102,-0.041700326,0.031852044,0.04038586,0.050361704,-0.0490867,0.06872153,-0.0017164203,0.06373498,-0.03881647,-0.058738198,0.04085066,-0.0025423444,-0.038009297,-0.012291619,-0.0738692,-0.049936425,0.06046734,-0.06599577,0.04058092,-0.053569462,-0.044322696,0.06801857,-0.048048727,-0.039130233,-0.051927894,-0.06466161,-0.06950028,-0.062697545,0.06419976,-0.069260955,0.040837064,-0.05897835,-0.08050139,-0.045660105,0.091541335,-0.10138326,-0.056659833,0.1120792,-0.065381765,-0.072532095,-0.06913039,-0.05254032,0.06425576,-0.07079705,0.07103289,-0.062103152,-0.047749374,-0.051441263,-0.08214708,0.0669615,-0.06840943,-0.070431404,0.069460124,0.08607643,0.09427316,0.051397163,-0.07089174,0.12912643,-0.07141354,-0.058934603,-0.07611703,-0.0875089,-0.062134966,-0.08496243,-0.06496075,-0.041410703,0.084472,0.05833156,-0.0764469,-0.06324005,-0.05973045,0.083861694,-0.059730783,0.06969079,0.09292351,-0.056754503,-0.06374841,0.02309116,-0.057381082,-0.050011005,-0.06812509,0.09186427,-0.058307175,0.04853561,-0.049279258,-0.06554329,-0.053461064,-0.055562895,0.0722271,-0.04486968,-0.046404693,0.061277516,-0.062382948,-0.05595877,-0.0522696,-0.053437702,0.11594776,-0.046436947,-0.081931144,0.08801174,-0.059040505,-0.07452723,-0.036879998,0.12002419,0.08195038,-0.046831395,-0.05060801,0.08864357,-0.052327547,-0.060978077,-0.04940065,0.06482173,-0.08462858,-0.06951076,-0.051031902,-0.057283368,0.099319644,-0.099898405,0.13275188,-0.06011094,0.019238416,0.099757366,-0.052471116,0.08772692,0.09439923,-0.07897656,-0.08850968,0.06561681,-0.0633186,0.05129865,0.060433686,0.08301166,-0.055352595,0.087341726,0.021267759,0.095005475,-0.051952027,-0.07134358,0.0626483,0.0125951795,-0.0618287,0.016275415,-0.065328784,-0.05777954,0.07888978,-0.06722627,0.08840651,-0.06369151,-0.08625787,-0.0005096973,-0.012499752,-0.0052831927,0.013541747,0.03979806,0.014172498,0.018357573,0.001324072,0.018283485,-0.009658874,0.0086677885,0.027490366,0.01776492,0.015780414,0.036295485,0.017089853,-0.016210768,0.022142079,0.012346445,0.038714346,0.02617377,-0.010683723,0.01591502,-0.016364427,0.016619628,-0.012506782,-0.0049196007,0.029920176,-0.022177318,-0.0003946596,-0.0078329025,-0.0082925735,0.00095927354,-0.001060205,-0.04037097,0.018732777,-0.019620301,0.043549698,0.012126538,0.03599019,0.03713526,0.028125063,0.03285393,0.017832521,0.0060295295,0.008534442,0.0024542036,0.046040818,0.019874768,0.025471577,0.00011669738,0.0127427,-0.007107995,0.0034346234,0.01977225,0.0055628684,-0.017995687,0.023364326,0.0012029615,-0.002352503,4.6271558e-05,0.028585337,-0.008956376,0.02062844,0.0062472885,-0.0040197624,0.016045198,-0.0068300446,0.027590947,0.00328977,0.0033193089,9.312583e-05,0.00133262,0.005077288,0.024318988,-0.020276802,0.012487642,0.013881471,-0.0058027236,0.020657716,0.010796359,0.004729246,-0.029140037,-0.013995583,0.01188413,0.016345844,0.005262871,0.0057339836,0.014891408,0.035580773,0.007961167,0.048829112,0.014545071,0.008430131,0.0030909942,-0.0040461724,0.040228743,-0.01721885,0.0012628834,-0.034429584,-0.020803051,0.0057674227,-0.004952298,0.0023735005,0.04543747,0.046862613,-0.0072526406,0.0018515476,-0.017373966,-0.019104725,-0.012498503,-0.012546401,-0.0060493625,-0.0011858701,-0.032836124,0.016324433,0.018209958,-0.031658456,-0.01587585,-0.00011490375,-0.027892929,-0.0010114845,0.008017379,-0.0067833615,-0.016643114,-0.030745765,0.0020347123,0.023526069,0.0030680147,-0.014665306,0.0028506867,0.0006315387,-0.011773827,0.01833539,0.010563407,0.012607738,0.009004174,-0.004027048,0.0010969427,0.01021319,0.00067363644,0.038201686,0.030038303,-0.0012949525,0.017501622,0.0090559395,-0.0061696707,0.00044143992,0.007273369,0.010377662,0.00091803365,0.028250314,-0.0154467,-0.030824395,-0.021251807,-0.0015341257,0.02609665,0.0095759155,-0.0040524052,0.012332321,-0.002389542,0.01482406,-0.025754165,0.010131549,0.017390046,0.010056159,0.006591991,0.011294245,0.011176794,0.002527153,0.0025529447,0.008929351,0.014194511,0.018867109,0.0050833253,0.0048465766,-0.0010180766,0.011426047,0.0034717512,-0.019138075,-0.0012579674,-0.010061328,0.0050778543,0.022530476,-0.037089955,0.009685391,0.0076353163,-0.008258263,0.009747433,0.017264215,-0.008910811,-0.0030911162,0.0047613075,0.0142339645,-0.0037164027,0.00710757,-0.0121217305,0.01449249,0.02182528,-0.0005626133,0.012945231,0.015135182,0.013959397,0.023693556,-0.010486096,0.0075397585,0.024204986,-0.00015925699,-0.0049082837,-0.0090095885,0.01568998,0.01463719,0.003494345,-0.017388267,0.00034728626,0.006276269,0.008532939,-0.006458906,0.024917021,0.018893614,0.023570742,0.0029408548,0.0019366202,-0.010380228,0.008863203,-0.0014139413,0.008093911,-0.008853368,-0.01664789,0.007966047,0.009114782,0.020189283,0.014031656,0.015544018,0.023347938,0.004459833,-0.013316912,0.0036874986,0.017183885,-0.0001785762,0.027061835,-0.00071267807,0.0068584783,0.009779626,0.009880577,0.0009873259,-0.026852613,-0.0072329515,0.004382127,0.0005673686,-0.0070335055,0.01919878,-0.0012680583,0.0019459499,-0.006334875,-0.0057401992,0.06205423,-0.08224173,-0.037170976,-0.02709202,-0.06833053,-0.03418997,-0.05362904,0.08408198,-0.048258435,0.0088098105,-0.051857103,-0.057554174,-0.047689345,0.060304496,-0.058960114,-0.05086681,0.061018247,-0.037307985,-0.08478161,-0.04033596,-0.02372266,0.031638294,-0.055662986,0.057122707,-0.09068265,-0.07403039,-0.08382915,-0.062044267,0.062771,-0.03145978,-0.08004164,0.062410735,0.03398734,0.057067484,-2.41831e-06,-0.055664297,0.10169845,-0.055083994,-0.04769508,-0.04817378,-0.060952973,-0.038687635,-0.06647224,-0.04240215,-0.045747846,0.053714577,0.04555602,-0.052323997,-0.0526653,-0.051527202,0.048392586,-0.05779917,0.080562636,0.032590907,-0.048350506,-0.033968724,-0.010482525,-0.05249441,-0.043401927,-0.033520114,0.06521216,-0.030070473,0.016146509,-0.06817407,-0.048162118,-0.08239779,-0.05550253,0.053529926,-0.053428207,-0.041689605,0.04618155,-0.038786594,-0.055856068,-0.04164287,-0.051485598,0.079362854,-0.044277526,-0.06256274,0.04671443,-0.042345457,-0.04554794,-0.056012623,0.12466255,0.044798557,-0.04016422,-0.060235098,0.0682053,-0.03883752,-0.0437354,-0.039382145,0.05783892,-0.047408413,-0.053598404,-0.07030025,-0.043083295,0.047400236,-0.06218748,0.086175196,-0.060885847,-0.0068527483,0.027221946,-0.024307018,0.051773574,0.04586345,-0.04210464,-0.06328048,0.06186791,-0.039305303,0.0037959847,0.03688194,0.0610172,-0.03988538,0.05754507,-0.0076033184,0.07784103,-0.04438375,-0.058936488,0.047307525,0.00054977735,-0.03337618,0.0048463293,-0.06317852,-0.041576795,0.07046436,-0.07235721,0.057810698,-0.0441271,-0.05052187,0.046753805,-0.102674104,-0.048958182,-0.05631323,-0.06617892,-0.05583474,-0.06401689,