0.096974604,-0.060415998,-0.034391716,0.06441508,-0.08924462,0.11030675,0.10533108,-0.037229627,0.054484673,-0.017496865,0.004909569,-0.09047177,-0.024071982,-0.025522482,0.051305506,0.08810666,-0.07888391,0.07503322,-0.08170343,-0.06448464,-0.007921876,-0.07983997,-0.08709779,-0.104170494,-0.07098771,-0.0812145,0.03979054,-0.061403938,-0.08437545,-0.0011641774,-0.05450928,-0.10173393,-0.047143042,0.08466149,-0.08495217,0.09153584,0.009147984,-0.059705958,0.078203574,0.10169134,-0.061004583,-0.039694037,0.11350588,-0.08264635,0.047133658,-0.11326446,0.09775037,-0.029799132,-0.07250898,-0.09430252,-0.04056288,-0.08534903,-0.029383821,-0.052429378,-0.095944665,0.030112334,-0.071008,0.073260635,0.08228487,0.061765425,0.10374253,-0.010814591,0.08811738,0.0807877,0.06688678,-0.033354778,-0.04037823,-0.105356336,0.044783235,-0.05164204,-0.042576175,-0.0480494,0.09280688,0.08875127,0.07785881,0.04688627,0.017655546,-0.0436733,-0.12358094,0.053478565,0.044691097,0.026911275,0.010441487,0.07023517,-0.030728962,-0.09446173,0.09199038,-0.06688498,0.108394794,-0.084202394,0.09081356,-0.0037094145,-0.048023887,-0.09764713,-0.085426964,0.068318196,-0.0956602,-0.100859515,0.10260707,-0.06765346,-0.09686179,0.07035763,-0.089669846,-0.10693647,-0.06879329,0.10474919,-0.070332184,-0.003620368,-0.07900895,0.07605788,0.06903944,-0.07029891,-0.10086304,-0.098530926,0.08835083,-0.063521676,-0.04309484,-0.07906428,0.079426244,0.010323755,0.06010989,-0.035809062,-0.080158964,-0.091649994,0.08206326,-0.07740879,0.030539637,-0.057751812
0.028643692,-0.016065503,-0.0062530274,0.022724936,0.011161305,0.036318693,0.03473227,0.019132953,0.024863884,0.0051548844,-0.007866727,0.009482389,0.0062590097,0.003717636,0.005130775,0.03372578,-0.008551446,0.0065198406,0.022033734,0.007191359,0.008666174,-0.010310345,0.0033006691,0.013617196,-0.007889364,0.022271322,0.00984403,0.006062187,0.008743512,0.004510979,0.007464376,0.016111365,-0.0012247704,0.035199165,-0.0052323616,0.024343565,0.015685491,-0.006553025,0.040018804,0.021632338,-0.005637254,-8.1060425e-05,0.03362717,0.009671661,0.017075006,0.011880901,0.036797803,0.012264767,-0.010486516,-0.004716517,-0.00032179378,0.02039482,-0.0062101968,0.010275468,-0.00793034,0.0012619363,0.02014867,0.028949102,0.014310932,0.0058833305,0.027196739,-0.006307056,0.040324174,0.041256707,0.00782667,0.008683903,0.010275047,-0.0014270433,0.041673947,0.006265223,-0.00870398,0.017460788,0.030967062,0.017958397,0.01879967,0.018847784,0.016418265,-0.005823457,0.0092426,0.0010881025,0.022418518,0.0173983,0.016379919,-0.00072474324,0.011137255,-0.0025718976,0.025715835,0.0178683,0.02397751,-0.0032896504,0.02856076,-0.008393531,-0.0017459545,0.020935645,0.00019214838,0.025274372,-0.00036325713,0.019664438,0.041939054,0.009197381,0.009014367,0.03388266,0.028378261,0.008510933,-0.002863022,0.028292902,0.006419987,0.01639189,0.012714271,0.024824165,0.02272399,0.002467167,-0.0014015188,0.023754168,0.041307952,0.008070458,0.006873162,0.00080884725,0.02461291,0.022788493,0.026682684,-0.0021180108,0.00085064553,0.01998096,0.036676075,-0.007179307,0.03971393,0.0074117924
1.0558594
0.5827762
0.09455634
-0.04485534,-0.073106304,0.036113553,-0.049067806,0.030268142,-0.058018528,-0.05777683,-0.07698106,0.015809204,-0.05924542,-0.058859497,-0.06246121,0.018246377,0.014207251,-0.062074374,0.015458613,-0.04340471,-0.062470395,-0.055756003,-0.082591295,-0.05567242,-0.06566227,0.035102494,-0.021430064,0.04068921,-0.05918153,-0.04479381,0.013120679,0.01319216,0.010398405,-0.060657058,-0.062480245,0.031918854,-0.048347373,-0.055276114,-0.070604436,-0.01165975,-0.063385695,-0.03747416,-0.06572071,-0.07718792,-0.0150381625,-0.0626896,0.020269169,0.037768718,0.035351504,-0.060879603,-0.04895314,0.0066939946,-0.05427117,-0.059895396,0.027828138,-0.051238116,-0.06025019,-0.055879675,0.02032548,-0.14111163,0.026405385,-0.060624637,0.040381987,-0.068621024,-0.07537755,-0.05152893,0.016795384,0.020567153,-0.056821316,-0.061860006,0.028890138,-0.05032087,-0.0883671,0.01480121,-0.062400125,0.06519716,-0.05355475,-0.0618043,-0.0712761,-0.073049046,-0.054371674,0.028156538,-0.07070148,-0.0349241,-0.07102063,-0.060895745,-0.07099459,-0.061178952,0.009090783,-0.031918116,-0.041522633,0.030699378,0.030104067,-0.05774987,-0.05865099,-0.06554794,-0.066039406,-0.055403013,-0.039327774,0.056254048,0.022630882,0.011597438,-0.041468177,-0.052772425,-0.04155792,-0.032341853,-0.069089174,0.0067570596,-0.062462196,-0.030810732,-0.058360547,-0.054892447,-0.05766221,-0.068037994,-0.065449074,0.03724582,-0.07440239,-0.045759775,-0.07044177,0.03236494,-0.062391467,-0.0013655921,-0.060107574,-0.07315574,-0.055964295,-0.041804988,-0.052495703,-0.068737164,0.015226125,0.021245893,0.012322669,0.01750982,0.032783493,-0.026753485,0.012572422,-0.015081567,0.02145525,0.006700296,0.015641492,-0.0037050382,0.008723672,0.032223113,0.02396798,-0.030743018,-0.023790993,0.017956428,-0.024209308,0.024061345,0.016993014,0.033884957,0.010481266,0.027155666,0.024419185,-0.03406051,0.008453638,-0.025527086,0.012913079,0.0105128,-0.01856803,-0.006350926,-0.032251183,0.031169273,0.012043998,-0.015664069,0.00520918,0.0146892285,0.02334405,0.01754735,0.03148263,0.0002667524,0.011211476,0.0154838385,0.00085684285,0.015506466,-0.0061753048,-0.017009923,-0.03402773,0.0044817193,0.025134593,-0.0138254715,0.016154304,0.019851333,-0.010151129,0.005189589,0.03049837,0.009052188,-0.01831924,-0.08699635,-0.030147634,0.016708672,-0.028223751,0.02576491,0.024053328,0.030153725,-0.029225769,-0.0063680187,0.020523682,0.0061608506,-0.02524197,0.040769093,0.03114429,-0.029587675,0.032436214,-0.020831544,0.028960595,0.026710263,0.015030679,0.0067532035,-0.009234193,-0.021872183,0.015730571,-0.002502178,0.02763086,0.017102107,0.013420948,0.02916767,-0.025237069,0.009045334,0.016178846,-0.00095320615,-0.026531434,0.01725121,0.028663697,0.016489197,0.019457517,0.011536698,0.024355544,-0.03574277,-0.014097671,-0.02913868,0.021810567,0.010332844,0.03516602,0.024222206,0.023303062,-0.025387429,0.027795548,0.01736105,0.020554736,0.037285186,0.01759407,0.0083026895,0.013610276,-0.022778943,0.016222222,0.0039121504,0.019449456,-0.03514216,0.014589524,-0.008767738,0.025272926,0.0054566814,0.021045033,0.009253777,0.033609465,0.023551589,-0.022253979,-0.0025796434,-0.022061057,0.0086737685,0.0058119087,0.0047270567,0.017841624,0.007995098,0.019726526,-0.0028469306,0.011393704,-0.01774019,0.009968133,0.014145994,-0.0026194982,-0.009790438,-0.0034815164,0.017140148,-0.023110967,0.0009968004,0.028896637,0.016308175,0.010613235,0.017493116,0.019006066,-0.012200905,0.023382252,-0.0072893756,0.031827748,0.01854776,-0.0062638973,0.002780165,-0.020042766,0.017691653,0.023322465,-0.018864874,0.031026402,0.009770229,0.013985844,0.004719738,-0.005504103,-0.018695949,0.0065427814,0.009274188,0.011633951,0.0038325845,0.0025944833,0.003283303,0.005753112,0.023282897,0.011997644,-0.014937573,0.02921092,0.002129736,-0.016155377,0.031334706,0.00681045,0.027902536,-0.006705027,-0.018058067,-0.021420233,0.00061432144,0.0025641485,0.008960379,0.014755606,0.02656678,0.022656724,0.00063625135,0.03293702,0.0066192616,0.005378049,0.016010802,0.026171718,-0.0035467967,0.016421488,-0.003221545,-0.0028978232,0.012566798,0.014025301,0.0258043,0.023951117,-0.0038824845,0.010234013,-0.003005714,0.005187854,0.001733537,0.026773749,0.0007030185,-0.007306462,0.0048529427,0.022217978,-0.017560193,0.012669212,0.0068717333,0.030069377,0.018420344,0.009960331,0.02153357,0.0046202894,0.015647072,-0.021449912,0.0011251805,0.018642753,0.004074194,0.02115291,-0.00046799317,0.017869024,-0.0045791464,0.016409881,-0.0008789327,0.017667629,0.008896244,0.022120247,0.012024523,0.015893739,-0.013305668,0.039980818,0.028678969,0.016530367,0.012875177,0.03358289,0.0035801376,0.0032194746,0.011667247,0.019400131,0.011308837,0.0024759714,0.03187991,-0.007314837,-0.02410925,0.0018913858,-0.048238818,-0.03167916,0.022484822,-0.033871967,0.037380304,-0.037635636,-0.049834978,-0.030170262,0.015764656,-0.024127472,-0.02682253,-0.0394725,0.033383977,0.029470185,-0.05532051,0.029460607,-0.0171027,-0.04556895,-0.041608423,-0.039736602,-0.044735532,-0.051194422,0.016424159,-0.029528942,0.02215444,-0.022192074,-0.0370955,0.024957815,0.021861585,0.03201987,-0.0377211,-0.06071922,0.026439883,-0.027943531,-0.039817557,-0.033796877,-0.011880731,-0.027479667,-0.050578084,-0.019788623,-0.031042991,-0.030512128,-0.035073906,0.027691577,0.024169665,0.031355657,-0.029944072,-0.029342242,0.031015247,-0.036500987,-0.033123914,0.03881405,-0.043174252,-0.05054939,-0.038144074,0.030875944,-0.06428172,0.029801518,-0.03693312,0.041080788,-0.047515795,-0.041031785,-0.028704375,0.032245457,0.02175642,-0.028768275,-0.052234698,0.03223228,-0.020427162,-0.06058429,0.04136224,-0.024423461,0.051423363,-0.030674173,-0.03328587,-0.05140698,-0.021850994,-0.03722112,0.033586904,-0.042699356,-0.015487296,-0.023565834,-0.03475197,-0.018536018,-0.049901932,-0.009127546,-0.01410669,-0.045903724,0.034365382,0.03847757,-0.039569873,-0.04061943,-0.035853293,-0.05355758,-0.033917308,-0.035406157,0.032627482,0.048361633,0.031559505,-0.0402163,-0.04221033,-0.038235866,-0.05003388,-0.030140566,0.0142188715,-0.0461893,-0.04231038,-0.03641003,-0.033882953,-0.05383299,-0.027423872,-0.02797208,0.01817437,-0.014187776,-0.036122344,-0.03817502,0.04198172,-0.044704728,-0.0035614416,-0.044094294,-0.043766614,-0.037379846,-0.035592046,-0.054833237,-0.028272117,0.014276117,0.015514282,0.02882798,0.026668742,0.025261672,-0.052139387,0.026078174,-0.07359383,0.036530327,0.033664726,0.02475142,-0.036237407,0.026409838,0.036584817,0.027716396,-0.017264599,-0.044663254,0.027071461,-0.029681526,0.023912406,0.031621587,0.022079568,0.02539292,0.011138415,0.017055722,-0.029554332,0.014247361,-0.045250777,0.030005239,0.027437752,-0.03348718,-0.048700057,-0.012932852,0.025167637,0.02494283,-0.026692363,0.025780259,0.0074994117,0.012217831,0.022985974,0.022343034,0.017141158,0.028391948,0.015073044,0.027796105,-0.004553605,-0.04450749,-0.042865142,-0.047156263,0.02445623,0.009738623,-0.056995437,0.035523485,0.0026671907,-0.03606067,0.008029703,0.04010657,0.011457433,-0.040500235,-0.17872243,-0.05214475,0.025334457,-0.03813535,0.01767807,0.04073753,0.013129355,-0.06956988,-0.029714087,0.027073389,0.031103866,-0.04535193,0.031284403,0.0067035495,-0.046571508,0.020301854,-0.06131367,0.016346725,0.03371728,0.02282624,0.022321563,0.021724585,-0.044592425,0.036143526,0.027052399,0.01853201,0.018894898,0.03561803,0.01674403,-0.017681412,0.015502107,0.011243924,-0.0436087,-0.0556013,0.021643585,0.019475054,0.031972952,0.028280957,0.020019729,0.024115497,-0.054833062,-0.041834857,-0.05120903,0.019954467,0.016553625,0.011332439,0.0107713975,0.030267706,-0.053429633,0.009185463,0.008809302,0.032806635,0.018910559,0.02802224,0.0120508615,0.030267907,-0.058338027,0.0019499989,0.030503592,0.04093978,-0.0373039,0.032337945,-0.03238758,0.04116182,0.034404464,0.021027917,0.019399574,0.03624825,0.028444638,-0.042694274,-0.02073343,-0.05625558,-0.066612184,-0.06823646,-0.0071873963,-0.052891124,0.0393034,-0.06727343,-0.08193861,-0.07987346,-0.009598887,-0.0844783,-0.07252991,-0.07139844,0.033330325,0.02515803,-0.06080937,0.023154877,-0.04576038,-0.05961211,-0.07489554,-0.06787216,-0.051770214,-0.08259359,0.011852278,-0.05253157,0.044839207,-0.075161695,-0.07056938,0.033879764,0.03174232,0.0068581584,-0.05098402,-0.081600755,0.029649662,-0.05562764,-0.06877089,-0.07076985,-0.015027748,-0.08004048,-0.049935848,-0.09522045,-0.06560706,-0.013364198,-0.07562737,0.026505671,0.02091102,0.017410122,-0.069144845,-0.059598573,0.0082623605,-0.0822306,-0.04993651,0.014303548,-0.08124571,-0.06576011,-0.05892634,0.026688337,-0.15429808,0.0193172,-0.06335134,0.036986824,-0.06863429,-0.056822963,-0.06852512,0.03458273,0.012528827,-0.08056365,-0.08189073,0.028207446,-0.07287253,-0.07392317,0.02096377,-0.08728305,0.023855755,-0.07793824,-0.057219148,-0.06459425,-0.09205845,-0.04776513,0.010677943,-0.05347358,-0.018312275,-0.04830339,-0.065008536,-0.0865439,-0.06783337,-0.018026406,-0.016116023,-0.05580115,0.030501872,0.03917025,-0.061691277,-0.070272185,-0.051346734,-0.050550222,-0.06882613,-0.059345763,0.025193814,0.026710054,0.00238018,-0.049437903,-0.049645253,-0.07110618,-0.052385364,-0.08600563,0.016852379,-0.08305329,-0.035387475,-0.07330693,-0.059376102,-0.07811286,-0.08337717,-0.060595445,0.018636066,-0.078472316,-0.07110953,-0.07695455,0.033806197,-0.08280936,-0.016980248,-0.073285185,-0.08395549,-0.06967996,-0.0718654,-0.06777335,-0.06690419,0.030397866,0.02599835,0.03886034,-0.07719632,-0.053367283,0.027453046,-0.0501585,0.043265726,-0.08019932,-0.049662787,-0.07680642,0.00850193,-0.077182256,-0.07703777,-0.06281242,0.004446704,0.01731673,-0.07929352,0.011267348,-0.0651688,-0.07995094,-0.07587299,-0.04879919,-0.06452953,-0.08751001,0.03503771,-0.03597536,0.013076083,-0.06492043,-0.08936565,0.015344214,0.016195424,0.019397985,-0.050366253,-0.068502866,0.032697015,-0.071980074,-0.06648813,-0.060879394,0.007495968,-0.051911756,-0.027398515,-0.07987844,-0.07139092,-0.032125868,-0.060107406,0.009534656,0.03978257,0.02926071,-0.07729993,-0.061894484,0.0057877055,-0.077990554,-0.044332225,0.010314879,-0.06797729,-0.07883412,-0.059778508,0.04333393,-0.15047064,0.030847544,-0.08661691,0.040836785,-0.07318897,-0.07174911,-0.059481103,0.027247995,0.008713754,-0.07926517,-0.043252088,0.018419586,-0.048635192,-0.0919855,0.034764785,-0.08126081,0.039371416,-0.06004643,-0.07000569,-0.071135655,-0.06996811,-0.080926366,0.013065778,-0.063565396,-0.03296839,-0.06433378,-0.06578546,-0.075843506,-0.067957304,0.0074336864,-0.011357525,-0.059967466,0.023043562,0.03367744,-0.05933565,-0.069199584,-0.071619235,-0.05829277,-0.057463594,-0.06307697,0.048634443,0.029494047,0.018738216,-0.06463355,-0.0405654,-0.052854467,-0.04020486,-0.064221576,0.005400634,-0.07455318,-0.052332934,-0.077590704,-0.072203055,-0.05145784,-0.068798386,-0.06858171,0.05566515,-0.06704787,-0.063141495,-0.07462117,0.03918289,-0.075619854,-0.0030545262,-0.061569396,-0.048556726,-0.07623714,-0.063492425,-0.06806167,-0.074683234,0.03536516,0.009148263,0.026731268,0.004929301,0.01451987,-0.018614786,0.021048218,-0.014336998,0.046042178,0.021467865,0.033516224,-0.0050503225,0.014235472,0.035069298,0.018638626,-0.019767957,-0.012151546,0.02785751,0.0046184366,0.008341128,0.024940837,0.00955638,0.010185185,0.021442086,-0.0002936209,-0.008969259,-0.007718461,-0.026992973,0.01806168,0.01703439,-0.009007156,0.0104885455,-0.025455624,0.013181232,-0.0058598327,-0.009707968,0.012945726,0.022458557,-0.0020360632,0.007905923,0.019417286,0.019354345,0.017281353,0.021081358,0.011800267,0.0077991346,-0.0058829933,0.00034100705,-0.006592076,0.033827275,0.03140513,-0.018620865,0.00507371,0.009355644,-0.0070412545,0.005059459,0.026517773,0.030740196,0.008599728,-0.018014247,0.0011781657,0.022986853,0.006560562,0.019151302,0.007725225,0.008069407,-0.017605565,-0.003642009,0.032034427,-0.0033465654,-0.013952255,0.030001698,0.028301377,-0.009003449,0.017409053,0.0028261,0.006937563,0.012161306,0.039915543,0.008730783,0.022499183,0.0026830542,0.025130799,0.014340062,0.018460639,0.01817419,0.022214174,0.023183635,-0.008347265,0.005451171,0.024499265,-0.0064385813,-0.0010928381,0.031682223,-0.019726891,0.0032768857,0.020983465,0.012628756,0.01650003,0.01650598,-0.008010725,0.0065832133,0.027275702,0.0068834107,0.010475333,-0.005074837,0.030313587,0.0030426679,0.0061223716,-0.0009413687,0.010386239,0.022741102,0.017423065,0.021543164,0.01087909,0.004310539,0.022043189,0.0150832385,0.023624975,0.004327319,0.018100856,-0.022499211,0.016300773,0.0016117396,0.035064366,0.0026101745,0.024839416,0.027618593,-0.0032848418,-0.011835774,0.0063337283,-0.03858487,-0.040904485,0.04921673,-0.033969194,0.051979177,-0.003964982,-0.031670187,-0.023651458,0.020079507,-0.023451831,-0.04134692,-0.032464445,0.029333979,0.036778975,-0.0318729,0.01832809,-0.02588746,-0.035128824,-0.015477499,-0.014006194,-0.031738717,-0.030869937,0.024572426,-0.040108643,0.012430826,-0.034048792,-0.022564152,0.017227268,0.0292814,0.016986448,-0.031138739,-0.034452856,0.016320772,-0.034365915,-0.03924161,-0.016499393,0.0017378196,-0.026582481,-0.017816462,-0.0246705,-0.029944122,-0.026278874,-0.020896543,0.0073144482,0.018884294,0.025757875,-0.03829986,-0.026850354,0.021884067,-0.031231726,-0.020569997,0.032480862,-0.037449937,-0.04027568,-0.03181304,0.037119657,-0.048908606,0.038185306,-0.043003388,0.039357454,-0.020034013,-0.029334556,-0.03294079,0.028076328,0.014136591,-0.0392154,-0.040663708,0.03730934,-0.027641045,-0.036032304,0.029378979,-0.012906579,0.033182494,-0.035496533,-0.041099247,-0.017495872,-0.01586212,-0.007668938,0.039383728,-0.035576552,-0.012432168,-0.027165884,-0.029948995,-0.033976704,-0.03913149,0.004449701,-0.016237764,-0.029164867,0.047227174,0.03786183,-0.036575437,-0.027870746,-0.047335528,-0.025114162,-0.039806545,-0.021450344,0.05283352,0.031891435,0.018304622,-0.01571219,-0.024773292,-0.035162065,-0.018152786,-0.046438396,0.021765519,-0.031217307,-0.021251628,-0.032409944,-0.036001697,-0.037932217,-0.031262457,-0.046070836,0.05873167,-0.017801214,-0.027243981,-0.0017042479,0.041187447,-0.018653266,0.0039224494,-0.024999252,-0.0353167,-0.020708485,-0.027079687,-0.050471026,-0.04063015,0.03596476,0.039845828,0.004098151,0.026266698,0.014033678,0.004589274,0.009521815,0.026416566,0.023764677,0.019163232,0.019823814,0.0026925756,0.01717598,0.019086447,0.008114939,-0.004060001,0.036636475,0.025614753,-0.006993272,0.00021845821,0.019274425,0.026381377,0.031331945,0.017402492,0.03666903,0.010603112,0.00922576,-0.011267248,0.012045516,0.016153047,0.016044963,-0.003135468,0.0016534653,-0.002195017,-0.0038206931,-0.0075467643,-0.009454595,0.005954198,0.026893185,-0.003210011,0.0067407354,0.00647864,0.012947393,0.00889252,0.0015956599,0.0019704949,-0.0055374424,0.016959867,0.027621383,0.023021631,0.012470709,0.0044788863,0.018897578,-0.0065708263,-0.0011398019,0.012282448,0.024582567,-0.00741923,0.020835306,0.023217453,0.0059366035,0.016008208,0.009543452,0.02117388,0.0051056705,0.018090712,0.03813081,0.007495717,0.006708081,-0.0009194159,0.014110228,-0.008883135,0.011359515,0.03382389,0.02875017,0.011617543,0.012337364,0.02170809,0.011767333,0.021080798,0.005132985,-0.0005737098,-0.0012151756,0.0130621875,0.029204879,0.008819436,0.003764047,0.017328992,0.0014793403,-0.001171462,0.014404083,0.0005864086,0.023817854,0.011171251,0.013710094,0.011079878,0.009175462,0.0012030591,0.0025769048,0.017862624,0.0006419173,-0.00647854,0.0066525396,0.008767784,0.0062594865,0.0063864333,0.007391697,-0.0036551235,0.0090586785,2.8742092e-05,0.015426801,0.014025075,0.016362915,0.011633496,0.0059249406,0.015498727,0.009872657,0.02412919,0.011563784,0.016454224,0.011356564,-0.009849121,0.022948055,0.014483025,0.015134493,0.026221467,0.0009994693,0.015508875,0.041213226,-0.019826729,0.003618427,-0.0078406455,-0.0013740831,0.029304266,0.0043098344,0.04382538,0.0018473474,0.02133359,0.0055952813,0.023741081,0.023980172,0.016942024,0.01633006,0.021545768,0.04255199,0.005148565,0.021191781,0.008940945,-0.001799688,0.021048866,0.007636757,0.008960855,0.01049752,0.023863195,-0.006032358,0.033333164,0.010991884,0.014980218,0.020725325,0.01691,0.01350696,0.013583316,0.012133685,0.023120984,0.008632569,0.0033346047,0.014913519,-0.0052403435,0.016857786,-0.0025033585,0.010157876,0.011013421,-0.01870862,-0.0035696786,0.014455738,0.012182914,0.027722396,0.023896785,0.00915999,0.023852907,0.022385485,0.0028720608,0.040758885,0.00515923,-0.010369392,-0.011048041,0.040753484,0.04383667,0.038962893,0.016048428,0.047424294,-0.0033433554,0.009470181,0.002629573,0.03453158,-0.003615675,0.008099137,0.0100199,0.05030186,0.007650294,0.008720866,0.018682826,0.0069857007,0.04005656,-0.00542874,-0.0051647862,-0.0028448252,0.0015588052,0.016500862,0.031927068,0.009743838,0.015142942,0.0071482914,0.017707234,0.010645336,0.005711412,-0.0017613118,-0.0043269447,0.0124108475,0.031566106,0.030919991,-0.00864078,0.00048396076,0.0003101252,0.0076787136,-0.0020913356,-0.0057929247,0.048443854,0.014541683,0.024681047,-0.0023650825,0.0072550536,-0.00511624,-0.019679941,0.0008664321,0.015887108,-0.008976719,0.0040464764,0.0068243784,-0.0029056068,-0.0020855844,0.015575664,0.010327797,0.022420174,0.010454834,0.0006367034,0.01964428,0.02722174,-0.0012265879,0.00054016203,0.0011951725,0.010557585,0.020592883,0.0079003405,-0.0011215935,0.01258382,0.029527554,0.01401006,0.022655493,0.01375272,0.008925861,-0.044025216,0.015615433,-0.041289452,0.03134709,0.036600042,0.028355962,-0.020829888,0.03554016,0.027739393,0.01514444,-0.02272368,-0.049026504,0.02449232,-0.038946643,0.022640254,0.029543582,0.02782531,0.03238425,0.0248831,0.03651231,-0.03679199,0.031078216,-0.02360843,0.026062284,0.024725683,-0.05006475,-0.05257241,-0.04000066,0.01653028,0.02523125,-0.044087823,0.011510218,0.01869982,0.016591445,0.027379278,0.024489496,0.015262465,0.020904604,0.01142595,0.024023827,0.025282763,-0.031819705,-0.03347605,-0.05007694,0.017774632,-0.0025084189,-0.023275383,0.0063408823,0.035897024,-0.030875336,0.013106156,0.020041637,0.022653915,-0.048516296,-0.16906458,-0.047631424,0.02913246,-0.047232624,0.022220308,0.0055272393,0.0034968897,-0.051746584,-0.027080279,0.0065798094,0.011285193,-0.06319041,0.020737333,0.03768654,-0.04220677,0.034928888,-0.0490058,0.015904484,0.021017792,0.008357745,0.0068793744,0.029881164,-0.04033299,0.017530348,0.028330352,0.0122674005,0.02047812,0.022361366,0.029111603,-0.0156014385,0.030491704,0.017467912,-0.05480849,-0.05259433,0.01737936,7.4728705e-05,0.029045427,0.03207677,0.012856477,0.03218657,-0.04387035,-0.041754924,-0.022924107,0.03127895,0.024945779,0.030495744,0.006040488,0.03305151,-0.033197813,0.027895875,0.034945704,0.027181847,0.0011594916,0.02982622,0.017870486,0.021149503,-0.035988882,0.032881103,0.027528025,0.023648486,-0.06878736,0.021123303,-0.030339208,0.026800714,-0.008981514,-0.006789698,0.019923937,0.01067085,0.02010238,-0.06321164,-0.0359976,-0.050054498,0.010223455,0.018680766,-0.003981984,-0.003474724,0.022452137,0.035832465,0.021800483,0.010086864,0.00803101,0.03434643,0.02991818,-0.0005046703,0.0099964505,0.009513144,0.016841937,-0.0030243732,0.0073315757,0.010953505,0.035744894,0.009588582,0.009243298,0.01267373,0.009807167,-0.010632514,0.021647377,0.028786993,0.0102283815,0.013673943,-0.00819345,-0.005913904,0.016036246,0.004367778,-0.00619211,0.03720603,0.010561366,0.037901625,-0.009072939,0.01844025,0.027230453,0.013763321,0.03202849,0.0031360518,0.022758259,-0.0070649376,-0.0024629051,0.009708852,0.016998729,0.013799498,0.008406118,0.0086899595,0.022127716,0.014500119,0.009934256,-0.0110536115,0.026245655,0.0016227206,0.00074820605,-0.008291281,0.015175225,0.005742062,0.010641281,0.014850157,0.015643388,0.0113347145,0.0060514915,0.03409523,-0.0077787642,0.038137794,0.026733601,0.0051667453,0.015444719,0.0077588973,0.014613779,-0.005076311,0.014539632,0.029040858,0.01696826,0.003928259,0.008807912,0.025282245,0.0032021978,0.01326721,0.02761849,0.006176557,0.00942371,-0.010006992,-0.009281873,0.010980687,-0.0076232725,0.010982642,0.012102477,0.011009905,0.008792364,0.017036282,0.03086961,0.02159011,0.008940859,0.0046599307,0.014277122,0.0027724933,0.015109903,0.01291956,0.0042745704,0.0138241,-0.0035287512,0.02875589,0.0068011233,0.019458432,0.02824457,0.0065412503,0.022591481,0.0151678175,-0.010290217,0.0027096684,-0.00529153,0.026519638,0.0052087116,0.017435132,-0.021123623,0.012640721,0.024260739,0.0028063003,0.017342495,0.019156605,0.0076275873,0.009883201,0.01476582,-0.0058765085,0.0153428465,0.0012262986,0.011971601,-0.006773039,0.018431598,0.021357147,0.010560405,0.007775357,0.006790103,0.012143426,0.017255334,0.0063962457,0.0125732785,0.0020665824,0.017721228,-0.007018597,0.00909015,0.018581346,0.0018687231,0.0106022805,-0.0014504379,0.034734134,0.005578782,0.0024520708,-0.0069349837,0.009378166,0.0074236556,-0.0148964515,-0.00025280425,-0.008682437,0.0034459522,0.009254159,0.0011100975,0.0064525367,0.0038027582,0.012603034,0.011341595,0.018681858,0.00255464,0.024756618,0.019306866,-0.0065689897,0.008251913,0.006648174,-0.0036080114,0.002430567,0.0003646525,0.011809386,0.0005876967,0.0097582685,0.017927568,-0.019590238,0.016636964,0.01608587,0.029474521,-0.0077913874,0.00986462,0.0021712345,-0.0035023433,0.030014629,0.026362978,0.013895043,0.02654828,0.004722755,0.014134563,0.03285887,0.015714865,0.002033271,0.018413447,0.016777053,0.008082246,0.035226665,0.014281856,0.019733654,0.017334247,0.019324401,0.017443698,0.015387424,0.027782163,0.019041127,0.0077896314,0.014511637,-0.002546088,0.0073527023,-0.010561103,-0.0038180333,0.01066441,0.034973558,0.0005122229,0.0005083637,-0.0017485686,-0.0022194667,0.016233433,0.033815723,0.010719976,0.016956631,0.0072565395,0.0053629745,-0.0029373795,0.0037500542,0.011083691,0.0061004907,0.02288067,0.029685207,0.015217594,0.008225409,-0.00629223,0.026916102,0.019514976,0.01834589,0.041045446,0.03862371,3.844117e-06,0.017094554,0.013356651,0.021189107,0.025932815,0.01731389,0.0055676047,0.014242067,0.014750251,0.002064215,0.025027938,0.00700958,0.01399982,0.008085656,0.0054084538,0.0059919767,-0.023955269,-0.037124302,0.030831655,-0.042304274,0.046065688,-0.027248135,-0.037643947,-0.009712098,0.0104196025,-0.020639248,-0.03188685,-0.027507398,0.044166,0.034737114,-0.027808914,0.014832932,-0.012867496,-0.010334526,-0.016851598,-0.020844221,-0.04104116,-0.021601008,0.026938295,-0.030975906,0.031628206,-0.023069007,-0.029694287,0.014283814,0.019566676,0.010198197,-0.03690137,-0.02753674,0.046339814,-0.019595904,-0.039983828,-0.03788491,-0.0074607595,-0.017762655,-0.027901178,-0.01482392,-0.025820326,-0.029382836,-0.029423608,0.04194782,0.025833176,0.026157351,-0.009090975,-0.028154658,0.006906198,-0.026562043,-0.021877449,0.036061753,-0.048272897,-0.0213569,-0.030611768,0.024086112,-0.059324443,0.018087879,-0.015671616,0.020742368,-0.027708776,-0.009887752,-0.036301304,0.042585444,0.040887192,-0.035340335,-0.03610793,0.0235335,-0.028617602,-0.013772919,0.028769793,-0.0059202183,0.029178232,-0.024449931,-0.016093088,-0.03809229,-0.023249554,-0.040118407,0.029856108,-0.014713629,-0.00625569,-0.02837234,-0.026955856,-0.022726562,-0.0135444235,0.008741109,-0.024300981,-0.029644854,0.0273952,0.020609768,-0.020999985,-0.028063267,-0.02875503,-0.02164925,-0.03072777,-0.03924055,0.022332683,0.031910617,0.019611884,-0.023172323,-0.01436115,-0.019645866,-0.00980601,-0.021686325,0.015641667,-0.025961503,-0.0023807725,0.0046303077,-0.021879954,-0.054366086,-0.022384875,-0.02764418,0.04430833,-0.02390221,-0.046634723,-0.032202803,0.02261851,-0.0198598,0.007870558,-0.033265878,-0.03599532,-0.021536265,-0.033302225,-0.020977598,-0.01837084,0.04788797,0.03301248,0.035264935,-0.054669674,-0.069203414,0.025616314,-0.029172294,0.03809277,-0.06598356,-0.06431057,-0.055408806,0.010853335,-0.056523666,-0.04569283,-0.07045192,0.00650729,0.04110712,-0.055047695,0.01100483,-0.06076758,-0.055935375,-0.05088752,-0.066570975,-0.074084476,-0.053245876,0.02111826,-0.02940256,0.041290164,-0.06841901,-0.051254798,0.0062059625,0.03291706,0.017047212,-0.059330393,-0.061431028,0.034696285,-0.04891403,-0.04553893,-0.054437622,-0.007204138,-0.055104494,-0.022464067,-0.04500182,-0.060484875,-0.039885223,-0.055523902,0.0457579,0.025745707,0.032779288,-0.057243526,-0.058040127,0.019046644,-0.041380614,-0.06156996,0.046607796,-0.059905253,-0.050405268,-0.057970136,0.016254593,-0.10876443,0.0426531,-0.041474745,0.027071055,-0.069991715,-0.048368342,-0.054214433,0.018565226,0.009703271,-0.050260622,-0.05066916,0.048356194,-0.059288304,-0.055916075,0.005388545,-0.06044476,0.027082967,-0.04392095,-0.06382041,-0.056224093,-0.06727995,-0.05314167,0.022352038,-0.06699235,-0.020588653,-0.062102664,-0.047115415,-0.056840397,-0.04402437,0.0039933175,-0.030400494,-0.06377727,0.009869602,0.055556808,-0.049580492,-0.055133995,-0.04168705,-0.045741063,-0.037399437,-0.049858153,0.027776739,0.02611722,0.029092189,-0.041186377,-0.046683434,-0.055508938,-0.03803327,-0.06370381,0.014392652,-0.055373516,-0.04259127,-0.052296948,-0.044059545,-0.044135343,-0.03460556,-0.05236301,0.018236384,-0.059396945,-0.04258064,-0.05185394,0.041668206,-0.044383947,-0.0033555476,-0.062834404,-0.05814916,-0.052540448,-0.034772683,-0.054033466,-0.053487033,0.030378042,0.021466954,0.026413126,0.0102556,0.017645882,-0.030126607,0.006633107,-0.050868724,0.026315335,0.023478521,0.031259544,-0.022490704,0.019248623,0.024271261,0.04874905,-0.02257331,-0.042221874,0.037011817,-0.042752825,0.005853638,0.008992497,0.029669132,0.016700054,0.017740192,0.014634587,-0.037899308,0.031102149,-0.03285265,0.019537574,0.03615106,-0.023513597,-0.019905908,-0.022367733,0.016764512,0.019316,-0.026169531,0.019413562,0.0013894615,0.019655542,0.021721203,0.032372158,0.012360899,0.010539915,0.021954767,0.024699625,0.02088733,-0.03585332,-0.033669855,-0.045868658,0.030503858,0.029375574,-0.04158687,0.029114906,0.02064194,-0.026980486,0.033042025,0.013051471,0.020713137,-0.039701335,-0.14768529,-0.041071016,0.0065767104,-0.046103254,0.021237709,0.020241909,0.009738166,-0.03032448,-0.017331265,0.01942089,0.013593503,-0.034976117,0.008099043,0.01702488,-0.031473678,0.03707981,-0.04267806,0.014530972,0.022206778,0.031945173,0.02667114,0.011909933,-0.024719965,0.015300777,0.0038763254,0.022310121,0.013164006,0.03536756,0.018547837,-0.012314708,0.017443096,0.008010446,-0.0070534567,-0.032106295,0.025067247,0.027205093,0.011139629,0.02008513,0.01624864,0.014559528,-0.06061038,-0.030305693,-0.03531635,0.0056321425,0.01755266,0.015376982,0.026331663,-0.0023921784,-0.047214597,0.033715032,0.020749392,0.02499159,0.04065593,0.039015487,0.038023077,0.011871139,-0.03167686,0.026222065,0.009749438,-0.004886585,-0.04662985,0.022344831,-0.025125189,0.025122229,0.016400494,0.028995493,0.002063252,0.009975598,0.0075154863,-0.040817343,-0.020565681,-0.045003243,-0.048281275,-0.047467563,0.046593722,-0.030049032,0.03411731,-0.040143277,-0.047199555,-0.043524038,-0.003043881,-0.06125602,-0.03336961,-0.034511905,0.02509221,0.038630083,-0.04000599,0.011199026,-0.03793033,-0.05247234,-0.04613503,-0.04272672,-0.046203267,-0.05114899,0.021584451,-0.039995912,0.02588422,-0.03456176,-0.049039967,0.025714627,0.025198342,0.028171798,-0.047823817,-0.031159805,0.02068617,-0.04931468,-0.046828113,-0.03922696,-0.030499393,-0.045583468,-0.03921685,-0.057432108,-0.030587487,-0.028130887,-0.050394528,0.026126424,0.014883107,0.048653506,-0.052659407,-0.049496014,0.011978059,-0.036641076,-0.041609738,0.011509327,-0.059731115,-0.049407307,-0.050914884,0.03589679,-0.08808008,0.02322564,-0.056556325,0.041456286,-0.041612256,-0.034566686,-0.044167917,0.028300162,0.016355459,-0.041267037,-0.018686073,0.047981467,-0.04735434,-0.04768738,0.0169054,-0.030355558,0.043769658,-0.02860321,-0.043755837,-0.031006338,-0.034944527,-0.056347687,0.012028536,-0.06532701,-0.007934608,-0.044868,-0.059082624,-0.044589914,-0.050277755,3.4477554e-05,-0.040290054,-0.024538144,0.029352646,0.024759552,-0.028055284,-0.04031191,-0.041227814,-0.06017446,-0.03257412,-0.056612745,0.041150987,0.02200801,0.0022318524,-0.030818015,-0.049554337,-0.05062307,-0.023403358,-0.038928103,0.008727039,-0.039197832,-0.045446347,-0.037921064,-0.049596522,-0.039337404,-0.034667693,-0.066628315,0.035479955,-0.052061323,-0.042748068,-0.03322066,0.028527783,-0.05093442,-0.0088840285,-0.039098483,-0.042713694,-0.04000258,-0.05275984,-0.05833287,-0.05052322,0.032559566,0.008147736,0.035092704,0.027057149,0.033177696,-0.034428053,0.027809702,-0.053750277,0.029655116,0.009340843,0.02454401,-0.021219207,0.037140325,0.023656232,0.012341284,-0.014981588,-0.038082648,0.00981031,-0.029960489,0.008442496,0.018536067,0.0369681,0.026097866,0.039925884,0.015193625,-0.016004337,0.004143871,-0.03369654,0.03693138,0.0043639117,-0.032241754,-0.037940875,-0.031047177,0.018934716,0.024708921,-0.023571393,0.01907097,0.03450359,0.017948002,0.0187019,0.011291756,0.0092229815,0.0027667505,0.018359937,0.023515647,0.02027601,-0.03201678,-0.03303272,-0.052154686,0.0414449,0.03818807,-0.04998165,0.035507232,-0.000863593,-0.030932004,0.031623613,0.013778808,0.020549973,-0.03770492,-0.14501546,-0.040277198,0.019571876,-0.049342286,0.017981023,0.012240259,0.02269594,-0.040732455,-0.026329694,0.030779041,0.015722508,-0.043045666,0.0229707,0.028494399,-0.04891264,0.038307868,-0.059668887,0.018095002,0.02826929,0.019341802,0.023828996,0.03380056,-0.040319175,0.028024485,0.018307833,0.016927496,0.0010265576,0.02790144,0.0075751254,-0.02177437,0.020615712,0.017877309,-0.042739652,-0.040619384,0.014549971,0.026850594,0.02453873,0.027372232,0.020669807,0.02632275,-0.03990322,-0.033183824,-0.02754363,0.007249048,0.006839408,0.021087391,0.0004169369,0.018564088,-0.020762594,0.019533997,0.013987852,0.033352897,0.018846346,0.024111835,0.016096393,0.008628692,-0.040647414,0.022687845,0.012098981,0.020908082,-0.060392544,0.042019,-0.044664606,0.021809282,0.022433253,0.026871085,0.012969215,0.013963354,0.030493392,-0.053307943,-0.026748063,-0.027380789,0.018547898,0.024070447,-0.042118594,0.017474152,-0.029539928,0.03166715,0.029589448,0.0069974517,-0.011100103,0.021327857,0.022254579,0.016735956,-0.02346471,-0.021350013,0.033448502,-0.02974262,0.02744644,0.009818807,0.023788163,0.016244745,0.02150235,0.019200977,-0.034770645,0.014244302,-0.026129639,0.025282059,0.03588585,-0.033701126,-0.041798245,-0.015321799,0.008437518,0.030035624,-0.04622484,0.011836764,-0.0015315245,0.013068503,0.020987358,0.023672724,0.029768296,0.028174944,0.016785868,0.020193616,0.021029301,-0.021999972,-0.016134055,-0.04218182,0.019756626,0.0052097286,-0.033440832,0.024838999,0.015119573,-0.013680204,0.013008212,0.004018576,0.011255217,-0.01861402,-0.10500681,-0.031100567,0.005176617,-0.0072637503,0.013662263,0.005906232,0.021756515,-0.019134048,-0.014275997,0.03232543,0.02691376,-0.029684616,0.0014534533,0.03507304,-0.039039984,0.033692498,-0.022254726,0.02104854,0.032622922,0.0048394194,0.026613697,0.020916563,-0.025983952,0.04055037,0.0027484507,0.0022841378,0.014256978,0.037206534,0.016684063,-0.02670377,0.012948278,0.016838612,-0.012410881,-0.027707769,0.01716032,0.012681857,0.013372054,0.037924197,0.019184947,0.011158673,-0.024718115,-0.024854226,-0.023980474,0.034845036,0.014470471,0.015254545,0.0054602544,0.039039984,-0.01557834,0.03177064,0.007753643,0.04103613,0.016360814,0.027329333,0.009018041,0.023644343,-0.019824943,0.028626869,-0.00064653077,0.033784147,-0.04358032,0.019639185,-0.019546578,0.022384757,0.027928224,0.007451149,0.018096877,0.0027045512,0.028232379,-0.0087290285,-0.016448924,-0.04449099,0.0040336936,0.007057236,0.03406809,-0.0122273825,0.034931775,0.011467882,0.004956955,0.021572763,-0.004452393,0.016700398,0.010095547,0.018495686,-0.007694563,0.013153751,0.022544159,-0.00788619,0.026479213,0.01570946,0.023876099,0.026924541,0.0022786853,0.025917115,0.019985408,-0.0019974106,0.03075023,0.0009649675,0.0014805816,0.004402772,0.021192264,0.018065846,0.01681569,0.014813296,0.018072275,0.013253035,0.0037848125,0.003668149,0.02212932,0.0099067865,0.017523037,0.020564849,0.011833676,-0.021069268,0.0119701605,-0.0030208868,0.0021219281,0.015022158,0.01914743,0.012681643,0.018429974,0.00065508083,0.0062451,0.018688552,0.022719853,0.010464657,0.013099893,0.038815238,0.04658353,0.01867261,0.022418907,0.025387805,0.019191466,0.0069793384,0.015509671,0.039735954,0.008925557,0.017590629,0.0057980577,0.037085578,0.013488106,0.0028144987,0.01381049,0.0007358548,0.031166548,0.015794681,0.041565,0.020296698,-0.0020256494,0.027264552,0.017962562,-0.0071800863,-0.00641924,0.00043457004,-7.915316e-05,0.017473185,0.01702623,0.011951359,-0.010577524,0.023680005,0.01500635,0.026088534,0.0033875045,0.021175196,0.0033340936,-0.016416123,0.0037770714,-0.0010511018,0.035394754,0.012891388,-0.00044757256,0.004899164,-0.013257248,0.0010554496,0.011819975,0.0330511,0.00087213994,0.008565792,-0.007021836,0.020225978,-0.0062989495,0.008335345,0.021702694,-0.0095889615,0.030991966,0.015611615,0.02007053,0.013913695,0.035640255,0.026285326,-0.0050985278,0.004999158,0.02513482,0.012161255,-0.0020255768,0.0057447315,0.0048254356,0.026391305,-0.0011116401,0.0248323,-0.0031346816,0.025363456,-0.047683667,0.019948939,-0.043304432,0.022265589,0.020361155,0.028591469,-0.009911365,0.013068331,0.03722893,0.016665397,-0.010189608,-0.041176364,0.018133933,-0.012922485,0.012806959,0.016810868,0.025133565,0.026287097,0.0072368816,0.03631996,-0.06153646,0.00946101,-0.04448152,0.027225617,0.027436852,-0.020635514,-0.03581153,-0.027019253,0.009139131,0.023427885,-0.042722628,0.028984286,-0.004355136,0.018553894,0.026720162,0.016000556,0.0015084947,0.0255493,0.016187904,0.023650378,0.010485849,-0.03514932,-0.023210552,-0.02925196,0.039044328,0.017611073,-0.035667494,0.019817365,0.02569621,-0.04068806,0.02448795,0.030579051,0.007770221,-0.04270091,-0.14257622,-0.03814685,0.039714184,-0.041473214,0.039266817,0.025749154,0.023519058,-0.0375866,-0.004749286,0.0035478694,0.019549333,-0.048261233,0.028579578,0.008473937,-0.034168337,0.023062339,-0.058316953,0.020457176,0.019359976,0.02917774,0.017669236,0.03581168,-0.033761527,0.032424197,0.010905307,0.026335249,0.00756615,0.036015317,0.01604844,-0.041125223,0.02108714,0.015665093,-0.015871681,-0.029283466,0.010228893,0.024280723,0.02384571,0.0089385845,0.008336924,0.027612101,-0.041036557,-0.039496213,-0.023222698,0.022582654,0.016235217,0.011228409,0.00954733,0.020502435,-0.03425053,0.016012428,0.006577437,0.01791211,0.015302923,0.008055066,0.012341877,0.014364077,-0.037517343,0.014577158,0.034846876,0.020676618,-0.050861448,0.04350383,-0.02309799,0.02457841,0.024276577,0.030034333,0.01611095,0.023726067,0.016996073,-0.051198427,-0.015353809,-0.041070912,0.030293386,0.016575886,-0.052600607,0.006325246,-0.06427457,0.027199022,0.009366369,0.019006152,-0.02252223,0.025192227,0.031760413,0.020035032,-0.018937921,-0.048100937,0.018620564,-0.018984381,0.009158731,0.022026427,0.023462104,0.0134828985,0.03629269,0.014992465,-0.0135750435,0.014659979,-0.04219253,0.019049292,0.013872014,-0.026072081,-0.03765778,-0.021981271,0.031593595,0.032072786,-0.023301287,0.010527099,0.01265009,0.013303107,0.01264308,0.030240688,0.021221243,0.040787544,0.035823964,0.019333273,0.030155826,-0.03293853,-0.04433592,-0.055284478,0.015195559,0.027432099,-0.050790332,0.023331756,-0.00091801205,-0.03750721,0.022210328,0.029673517,0.0065555186,-0.053087186,-0.1748979,-0.030682115,0.028105197,-0.044626404,0.0007247515,0.0033857892,0.008996246,-0.043661572,-0.024346659,0.014498491,0.011463839,-0.057573818,0.022668907,0.0236778,-0.039788757,0.005430036,-0.058738578,0.02327886,0.044285998,0.023031399,0.020508956,0.010067246,-0.030302742,0.02173974,-0.0011972092,0.021971267,0.013288258,0.025507446,0.008957365,-0.01697845,0.02989469,0.005901621,-0.03991532,-0.049944416,0.012103425,0.015378648,0.021985421,0.017744178,0.014234141,0.015089938,-0.035636153,-0.022747278,-0.026859958,0.013405146,0.030112429,0.031249788,0.01861304,0.015873998,-0.030228527,0.014707964,0.020817654,0.031228855,0.015369961,0.008735583,0.029383074,0.009029999,-0.038918775,0.016228532,0.016415212,0.030475328,-0.042937126,0.016362716,-0.033612587,0.024414526,0.031512402,0.032045815,0.036452528,0.036711182,0.029016944,-0.039056815,-0.02400536,-0.0480606,0.027100466,-0.0036869596,-0.06084693,0.025957033,-0.06683001,0.031448714,0.03172617,0.032008503,-0.040726397,0.01995255,0.021007132,0.022822034,-0.01421498,-0.0645062,0.019634366,-0.037683137,0.019038677,0.015825566,0.025745967,0.005737766,0.032493766,0.03990239,-0.061256137,0.02001695,-0.048627134,0.03166372,0.011289223,-0.047810316,-0.04896007,-0.029930986,0.021683903,0.024021117,-0.05073934,0.0126080625,0.0145168975,0.019313404,0.014322316,0.045405198,-0.0053989985,0.028250724,0.03513538,0.02047979,0.035405815,-0.050392404,-0.05034618,-0.0642051,0.028761094,0.011231708,-0.05659468,0.012168363,0.026018487,-0.048978023,0.0240593,0.04067618,0.015008037,-0.052923776,-0.1997062,-0.06299623,0.019716753,-0.07650198,0.03261285,0.010070461,0.012761579,-0.04945462,-0.048376605,0.023056535,0.026814593,-0.06734334,0.020374551,0.044223513,-0.05668101,0.011348543,-0.07570784,0.030474365,0.011141856,0.02067333,0.025567267,0.025434537,-0.052395362,0.021262698,0.042387728,0.037755087,0.022026014,0.02816731,0.017609762,-0.049775966,0.0089579085,0.031316668,-0.059407387,-0.059572864,0.011748774,0.016632294,0.02502152,0.016636193,0.007907615,0.024998628,-0.0689239,-0.04299815,-0.052117493,0.0052600657,0.023540728,0.026499096,0.014410331,0.031352058,-0.04611063,0.02264092,0.030987479,0.027929518,0.02041641,0.020182317,0.028875627,0.021002172,-0.060184196,0.044237874,0.027497454,0.022780124,-0.07100796,0.041184556,-0.032190334,0.016508073,0.021746773,0.035574216,0.013571654,0.021021808,0.022861972,-0.07449831,-0.03806531,-0.051081974,0.017447392,0.018126417,-0.019363154,0.009807944,-0.024467818,0.015773773,0.0044158604,0.032220233,-0.017812235,0.021608233,0.025578951,0.04014269,-0.021692561,-0.050735902,0.012296616,-0.0109734135,0.0029761845,0.021323517,0.023925126,0.023305768,0.0077713863,0.014185928,-0.040050715,0.010283133,-0.02659836,0.017971326,0.02338147,-0.030188581,-0.038070343,-0.02864613,0.021856379,0.017555268,-0.014601975,0.021166878,0.03277712,0.032312743,0.003837346,0.031256456,0.012143757,0.03073781,0.026296396,0.015189802,0.016032452,-0.031999733,-0.03097848,-0.05427335,0.012293851,0.00528883,-0.020159643,0.006489464,0.008638086,-0.02440376,0.010839033,0.015927417,0.010462749,-0.023348734,-0.10474036,-0.019232173,0.017817345,-0.032600805,0.038825363,0.012821581,0.021465568,-0.043575235,-0.03497765,0.036891796,0.0054209856,-0.027002037,0.018377969,0.011635895,-0.00910224,0.019652292,-0.047737442,0.021614477,0.027045913,0.014911901,0.02000236,0.0034140279,-0.03099627,0.023382323,0.015684575,0.013118649,0.02141856,0.0362827,0.004706417,-0.02098967,0.016613133,0.0115151955,-0.018903283,-0.049490917,0.02688269,0.015963903,-0.002065842,0.023468027,0.013538686,0.014019621,-0.039318223,-0.009829701,-0.017268872,0.015628671,0.02525799,0.016548702,0.0185678,0.043795075,-0.012471547,0.025785029,0.01986443,0.023511633,0.0136180585,0.038087875,0.033185974,0.021148873,-0.023032013,0.01166201,0.014855696,0.020703856,-0.036126025,0.024889281,-0.019761758,0.0027981324,0.011166904,0.012365745,0.0021502716,0.025735693,0.017507376,-0.042691234,-0.031057604,-0.024312587,0.0023528205,0.022538649,-0.031187784,0.02783238,-0.030255007,0.018680817,0.024884367,0.026274042,-0.019002382,0.024452807,0.019457707,0.022370888,-0.019009748,-0.040635694,0.0017030176,-0.036556795,0.004387601,0.017227495,0.013980505,0.023765389,0.029214848,0.021847567,-0.032089483,0.015855733,-0.06567109,0.03160093,0.021251246,-0.015014057,-0.030626008,-0.000684631,0.02687034,0.025431518,-0.031080762,0.027414812,0.017750073,0.0007959402,0.0059949127,0.03401506,0.03034178,0.01771457,0.02921874,0.00012381568,0.02530488,-0.007873112,-0.03965578,-0.043395612,0.029341264,0.016073285,-0.037322093,0.016907856,0.014845722,-0.036263436,0.02715527,0.029931236,0.013453256,-0.04858296,-0.1469562,-0.030092254,0.021313472,-0.035933044,0.027130242,0.001415854,0.0042915246,-0.037212722,-0.031289935,0.04760444,0.021785105,-0.039789386,0.033236362,0.027023403,-0.051701516,0.042264774,-0.052766606,-0.005232023,0.014429007,0.021827899,0.024572093,0.013230867,-0.03433286,0.0020719392,0.017949518,0.029112685,0.016870935,0.012460878,0.009202195,-0.031245993,-0.0006461737,0.0090141175,-0.029182902,-0.054731604,0.007062031,0.011464204,0.03603675,0.016597424,0.022838313,0.018441787,-0.032390293,-0.041149765,-0.041521724,0.030900523,0.002740042,0.0068326457,0.0024708926,0.036367595,-0.02500637,0.018670445,0.027458595,0.014594282,0.0065798103,0.035116654,0.019411096,0.010426952,-0.041211538,0.0075080246,0.037027396,0.019708045,-0.0513686,0.042034976,-0.028115753,0.01390504,0.016250279,0.022856837,0.018381314,0.027945343,0.042213008,-0.052137543,-0.025454722,-0.04468863,0.0052593965,-0.011106049,0.016869288,-0.036286663,0.038977474,0.0022732264,-0.01773644,-0.024533393,0.010958297,0.0025988282,-0.0094899805,-0.012564761,0.03144512,0.024775915,-0.009933576,0.019232353,-0.0130437575,-0.017610598,-0.0036827582,-0.017635336,-0.022300037,-0.023303926,0.033298083,-0.022567706,0.027527092,-0.008480548,-0.030053418,0.028904654,0.040469706,0.026162943,-0.03810536,-0.009561062,0.014767375,-0.024113476,-0.023126218,-0.0070327786,-0.0061931233,-0.029667266,-0.0021341997,-0.023708113,-0.023075167,-0.0369283,-0.03655908,0.019132724,0.0337402,0.03152447,-0.0046541938,-0.018989278,0.03679476,-0.032054264,-0.024700126,0.036359556,0.011092022,-0.025930664,-0.047099948,0.036123127,-0.024372196,0.02709828,-0.01303527,0.04185335,-0.012807829,-0.013149326,-0.017478917,0.03216986,-0.0030764826,-0.0121116,-0.033727814,0.02472303,-0.021906395,-0.0010095988,0.019149011,0.00789071,0.036476035,-0.024201542,-0.000636683,-0.008898984,-0.008143539,-0.032847486,0.0101695815,-0.04733501,-0.02562405,-0.025710694,-0.031325415,-0.009602906,-0.03388103,0.0044186157,-0.021970743,-0.012281985,0.02365141,0.024968961,-0.025377272,0.008090823,-0.017604303,-0.017616311,-0.0061801746,-0.01873774,0.03049399,0.04671404,0.032248963,-0.018324167,-0.031860646,-0.031833082,-0.0340768,0.0019185317,-0.0022232975,-0.019787887,-0.039980445,-0.008748155,-0.029084112,-0.019452184,-0.017493214,-0.02856219,0.037763607,-0.02989899,-0.02959576,-0.009517286,0.02965115,-0.00558864,0.012650658,-0.027159829,-0.023041029,-0.010048639,-0.032567587,-0.019822935,-0.0016046523,0.03841664,0.025873847,0.021743845,0.02928821,0.011206597,-0.034468118,0.012185315,-0.026773043,0.008385094,-0.009324533,0.022140695,-0.008514393,0.035841122,0.033652328,0.002844622,-0.025024794,-0.030740753,0.019158013,-0.0169005,0.006721816,0.01502251,0.028584754,0.02758514,0.017662106,0.023730744,-0.024077844,0.0076439143,-0.0105366055,0.016295027,0.017260833,-0.0271165,-0.019241918,-0.033810407,0.023884775,0.021122193,-0.038184986,0.0177914,0.011448309,0.02726256,0.007262066,0.033966426,0.03182188,0.034560997,0.024792584,0.004009935,0.03748373,-0.010447008,-0.027213586,-0.0064925896,0.009295789,0.03555164,-0.02698602,0.026042258,0.0071441755,-0.02427438,0.0075766905,0.018546354,0.021814844,-0.043966815,-0.103644796,-0.017634582,0.026675867,-0.012175628,0.02553388,0.012803503,0.03326782,-0.037350386,-0.016472075,0.028809043,0.024578514,-0.03698689,0.013671946,0.04165731,-0.028559238,0.00963016,-0.016687525,-0.005205905,0.022252403,0.019022867,0.03476129,0.0056736697,-0.012655716,0.029629406,-0.012271551,0.011409734,0.007388777,0.028380938,0.005894444,-0.021106979,0.010174893,0.0038362315,-0.013895712,-0.031372298,0.014965766,0.027520189,0.015509266,0.01207562,0.01095161,0.008552762,-0.04080556,-0.023632718,-0.022845889,0.020510783,0.0058816983,0.017900802,0.008269859,0.0107641565,-0.00832597,0.022816358,0.004832336,0.030256683,0.015932035,0.01972318,0.013263981,0.0047224346,-0.016449008,0.0048651523,0.017920922,0.01835762,-0.015761869,0.032090828,-0.02071215,0.008962507,0.013575749,0.021514844,0.012182323,0.009372088,0.01638351,-0.017321141,-0.01622367,-0.01889891,0.024048278,0.011811782,-0.052938912,0.033516794,-0.04441391,0.020703929,0.019164111,0.032586437,-0.033858072,0.03422174,0.0428216,0.02055608,-0.024976278,-0.04645611,0.0030184058,-0.025329819,0.011880141,0.03310051,0.01325354,0.014388531,0.016045349,-0.0014626759,-0.021121962,0.02112784,-0.04956688,0.010535957,0.0056017437,-0.035977926,-0.027738247,-0.033152778,0.02259803,0.020025572,-0.037887428,0.0064701624,0.016291656,0.02476312,0.020064535,0.03596792,0.008181678,0.043050323,0.018908415,0.017083399,0.008589661,-0.034232825,-0.03555468,-0.044279255,0.0384697,0.0141322315,-0.04889374,0.01724502,0.019280009,-0.03800287,0.045381274,0.02045417,0.030078078,-0.046693534,-0.16121373,-0.047557555,0.031393126,-0.027544651,0.019310484,0.025412727,0.03810082,-0.03537786,-0.026341084,0.020028813,0.017742699,-0.036130987,0.021203015,0.031287562,-0.04060278,0.022708004,-0.05947696,0.015970208,0.023215942,0.017452348,0.019332385,0.0062521882,-0.054775126,0.013341732,0.027401894,0.008865102,0.014880018,-0.0031290015,0.026146505,-0.024435649,0.011057497,0.025607303,-0.031324834,-0.03110841,0.021377662,0.020322539,0.026985498,0.013096645,0.0069550266,0.018282594,-0.047874413,-0.03700009,-0.04091859,0.014969671,-0.010094298,0.030761594,0.026888326,0.025079697,-0.040918395,0.032795068,0.0197299,0.0031536687,-0.0028987408,0.020954682,0.013383889,0.03948224,-0.037558954,0.034191202,0.027268643,0.040658504,-0.049146004,0.029719945,-0.028601473,0.027127024,0.018216455,0.041665666,0.01641879,0.012975571,0.020429594,-0.0571532,-0.02119438,-0.041584544,0.022038147,0.008441129,0.020523267,0.010418441,0.03700922,0.014695999,0.026357533,0.005195287,0.010030339,0.00037169232,0.017919995,0.010233134,0.02315633,0.015517768,-0.0054095555,0.011213068,-0.007361513,0.011494477,-0.003290212,0.025520772,-0.0060632573,0.008599992,0.016362838,0.013878661,0.010882717,0.007719147,0.028171735,0.013811064,0.022751424,0.007726903,0.008515983,-0.0038964206,0.012254188,0.002365785,0.010280643,0.019112,-0.001423387,0.006390649,-0.00462495,-0.0012844902,0.021045398,-0.003993834,-0.00056556525,0.013822051,0.003262829,0.037354324,0.032438476,0.015313043,0.0015344279,0.0006481468,-0.011616435,0.02547065,0.00891489,0.0051961783,0.005225053,0.022258652,0.034472834,0.029152822,0.01972556,0.020149276,0.0018938663,-0.0037056422,0.008297549,0.024427902,0.02179635,0.006222029,0.021223947,0.038408663,0.02511085,0.008910278,0.05889545,0.01511259,0.053737257,0.012079331,0.0054612868,0.0088399565,0.008647653,0.010254107,0.023568325,0.017761696,0.0060592154,0.008910868,0.0029500872,0.029276105,0.00587433,0.003822649,0.008915618,0.0034576692,0.016943282,0.045182507,-0.006530576,0.0019542233,0.013829589,0.0029679218,0.012714908,-0.000760672,0.019835984,0.022268659,0.035973873,-0.0046228557,-0.0038153317,0.013513033,0.005089974,0.018739656,0.018010098,0.0062597385,0.004185303,0.01940335,0.013739815,0.005957488,0.008790729,-0.009777635,0.03520995,0.01614227,0.010260844,0.010844134,0.032207914,0.012804328,-0.0006818032,0.017855253,-0.0017979749,0.007779613,0.012271062,0.013883715,0.011706618,0.041785173,0.026333455,0.039136678,0.032319777,0.014254467,0.0019969647,0.019223586,-0.024708979,0.007836451,0.016540727,0.025130007,0.01777723,0.026970888,0.018227248,0.031516723,-0.025741171,-0.02161055,0.038523093,-0.009592315,0.021168672,0.016576706,0.023970917,0.029459624,0.013224537,0.019063592,-0.0115046725,-0.0011017346,-0.013285662,0.023396868,0.009086787,-0.004022869,-0.01711333,-0.031764198,0.012716121,0.029969454,-0.028992144,0.017978454,0.022463715,-0.004144669,0.0042086416,0.008179188,0.019545214,0.019519221,0.007708012,0.026604543,-0.010003233,-0.017537154,0.0028202452,-0.022058748,0.00062384,0.02494151,-0.009853801,0.016527442,0.009095302,-0.016679956,0.02413259,-0.0059940196,0.017755736,-0.019735016,-0.057708208,-0.011086267,0.020971773,-0.017201826,0.01594351,0.011648961,0.011605005,-0.013629185,-0.013685287,0.021682037,0.021156153,-0.023511797,0.010981487,0.006294363,-0.027874611,0.018140474,-0.029865893,0.026746577,0.015605466,0.010669958,0.01127572,0.016311932,-0.020247597,0.0024842236,0.011410232,0.013619615,0.004409886,0.013783101,0.011716053,-0.007682709,0.0072285086,0.019287549,-0.019207537,-0.02172476,0.02607503,0.027402785,0.024910027,0.0029827205,0.012167828,0.0027625526,-0.003234743,-0.011301143,-0.014894266,0.0038098993,0.01151347,0.010552183,-0.0027336497,0.010516084,-0.013929666,0.0100002885,0.009918152,0.029755231,0.0052540964,0.021231137,0.011241009,0.02937803,0.0026874596,0.016210578,0.027151702,0.013038475,-0.012733266,0.009122176,-0.0069261706,0.03180175,0.020899443,0.027279891,0.014898876,0.010375013,0.031946667,-0.035751864,-0.013469993,-0.013613132,0.024415983,0.031051453,-0.06342622,0.035575736,-0.05998745,0.03062191,0.013108165,0.02797851,-0.016620174,0.027447421,0.043479115,0.039757617,-0.033934686,-0.07357368,0.014755367,-0.041408096,0.015363122,0.025267322,0.03549844,0.031734306,-0.004268437,0.022540374,-0.053226043,0.015018864,-0.037170853,0.00244181,0.027806161,-0.03941645,-0.06585497,-0.024168648,0.023957845,0.03962582,-0.04666944,0.027895795,0.025853394,0.028123576,0.03218719,0.024025377,0.005096879,0.020810632,0.02514408,0.027888332,0.024988739,-0.038024258,-0.018173976,-0.056257583,0.028366538,0.037305467,-0.059358682,0.025992986,0.017169384,-0.04913763,0.04722981,0.033687685,0.020767936,-0.059446514,-0.19718793,-0.05483616,0.023570947,-0.06479569,0.032790143,0.028794684,0.027276529,-0.07299862,-0.021286918,0.030719977,0.018375248,-0.05264096,0.034555104,0.033365414,-0.05735753,0.025820497,-0.07299991,0.023890775,0.01787784,0.031894147,0.036090594,0.033505924,-0.0369121,0.013963844,0.013803546,0.006351257,0.028056715,0.013559781,0.014648308,-0.034806743,0.016179314,0.02726513,-0.0510357,-0.071755454,0.008174292,0.033452287,0.0099212285,0.024203135,0.036270075,0.030456163,-0.06898582,-0.057310473,-0.055818487,0.012776278,0.013533636,0.031603098,0.019501513,0.014852926,-0.032377232,0.025708558,0.021350613,0.016592266,0.037665,0.015309343,0.00751984,0.018067958,-0.05848994,0.010181392,0.024150986,0.03454906,-0.06784757,0.019705024,-0.038422786,0.015655007,0.010902687,0.030638812,0.008489973,0.025054488,0.02305039,-0.065124296,-0.03201732,-0.06854833,0.026527151,0.010467538,-0.018466415,0.022441043,0.0012072321,0.020293294,0.036985584,0.02206572,-0.013355137,0.03195501,0.026639523,0.023363026,-0.007812356,-0.013738203,0.0132923005,-0.015866023,0.035992354,0.023519808,0.046938535,0.019220568,0.009628089,0.018122021,0.00521035,0.0123807825,-0.012634465,0.014272895,0.012447707,-0.015247362,-0.006230327,0.00017802224,0.02590554,0.025258392,0.0012054864,0.020228421,0.0150429495,0.014455326,0.025822967,0.021113403,0.019873647,0.026842387,0.020011114,-0.0002136873,0.019127391,-0.022888588,-0.009839971,-0.005950727,0.015021159,0.0076639606,-0.019616604,0.007330538,0.012662677,-0.0036979031,0.022268787,0.013785091,0.014554669,-0.029862212,-0.05494102,-0.00998228,0.012883043,-0.010255157,0.032839373,0.0046065417,0.03186636,-0.004359889,-0.020280953,0.003658318,0.027957609,-0.009827026,0.007470496,-0.004445319,-0.0096492935,0.009768632,-0.014413302,0.00415123,0.012904205,0.020734407,0.018135866,0.012643305,-0.009354078,0.0012187347,0.011182165,0.013353306,0.019928023,0.019564955,0.015296877,0.0061022667,0.01113624,0.015151529,-0.010855761,-0.004627545,0.019930122,0.016575191,0.01688751,0.014789258,0.025107464,0.0029198157,-0.028042348,-0.002778064,-0.020475319,0.0012342498,-0.009048722,0.018077279,0.018613765,-0.0036797416,-0.010156915,0.020102287,0.0031743457,0.032505278,0.0033957802,0.009338849,0.022452656,0.009483011,-0.01396974,0.02781359,0.035167728,0.008111978,-0.03134278,0.017921507,-0.022920711,0.012927999,0.015207104,0.03687326,0.013637128,0.013824762,0.015031229,-0.0197127,-0.014468608,-0.007879745,-0.043208607,-0.0636994,0.035819236,-0.04083046,0.03285108,-0.06293707,-0.04991059,-0.05601917,0.023397136,-0.039944656,-0.0660277,-0.049603254,0.0066156513,0.031338092,-0.057957493,0.02563398,-0.04037961,-0.06447421,-0.066504516,-0.06554853,-0.0384713,-0.043202233,0.017881213,-0.03333569,0.026172575,-0.05439501,-0.03770925,0.007958348,0.028965898,0.0034827786,-0.054224137,-0.036938198,0.020993797,-0.061695218,-0.04576057,-0.04679154,-0.008852529,-0.059468906,-0.027012154,-0.052462984,-0.05985555,-0.009145278,-0.050674222,0.03180938,0.006929275,0.043649852,-0.05844671,-0.05287213,0.031943817,-0.03633673,-0.034003135,0.036875904,-0.044721194,-0.054997355,-0.041344132,0.036748085,-0.10906814,0.03413179,-0.043621086,0.053775866,-0.076403305,-0.04308503,-0.042904593,0.030088546,0.0063921288,-0.048220724,-0.048602894,0.038158286,-0.06141264,-0.039430514,0.024895025,-0.06829492,0.025104146,-0.048866197,-0.054522175,-0.05551364,-0.05803832,-0.051523544,0.021160236,-0.053744256,-0.024680145,-0.050366934,-0.040818855,-0.037779275,-0.06147472,0.0036562264,-0.019255785,-0.05202066,0.03467386,0.051833525,-0.05341811,-0.044671625,-0.057721574,-0.03936072,-0.04866793,-0.064514145,0.01963868,0.03396264,0.03789127,-0.039367612,-0.034179825,-0.051790606,-0.030978454,-0.064454265,0.023632996,-0.06639812,-0.042999253,-0.06818312,-0.055383395,-0.06662497,-0.022907885,-0.046239026,0.018957091,-0.05438669,-0.057836916,-0.05332145,0.024511183,-0.043252774,-0.013533682,-0.047523696,-0.064186476,-0.051147338,-0.06140554,-0.06000046,-0.056586903,0.026404522,0.018018859,0.028431676,0.0015624618,0.028094394,-0.047426738,0.0123900715,-0.07324233,0.04039442,0.01215859,0.045563836,-0.021164535,0.03708661,0.039155576,0.030433385,-0.013099902,-0.046894293,0.028558021,-0.034899164,0.011305559,0.02670852,0.036839183,0.01500044,0.011523209,0.017878547,-0.052915175,0.025593817,-0.037989557,0.024305893,0.014505215,-0.020733114,-0.032857582,-0.009412522,0.02564377,0.015802838,-0.043788597,0.030083042,0.020941686,0.0047487468,0.02666924,0.012912031,0.016340325,0.03913776,0.015748003,0.024820033,0.022321502,-0.0335721,-0.045893934,-0.05412077,0.03706631,0.011549401,-0.044081442,-0.0023328986,0.019989155,-0.03685108,0.019751703,0.03338034,0.013404107,-0.03876072,-0.1574611,-0.052770205,0.015823191,-0.0497028,0.037197854,0.041878633,0.0065355757,-0.02981671,-0.020814857,0.013340552,0.0036863831,-0.05003063,0.011067025,0.020276876,-0.018244414,0.011691999,-0.04557253,0.016152725,0.03375786,0.010602889,0.026332583,0.023656325,-0.0351511,0.030900365,0.005245597,0.028345883,0.039071914,0.019517446,0.020973668,-0.043186486,0.014555733,0.023351628,-0.02478655,-0.04850765,0.01865095,0.0262539,0.014972528,0.0067593087,0.019677227,0.01574217,-0.051864173,-0.041682817,-0.048212517,0.010783538,0.00717275,0.013009357,0.02233298,0.02327544,-0.03048029,0.03342994,0.011064916,0.029308185,0.014607895,0.019173263,0.0024480608,0.035664253,-0.04217872,0.039620694,0.035947356,0.024265075,-0.05456994,0.01925624,-0.028311636,0.03265497,0.021652147,0.021875797,0.015454338,0.020966727,0.015535646,-0.051249553,-0.021603357,-0.042185985,-0.055959005,-0.042785294,0.015787823,-0.059854787,0.040980536,-0.06036114,-0.054409374,-0.068338186,0.019645493,-0.059559185,-0.058478896,-0.05256064,0.033755347,0.03799492,-0.04456585,0.027878076,-0.03368068,-0.038276043,-0.051742025,-0.05381622,-0.030327512,-0.049799524,0.028718336,-0.040855825,0.03020552,-0.048759904,-0.043810207,0.028200923,0.025713602,0.020468248,-0.052511465,-0.06032828,0.0053051556,-0.056841128,-0.046620402,-0.05730708,-0.025720071,-0.0649204,-0.02182901,-0.053103805,-0.057200808,-0.030444164,-0.0570681,0.024375789,0.015643047,0.019601053,-0.05282433,-0.06613797,0.024956036,-0.07487036,-0.06327381,0.017038547,-0.05807177,-0.058481492,-0.06362987,0.020549342,-0.12699732,0.034211457,-0.058369208,0.025049124,-0.04186294,-0.06479075,-0.0634151,0.04080074,0.009300664,-0.05974839,-0.06380018,0.028756704,-0.061032783,-0.071649164,0.023015862,-0.04626163,0.029496985,-0.07216824,-0.053951737,-0.047770496,-0.05116627,-0.05812344,0.024968425,-0.054789558,-0.027550906,-0.059369814,-0.045779742,-0.061390813,-0.041995972,0.003941069,-0.011450365,-0.058479775,0.025448492,0.03861446,-0.052128322,-0.043567162,-0.06384037,-0.034921348,-0.069717266,-0.0445384,0.019039335,0.027751828,0.026584856,-0.03691209,-0.024462724,-0.05042177,-0.03589423,-0.07175509,0.0028849342,-0.058634378,-0.034342244,-0.052995697,-0.04801342,-0.06928889,-0.07257544,-0.06339069,0.025001345,-0.07019712,-0.060892742,-0.05136159,0.035117365,-0.0711263,0.0080358265,-0.04320857,-0.056096245,-0.056896374,-0.066007294,-0.042737257,-0.05224643,0.031819616,0.019615531,0.022625377,-0.0032033096,0.012637006,0.008494175,-0.001953493,0.050470117,0.014816607,-0.002636034,0.015978755,0.016177347,0.015667371,0.01123728,0.010925586,0.021155268,0.023285883,-0.012977104,0.016324129,0.0023992865,0.0017128263,-0.010813007,0.0062347734,0.005549224,0.019070437,0.024984937,-0.0015339683,0.04299287,0.03587218,-0.016806275,0.034266874,0.028624503,0.030011011,-0.0041001057,0.00043155745,0.026804162,0.018484488,0.0004369064,0.003610353,-0.0109356865,0.012416562,-0.010146686,0.007465028,-0.0026064564,-0.011633304,-0.0027907658,0.017640324,0.01838363,0.033033386,0.016564514,0.025265941,0.02208711,-0.0065657594,-0.011775298,0.025223771,0.008968273,0.016832503,-0.0006649837,0.029290553,0.026628876,0.011297745,-0.0024077578,0.04194667,0.0011015339,-0.0027925142,-0.010347611,0.0405497,0.010874101,-0.009810311,-0.0024375136,0.058187656,-0.008829755,0.0059100674,0.03792785,0.006447658,0.05401826,0.0048615574,0.01309639,0.011787782,0.009110784,0.008171297,0.041061018,0.02484857,-0.0062898323,0.020011216,-0.0026316224,0.020917725,-0.0046011563,-0.0050864234,-0.020792376,0.007667069,0.032294266,0.029531188,9.182771e-05,-0.0037819832,0.009451789,0.0071225427,-0.0071399235,-0.0008115436,0.029395336,0.018323649,0.024658043,0.011177843,-0.006480658,-0.015327505,-0.020957904,0.03244873,0.007557793,0.016777264,-0.01235939,0.0071555064,0.009977548,0.011706509,-0.0032125486,0.0050856564,0.020191776,-0.015305366,0.01664277,0.010386865,0.049984384,-0.008370281,0.0050761295,-0.011731134,-0.015833018,0.01207695,3.0147334e-05,-0.006343227,-0.0040047467,0.040479135,0.023219675,0.039484788,0.019019345,0.011647382,-0.028256724,0.02391719,-0.02119307,0.0146222925,0.015282378,0.039370928,-0.014089643,0.031363368,0.030776856,0.024513014,-0.019055022,-0.024652705,0.008662973,-0.005085443,0.0026828237,0.030463235,0.034575578,0.021617515,0.015341955,0.005751804,-0.02456523,0.021336807,-0.017651988,0.020256288,0.0062344433,-0.03181148,-0.026933959,-0.029628737,-0.026449079,0.017576456,-0.0054989383,0.031573858,0.030434178,0.023622252,0.01250447,0.011367717,0.012008923,0.025650717,0.010725293,0.0042298557,0.025018154,-0.022984369,-0.020213144,-0.026148953,0.020054586,0.03844487,-0.045099538,0.024017297,0.026618127,-0.03352424,0.019193728,0.0051453086,0.0046970844,-0.023701888,-0.080091566,-0.013273806,0.021635013,-0.013775885,0.001452305,0.016574211,0.009436822,-0.027148666,-0.01789161,0.026084062,0.024905978,-0.022013512,0.018554226,0.053122927,-0.031456485,0.02360988,-0.006258563,0.02298084,0.03055025,0.019665267,0.021059955,-0.0014910597,-0.027105223,0.011124151,0.008967318,0.0059442283,0.012928758,0.04768008,0.024241308,-0.024959667,0.03209855,0.025572134,-0.02186558,-0.020043347,0.0016552787,0.015642744,0.009578704,0.01623878,0.018780114,0.011480923,-0.03220092,-0.0042115613,-0.019603506,0.017957978,0.011176094,-0.006037942,0.016568566,0.023337707,-0.017688293,0.03746699,0.00083207584,0.009009277,-0.006986298,0.025270311,0.023441063,0.0115924,-0.019375483,0.01543438,0.015514393,0.015478777,-0.03313666,0.03985392,-0.016905973,0.013929261,0.00045640307,0.029374722,0.006362963,0.014488792,0.024272783,-0.021888722,-0.001862836,-0.047241084,-0.041333977,-0.057609204,0.024973378,-0.034392383,0.021175342,-0.044273194,-0.049082424,-0.05095202,0.00093974394,-0.03666572,-0.04822588,-0.043206878,0.02627045,0.018344855,-0.032754764,0.039738845,-0.038695876,-0.05034964,-0.04441406,-0.03827482,-0.04369263,-0.04272945,0.04956755,-0.0295479,0.042115815,-0.04574248,-0.041663356,0.022141991,0.023539461,0.0154573675,-0.02815514,-0.047280926,0.029735664,-0.054281272,-0.05894987,-0.036196165,-0.019122398,-0.05052923,-0.020787708,-0.05597698,-0.05443964,-0.024276452,-0.034680545,0.021432234,0.0059459587,0.041902255,-0.059583906,-0.041750833,0.0139261205,-0.037097782,-0.055055257,0.030279359,-0.03615026,-0.0702339,-0.04931708,0.014371479,-0.09291408,0.0094920965,-0.051382802,0.029557351,-0.04937631,-0.05182748,-0.064597696,0.027647104,0.027987,-0.048582315,-0.037474938,0.03942194,-0.032424983,-0.04798189,0.020674562,-0.041302107,0.040641107,-0.04079531,-0.049868386,-0.046182167,-0.0550369,-0.04574974,0.02895689,-0.03970029,-0.018531905,-0.049474936,-0.053223807,-0.052715685,-0.034092866,-0.0057590236,-0.008100513,-0.037407394,0.018893579,0.027198128,-0.05180964,-0.043383356,-0.044269297,-0.05548863,-0.047792237,-0.058943573,0.055196345,0.029164603,0.03607451,-0.04160772,-0.032809317,-0.05873731,-0.03921945,-0.041225858,0.026282215,-0.034999035,-0.0373768,-0.049332228,-0.04450712,-0.03621922,-0.048013516,-0.015594445,0.025667004,-0.041784007,-0.020887747,-0.06236595,0.05012027,-0.052232035,-0.0046093473,-0.0552311,-0.05828177,-0.043807093,-0.036941815,-0.029393462,-0.055466186,0.026401652,0.035149425,0.019946624,-0.066413425,-0.068251275,0.026015798,-0.055141777,0.023783404,-0.09425324,-0.07027891,-0.068208404,0.038901206,-0.07447456,-0.066474736,-0.07527634,0.027010728,0.00818611,-0.0531643,0.037914347,-0.05567454,-0.067612596,-0.050523188,-0.060432184,-0.054759525,-0.0671107,0.010301201,-0.027183488,0.024329076,-0.08603296,-0.067245565,0.025956608,0.016374448,0.010498688,-0.053823363,-0.055723287,0.004720181,-0.06738213,-0.05776647,-0.07312476,-0.0089232465,-0.07789127,-0.04193856,-0.073999986,-0.05840618,-0.019526485,-0.08664502,0.009471072,0.022941463,0.026827304,-0.0642662,-0.0512943,0.02464702,-0.07720391,-0.06484629,0.030782897,-0.048968118,-0.0665845,-0.053770047,0.020202572,-0.14916785,0.0153920725,-0.081051156,0.03378222,-0.0684217,-0.04152201,-0.05705206,0.033038504,0.010401103,-0.056280077,-0.0562273,0.048129655,-0.06972622,-0.06926374,0.011250787,-0.07404385,0.054453533,-0.04840785,-0.053594884,-0.06282742,-0.08207152,-0.061627656,0.019417187,-0.07560999,-0.02466753,-0.05659322,-0.06572784,-0.07236213,-0.044894777,-0.006391251,-0.027558997,-0.053656567,0.020786509,0.033507757,-0.043941442,-0.05363645,-0.06838029,-0.057864416,-0.056943096,-0.063720256,0.03782179,0.036349088,0.032228604,-0.06697672,-0.040331267,-0.046815336,-0.024950875,-0.071543165,0.027958695,-0.053300377,-0.025610058,-0.07251541,-0.070957415,-0.06255806,-0.039265595,-0.06394272,0.024751581,-0.0718345,-0.06420206,-0.04905608,0.03819671,-0.08750647,0.00024029303,-0.062008187,-0.068335816,-0.054413933,-0.044772137,-0.068113364,-0.061581414,0.022910167,0.0010404475,0.040364303,0.0082496535,0.023851743,-0.012948129,0.015151966,-0.023332827,0.020539297,0.0036976018,0.0062960577,-0.01714815,0.03045152,0.019074049,0.004404956,-0.0005762763,-0.040935837,0.0037042557,-0.009077111,0.013500876,0.020962464,0.010949828,0.009913241,0.0059571764,0.018142644,-0.03348222,0.012759566,-0.03324581,0.019157289,0.020906596,-0.029851347,-0.015246045,-0.014473736,0.015118542,0.015127899,-0.014260054,-0.00018577489,-0.0020432484,0.012033547,0.021476263,0.015724799,0.0055013914,0.018819965,0.013979004,-0.0012881864,0.025079746,-0.02074235,-0.01429517,-0.014958317,0.04093558,0.023152808,-0.013075836,0.028096745,0.014600573,-0.017817594,0.0052749454,0.020599985,0.011023344,-0.02604767,-0.09242618,-0.04393809,0.029559704,-0.015783401,0.016401887,0.016056437,0.0039260974,-0.018148746,-0.010045583,0.020779928,0.021593567,-0.015059821,0.015049361,0.033127945,-0.02254309,0.0060899146,-0.015154686,0.024183128,0.022694176,0.017575743,0.009119997,0.015866466,-0.01572787,0.0065140673,0.027035633,0.0020034174,0.022578444,0.048622217,0.026011355,-0.013989583,0.041669264,0.0014870795,-0.028128201,-0.019533787,0.0031548513,0.006130006,0.040918235,-0.003696478,-0.0041078418,0.030501185,-0.018025562,-0.030164015,-0.016186807,-0.0030834144,0.022008156,0.03325946,0.020942857,0.021141555,-0.009747222,0.014125364,0.003154695,0.031159211,0.027711276,0.02102413,0.033744022,0.038815662,-0.021672433,0.032071326,0.017591264,0.0021646507,-0.028004736,0.027132252,-0.019644903,0.01636331,0.0066331173,0.007559633,0.009799516,0.028839659,0.0008429416,-0.032602645,0.011629275,-0.049426265,0.0053602294,0.035566837,-0.0132656405,0.01034128,0.011315542,0.01622483,0.013221239,0.039761268,0.019001106,0.020647435,0.021983942,0.014374863,-0.011871368,-0.029317295,0.02026353,-0.020849176,-0.01029863,0.0063623292,0.032329127,0.028977491,0.03242524,0.03980669,-0.003597052,0.004663507,-0.0053307433,0.015360386,0.020642836,0.0071604145,-0.0035706281,0.0049059754,0.0064122924,0.0171211,0.0084298765,0.008773369,0.016121756,0.017325105,0.018855773,0.001514942,0.017520739,0.011501864,-0.0009424322,0.009110169,0.00045090276,-0.012901088,-0.0130609535,0.003668987,0.019708551,0.0066228886,-0.004528173,0.0136790825,0.013067909,0.011657228,0.008525083,0.022869056,0.01597559,-0.017244332,-0.0033993742,-0.006742758,0.015720306,-0.007202556,0.017517118,0.0027243006,0.018605625,-0.006488029,-0.0027952872,0.030063018,0.0025603692,-0.0038621244,0.0115984855,0.012084957,-0.0035721704,0.0081271455,-0.011534927,0.010644893,0.018912194,0.030168308,0.02292764,-0.0035693746,-0.0080755865,0.01921696,0.016673189,0.024201177,0.0095981425,0.020464413,0.0027260147,-0.0062665003,-0.003249472,0.016289169,-0.009922889,-0.005987819,-0.0061294427,0.011946674,0.01542902,0.015458658,0.03138675,0.02074293,0.013851631,-0.009949102,-0.027186617,0.006596516,-0.007095803,0.009179398,0.018903308,0.025069663,-0.025423178,0.028604139,0.012042149,0.0061137564,-0.0002558243,0.01641738,0.039298635,0.0070528155,-0.014656604,0.012279132,0.018865617,0.02366776,-0.014567575,0.026768077,-0.015940612,0.019958634,0.012410166,0.03498869,0.026523191,0.015518557,0.009831003,-0.012245265,0.00053167524,-0.011687147,-0.07226485,-0.07197917,0.01912452,-0.07192051,0.037112772,-0.07753702,-0.061598804,-0.092265055,0.026685188,-0.091507636,-0.09695513,-0.0927716,0.017875353,0.04193251,-0.08038035,0.018362843,-0.06964042,-0.084331565,-0.088501684,-0.08039406,-0.06991584,-0.086859964,0.034297064,-0.041371718,0.03172245,-0.087307066,-0.07844088,0.022940628,0.016300198,0.012437408,-0.047468573,-0.07572535,0.024255276,-0.06788031,-0.07142895,-0.072828256,0.0077077225,-0.06930805,-0.02847242,-0.07067011,-0.07691958,-0.038395252,-0.039561156,0.020049518,0.014795172,0.034741376,-0.080363564,-0.077599,0.0063096154,-0.07460048,-0.09451167,0.040452514,-0.07859679,-0.08418107,-0.07026963,0.015867865,-0.17443556,0.02160074,-0.07402415,0.041550603,-0.06903398,-0.070337914,-0.061239462,0.040328592,0.012496103,-0.07659284,-0.08007369,0.05151114,-0.07408032,-0.08440313,0.023558063,-0.08399067,0.025834301,-0.0632284,-0.06892576,-0.065908104,-0.07689656,-0.06596784,0.031646296,-0.051740315,-0.009658446,-0.07202331,-0.071250536,-0.088355534,-0.07979055,-0.016167361,-0.010141687,-0.062988855,0.019059738,0.028291687,-0.04847749,-0.06368103,-0.078994304,-0.070066206,-0.0661567,-0.06558543,0.039227962,0.031582225,0.03437967,-0.081739366,-0.060201373,-0.0651668,-0.03038145,-0.08065029,0.004226653,-0.066878706,-0.036845855,-0.09400484,-0.062801875,-0.06136135,-0.08397774,-0.040020637,0.022766087,-0.087624334,-0.07583623,-0.09188112,0.030777756,-0.086141355,-0.013360757,-0.07102477,-0.059283476,-0.074794106,-0.054772086,-0.07174418,-0.07485747,0.04400828,0.029369794,0.02890423,0.015957747,0.027359983,-0.045340512,0.0048942156,-0.048991032,0.038854636,0.030082794,0.045178764,-0.012032456,0.026559372,0.0351473,0.0057240417,-0.020206,-0.038781717,-0.0018866141,-0.026152132,0.019761091,0.022059837,0.028912554,0.045572847,0.016609758,0.0046720994,-0.0462161,0.0039864383,-0.049651824,0.021451108,0.02942472,-0.026542572,-0.036211375,-0.010777318,-0.008271513,0.011867239,-0.02988257,0.027561303,0.019675447,0.017609717,0.009920728,0.031379208,0.004121869,0.016911251,0.019294025,0.018146109,0.016132247,-0.032522872,-0.0403903,-0.045923486,0.02961294,0.020480882,-0.04142091,0.031258028,0.037238143,-0.032229383,0.011890577,0.02379454,0.017201856,-0.04819655,-0.14132394,-0.048666365,0.015260489,-0.051090647,0.027885733,0.03241418,0.028735481,-0.049953554,-0.016162148,0.029512772,0.026994655,-0.039344292,0.04080338,0.026551733,-0.029495867,0.019164454,-0.05569211,0.024984354,0.016924933,0.016285524,0.021646716,0.005276564,-0.037727788,0.016615527,0.027066913,0.023567872,0.010989452,0.028464904,0.022611443,-0.025563153,0.00924952,0.029044548,-0.03544149,-0.045682315,0.020260027,0.010689712,0.021832852,0.016074315,0.013903141,0.02133194,-0.041792165,-0.039890464,-0.04053947,0.024348626,0.018349659,0.014612673,0.010062727,0.011247507,-0.043861996,0.028475607,-0.0034794367,0.023133855,0.0312948,0.02763218,0.024715057,0.014546271,-0.045632757,0.022984475,0.0048762104,0.003589038,-0.049138453,0.0392184,-0.037541904,0.036662303,0.042991076,0.022989027,0.01878418,0.021308368,0.018664857,-0.04373947,-0.027065137,-0.03674032,-0.015241922,-0.025788551,0.04639256,-0.02422956,0.029610895,-0.0072163716,-0.028464053,-0.01785643,0.00557016,-0.019910537,0.0036324626,-0.0022130401,0.026043644,0.032610193,-0.03299046,0.020207888,-0.023339033,-0.015690682,-0.020163909,-0.0078059915,-0.036091547,-0.016093247,0.008398086,-0.033504106,0.025864016,-0.006763598,-0.03317428,0.02615199,0.016032541,0.005914745,-0.019113984,-0.015484723,0.023396173,-0.036253557,-0.02611806,-0.024249872,0.0035934178,-0.0047483924,-0.017733924,-0.043636426,-0.017141823,-0.009177305,-0.022477396,0.024154637,0.019763125,0.03698137,-0.02925935,-0.0146653205,0.047394477,-0.013783693,-0.016261661,0.011872482,-0.029432882,-0.02205335,-0.025230441,0.020518743,-0.04038601,0.036353383,-0.033745136,0.032957803,-0.02586073,-0.027719852,-0.02898237,0.04006492,0.012896382,-0.013481171,-0.028175969,0.033220448,-0.017807422,-0.024876665,0.029830722,-0.016925234,0.035182647,-0.032841884,-0.016744453,-0.03085539,-0.011243381,-0.038108267,0.03166467,-0.017128458,-0.01604864,-0.03516417,-0.015685348,-0.041461065,-0.03357907,-0.009332101,-0.027035894,-0.024061702,0.033480108,0.04201915,-0.0014635416,-0.02175681,-0.0198702,-0.032339312,-0.01621876,-0.026614964,0.024456626,0.030414809,0.025345134,-0.015720675,-0.035377942,-0.02298933,-0.0080715865,-0.021446286,0.013376193,-0.026208881,-0.031153027,-0.021834593,-0.019750442,-0.02463962,-0.024268249,-0.022826603,0.050251003,-0.037473626,-0.011664443,-0.030069593,0.0381415,-0.023112986,0.0058231177,-0.03507006,-0.022678565,-0.01650054,-0.034934867,-0.025201805,-0.023926627,0.033096302,0.026199613,0.0219884,0.035222914,0.026284898,-0.064831704,0.02217777,-0.062023353,0.03212465,0.024154143,0.026330171,-0.044090472,0.027896635,0.032811087,0.017593024,-0.027069408,-0.06792488,0.0050865016,-0.03696984,0.0386451,0.030638492,0.02974554,0.02668866,0.01529209,0.023165347,-0.07722628,-0.0044457265,-0.039020304,0.02143739,0.027187457,-0.04667094,-0.07222275,-0.0343834,0.0105816815,0.023254989,-0.0405207,0.021840675,0.024732098,0.025687294,0.007056322,0.019307995,0.017085912,0.026850773,0.013148336,0.0049373014,0.011556686,-0.048217054,-0.049970906,-0.050456334,0.035562042,0.044097047,-0.044351228,0.02992226,0.015797509,-0.034662798,0.03858149,0.017672678,0.017884828,-0.07339348,-0.2230352,-0.07419717,0.026092246,-0.077218734,0.012682946,0.01419765,0.03743732,-0.10907325,-0.024526466,0.025075098,0.021377541,-0.07313297,0.023669735,0.02015729,-0.05696558,0.041684188,-0.06723177,0.014793681,0.02942739,0.03351193,0.0257573,0.021771701,-0.06238022,0.015390134,0.011088192,0.024387505,0.019971466,0.03783584,0.0180837,-0.055496138,0.030279554,0.010923541,-0.053301632,-0.077682056,0.013019171,0.012460316,-0.0087591475,0.022905998,0.013513353,0.028285142,-0.07640762,-0.06612683,-0.04808184,0.0017201639,0.01001704,0.016717289,0.0013197234,0.01714391,-0.04411122,0.021047289,0.008337732,0.027568404,0.015133977,0.013265116,0.02385832,0.01446892,-0.05472308,0.03250134,0.02480979,0.03190532,-0.07550785,0.037004147,-0.042532682,0.030561445,0.012540076,0.02976686,0.012466518,0.03198524,0.022193551,-0.07040108,-0.03456056,-0.09076645,-0.061996154,-0.05183305,0.016198821,-0.062462505,0.037695043,-0.07747267,-0.056243766,-0.07083909,0.015169021,-0.083969615,-0.062404275,-0.054339677,0.04252232,0.020476012,-0.054188795,0.026391823,-0.057462,-0.044015698,-0.07912933,-0.09386392,-0.04676125,-0.05391302,0.023381568,-0.032960366,0.025498461,-0.06433769,-0.054179654,0.02154438,0.016456317,0.0038056853,-0.060464904,-0.0644738,0.022617437,-0.040495515,-0.06674999,-0.050962098,-0.026391972,-0.064024866,-0.041522224,-0.07041083,-0.058937166,-0.04496656,-0.05574719,0.019910593,0.009707963,0.019658672,-0.06226972,-0.06555428,0.016685596,-0.052482247,-0.044599354,0.03972191,-0.052910663,-0.069199584,-0.056964207,0.03696433,-0.13043235,0.02088579,-0.06425598,0.025211127,-0.06708423,-0.06344124,-0.055191576,0.0483177,0.023157,-0.07909734,-0.07320477,0.034082606,-0.045047298,-0.070465885,0.03412343,-0.061017755,0.029003706,-0.052536275,-0.055764254,-0.048647102,-0.05444716,-0.07108836,0.029417446,-0.053116545,-0.029600615,-0.050200935,-0.055663534,-0.07892701,-0.030121632,-0.015634773,-0.02418324,-0.055096854,0.0329103,0.024697192,-0.061928738,-0.049076002,-0.04998029,-0.06320074,-0.057001468,-0.07996836,0.054603145,0.031220352,0.03245912,-0.062532075,-0.040572077,-0.06465528,-0.06197647,-0.051159326,0.008138053,-0.049165037,-0.0508059,-0.07965386,-0.037843753,-0.06755067,-0.056302745,-0.076756924,0.014724161,-0.056661345,-0.053920325,-0.066765524,0.037670355,-0.07575539,-0.00999561,-0.05995478,-0.06985267,-0.07486654,-0.08622877,-0.047142997,-0.06892469,0.045747504,0.018721415,0.027209315,0.014304203,0.009143749,-0.015965229,0.012751824,0.0022513354,0.003993033,0.031837646,0.006759804,-0.007033363,0.021357445,0.026400447,0.03251432,-0.0014801066,-0.0074216705,0.03348384,-0.0040537454,0.019263547,0.0026041397,0.030386135,0.032375827,0.0031484347,0.025482778,-0.00542698,0.010772169,0.007595109,0.011241348,0.017760893,-0.00984646,-0.004592296,-0.0026228405,0.0141503615,0.0148213515,-0.023791386,0.012850276,0.020034583,0.03624998,0.0039458186,0.02388714,0.011128742,0.009623446,0.022641584,-0.005918697,0.0063552945,0.006137622,-0.01807915,-0.011592924,0.029376565,-0.0036653213,-0.0058655133,-0.0008876037,0.028483788,0.005375697,0.0019826726,0.012958465,0.016113102,-0.019843103,0.008305516,0.0008464743,-0.0040619858,0.006837311,0.00073663756,-0.012914042,0.016421631,0.006882023,-0.012780182,0.014659746,0.0063152937,0.0072519635,0.016685558,0.019094698,-0.0037089486,0.014541166,0.016499005,0.010029175,0.026304604,0.01969744,0.019059137,0.007996823,0.012991687,0.01219772,-0.00011409785,0.015350303,0.0016950441,0.031833474,0.022999717,0.00504724,0.010097924,0.019210713,0.007045666,0.009228514,0.0013552456,0.005490719,0.0076631927,0.010281098,0.018997796,0.0194407,0.022496298,-0.0046283836,0.007347356,0.0067116413,0.014715022,-0.002703697,0.0038856387,-0.003762915,0.0006525019,0.022526665,-0.0056180274,0.025265686,0.009371578,0.009234183,0.028048012,0.0033372156,0.004387451,0.0033590156,0.015768597,0.011239554,0.021317746,0.01779652,-0.020510944,0.011180677,0.0070651444,0.005012794,0.017202562,0.013214316,0.016337885,0.017045625,-0.0091617415,-0.0053894906,0.038812112,0.0351156,-0.028724506,0.021856174,-0.035867978,0.0255509,0.010345041,0.0441532,-0.005064653,0.022985438,0.012274949,0.027862024,-0.015880153,-0.03170229,0.021851804,-0.012770617,0.014870519,0.013832501,0.02607358,0.022971064,-0.0063036806,0.027696382,-0.041250918,0.015238728,-0.033219114,0.037145723,0.02003712,-0.032708358,-0.028868936,-0.01071766,0.013172372,0.01627544,-0.021714978,0.013396019,0.011063882,0.0048959088,0.013756721,0.013282291,0.0012885636,0.00978209,0.027597347,0.017395865,0.007927166,-0.024559986,-0.024294592,-0.012720154,0.033177264,0.018201744,-0.035235107,0.020017233,0.016065475,-0.028533813,0.0140004195,0.010887012,0.022004155,-0.028274748,-0.11426996,-0.03896851,0.01265762,-0.02940295,0.023585461,0.025815599,0.032525286,-0.030598933,-0.012367503,0.030136252,0.018263761,-0.03056347,0.015154098,0.021616166,-0.03175904,0.018746257,-0.036576338,0.01747949,0.0139318,0.024774754,0.012002478,0.0043813623,-0.016355572,0.0236711,0.006942677,0.014000774,0.035189684,0.027123129,0.0052000815,-0.042018563,0.030047175,0.017338436,-0.012000352,-0.043203183,0.015555572,0.0033772371,0.020008782,0.015847962,0.008950699,0.0065479227,-0.028115071,-0.020899931,-0.025463076,0.01509633,0.020178787,0.015967576,0.013231499,0.023734072,-0.026923738,0.0059896247,0.034527715,0.024042558,0.02056473,0.005001943,0.014615808,-0.010026091,-0.040213626,0.022981726,0.033964943,-0.0051198015,-0.06018614,0.028265148,-0.026027702,0.025642823,0.0077634216,0.016601058,0.018374639,0.033164594,0.016311737,-0.041931257,-0.018813575,-0.036168095,0.034648333,0.035809197,-0.073802635,9.6950156e-05,-0.058096234,0.016325882,0.00281478,0.024757415,-0.0347094,0.03571765,0.026074635,0.024372222,-0.021398494,-0.05543032,0.025479661,-0.04853349,0.017288378,0.016870048,0.03394231,0.031028239,0.014265473,0.02642835,-0.063235804,0.029670687,-0.06431171,0.012923417,0.023304654,-0.0540025,-0.04359556,-0.039178185,0.014701438,0.041652583,-0.06318174,0.012756512,0.015390602,0.030935608,0.029616732,0.012842559,0.018931637,0.0133700855,0.037410926,0.008101809,0.01798062,-0.041082796,-0.042235464,-0.04769529,0.024224522,0.04354526,-0.041099627,0.021415437,0.015855387,-0.03399588,0.037879713,0.023755396,0.027510315,-0.05364553,-0.20055594,-0.05404696,0.024610586,-0.04943972,0.032533128,0.024693122,0.015395205,-0.04195456,-0.033080008,0.020877445,0.019417252,-0.058839954,0.013390812,0.037644077,-0.06901351,0.024315037,-0.052424345,0.007910608,0.025982823,0.031489763,0.030540237,0.014322082,-0.02850049,0.014647354,0.01182669,0.019882087,0.013366032,0.031542554,0.006867764,-0.047201343,0.031791784,0.017343339,-0.04414819,-0.053081907,0.016376613,0.021808872,0.017870968,0.03041747,0.011580678,0.010525461,-0.060280498,-0.06138381,-0.036423568,0.005298441,0.025808474,0.00891876,0.015796054,0.036068175,-0.043408122,0.036799993,0.0149896005,0.024267364,0.02267298,0.0118966615,0.014061571,0.015239517,-0.031263206,0.026370838,0.02094024,0.037341353,-0.059180543,0.048172124,-0.03438573,0.03526955,0.032299798,0.027373152,0.01713337,0.032113865,0.030068737,-0.05649334,-0.030885255,-0.057002023,0.01460345,0.04667272,-0.015326755,0.00032896458,-0.017107517,0.03358383,0.023645345,0.019212363,-0.004644755,0.008829796,0.027076688,0.017798953,-0.005433028,-0.02594368,0.032360893,-0.015595814,0.021769186,0.011097973,0.010284482,0.011962062,0.017093446,0.013381189,-0.001932689,0.00020886716,-0.011962784,0.004775864,0.01342578,-0.015102365,-0.0074031157,-0.0030890473,0.007616482,0.024112908,0.001855588,0.025388433,0.011362861,0.009532607,0.019766552,0.025551634,0.014678571,0.006899906,0.02165953,-0.0012400666,0.015768232,-0.007822579,0.0124260895,-0.0059716506,0.026793698,0.013722552,-0.0012612191,0.013731126,0.013285578,-0.0027071391,0.014744484,0.0031478605,0.023722986,-0.007959319,-0.042387847,-0.010766924,0.012639637,-0.0038150165,0.013810393,0.0041222335,0.023736538,0.0072363187,-0.013853351,0.012602194,0.023037681,-0.0040513147,0.018986858,0.023534026,-0.011004102,0.018462043,-0.0056147315,0.022539606,0.023097344,0.02785823,0.009195163,0.024038298,0.0022078073,0.014603977,0.0014689582,0.00348722,0.007316275,0.0020422637,0.027633993,-0.005109032,0.02237415,0.024875745,-0.009574523,-0.003771954,0.029486338,0.016688168,0.021503355,0.014076129,-0.00017031643,0.00416382,0.00021387507,-0.026223702,-0.00534738,0.008861669,0.010492501,0.015469216,-0.00991776,0.030089507,0.0038988867,0.034914915,0.008180517,0.030781318,0.0074372706,0.02157242,0.015065855,0.019889064,-0.0012453446,0.03372403,0.024532493,0.02204477,-0.0030567935,0.03087216,-0.01605148,0.027017083,0.0016357645,0.00928807,0.028461343,0.028309986,0.026958326,-0.011047905,-0.011635449,-0.013106654,0.015792962,0.012905588,-0.048438843,0.013901621,-0.044152476,0.033031948,0.017743839,0.04057734,-0.033672415,0.023402309,0.0074915974,0.02713509,-0.010206408,-0.060453117,0.024174917,-0.041788943,0.036429837,0.032730408,0.029363414,0.01291427,0.012706754,0.041937344,-0.029482195,0.006899294,-0.04312329,0.020227028,0.008043339,-0.031397354,-0.035005894,-0.03394745,0.031382654,0.024959203,-0.04511479,0.034815025,0.019948723,0.025211986,0.021483123,0.026338257,0.01014123,0.022525242,0.015013187,0.02567884,0.042546783,-0.016892612,-0.024785433,-0.05287722,0.027750034,0.013805412,-0.05243431,0.01776008,0.02165672,-0.026959252,0.021750899,0.009697727,0.015606128,-0.047160797,-0.16408461,-0.038353264,0.009761675,-0.036502216,0.016491558,0.019576855,0.007721645,-0.04606085,-0.025766227,0.027822746,0.032681227,-0.052478984,0.035831634,0.022110116,-0.040288385,0.008136219,-0.05433678,0.016116107,0.006902905,0.0050006066,0.019837476,0.013572372,-0.043775667,0.011487692,0.0015680742,0.009024628,0.018173456,0.018306717,0.01626777,-0.03269452,0.015521998,0.026433138,-0.011079478,-0.05552065,0.011782517,0.017055508,0.016303288,0.009272334,0.026072554,0.017811628,-0.044730984,-0.041238405,-0.049841166,0.032351065,0.015318162,0.024231235,0.012164244,0.03212511,-0.008522953,0.018892284,0.015240257,0.03360902,0.030941175,0.024466772,0.008428134,0.016286358,-0.05049582,0.014669528,0.027227351,0.031556003,-0.05611774,0.04947442,-0.027032133,0.023964064,0.025993386,0.048144504,0.033250954,0.03411491,0.0149156265,-0.034925733,-0.023342967,-0.048688423,0.017591314,0.01593147,-0.007878433,-0.0065700654,0.0014030951,0.020375734,0.022739295,0.02231817,-0.001118768,0.027893819,0.011834908,0.023411032,0.012208916,0.005603224,0.0055772793,-0.0019162125,0.018482758,0.015804954,0.016189523,0.012062064,0.009112571,0.036808155,0.006351956,-0.022770094,-0.012652163,0.0042742495,0.0013678323,-0.009391555,-0.015402501,-0.010917296,0.022945743,0.03179689,0.013396288,0.018742887,0.019352056,0.015310598,0.033529457,0.020834126,0.017191095,0.02002017,0.04134321,0.007668239,-0.004443702,-0.013277655,0.003558758,-0.008534616,0.028503563,0.011234918,-0.009571367,0.024413621,0.014256743,0.01151791,-0.007889127,0.017031455,0.015964996,-0.0036932195,0.009182047,-0.0049755867,0.023247031,0.00640589,-0.0004912649,0.013633314,0.019354528,0.012704427,-0.0005385939,0.019577432,0.01484539,0.026103746,0.024532098,0.014126635,0.0015178473,0.03325131,-0.00017124375,0.021958705,0.011326787,-0.0034129915,0.026808804,0.016219053,-0.010881568,0.02619016,0.024194494,0.011525271,0.022310143,0.020221513,0.024958111,-4.9780407e-05,-0.0131831,0.010031746,0.018160472,0.019846665,0.037955184,-0.008449415,-0.0001828542,0.0039041166,0.006755035,0.009148283,0.0069021005,-0.006621456,0.0007000597,0.014281773,0.01421203,0.0130091505,-0.005132019,0.010366991,-0.000106360814,0.028615184,0.0055695404,0.006698724,0.011488048,0.03169971,0.018311394,0.019756682,0.003478808,0.034030247,0.005567572,-0.000746762,0.02471284,-0.0010982002,-0.012568065,0.020713925,0.018511595,0.015503043,0.033605933,0.014271634,0.009585834,-0.017506557,-0.0165545,0.011861851,0.0049729254,0.0146343885,-0.015759248,0.011120113,-0.025614996,0.027437555,0.0058059273,0.030110508,-0.02072323,0.04048764,0.019138228,0.017580535,-0.023855744,-0.017736664,0.012855252,-0.013061815,0.015120681,0.026338927,0.018314078,0.03699638,0.022641648,0.011085772,-0.027369302,0.018065054,-0.004214315,0.0031483057,0.020782448,0.011178262,-0.01778785,-0.013527101,0.019805666,0.0022683071,-0.024232743,0.020137962,-0.0076193023,-0.0030473925,0.011331555,0.034133464,0.019128714,0.022071708,0.012518575,0.043936938,0.019701572,-0.008343573,-0.009467811,-0.013840272,0.014660024,0.014035587,-0.017936964,0.01187921,0.024230441,-0.004609551,0.019424502,0.0073562185,0.023867367,-0.020655734,-0.061933003,-0.017774856,0.0077929874,-0.015554944,0.016473256,0.0210737,0.025126643,-0.020461738,-0.0021217435,0.022878205,0.01471233,-0.031069469,0.014304938,0.026485234,-0.026571434,0.008359387,-0.016559938,0.028635193,0.023140572,0.02923122,0.0058732308,0.02143825,-0.015320495,-0.0012836447,0.017010555,0.01143355,0.024135178,0.033747766,0.026112681,-0.028465556,0.0028872879,0.0044891923,-0.019250227,-0.008442276,0.019894807,0.017114595,0.019795448,0.023634091,0.024814315,0.0039176713,-0.005736955,-0.006291457,-0.004860983,0.020472491,-0.0019705116,0.020855488,0.008986421,0.024982007,-0.01324954,-0.00085934857,0.016445028,0.025967864,0.008064372,0.011348439,0.016053248,0.015159916,-0.019221827,0.023582675,0.0012297514,0.0019278788,-0.015064991,0.02018679,-0.013708278,0.027067333,-0.0024192394,0.031239918,0.031044655,0.012383717,0.015283424,-0.015699657,-0.031629875,-0.024268795,0.03225825,0.025620896,-0.061269112,0.002346878,-0.053516183,0.019331563,0.011214827,0.02527394,-0.038164224,0.018732075,0.031193132,0.016371848,-0.033932243,-0.03363948,0.026910573,-0.032436647,0.011141519,0.029164732,0.017777553,0.032135207,0.028073447,0.037518054,-0.06512283,0.027915042,-0.0496128,0.02030024,0.012509834,-0.031320237,-0.055756748,-0.045870837,0.019389806,0.025229529,-0.044896625,0.015014857,0.035343267,0.010996554,0.02601484,0.012144009,-0.00029675802,0.016301937,0.02166845,0.007268657,0.015834112,-0.039059713,-0.029826373,-0.06384152,0.026458677,0.012950907,-0.05642805,0.013599697,0.036964435,-0.031378966,0.025611198,0.0039846767,0.014305689,-0.048236094,-0.19217926,-0.070265464,0.014174793,-0.062141962,0.023343295,0.018081585,0.016816264,-0.05356301,-0.020161586,0.026203658,0.025044078,-0.08219578,0.03578841,0.026963789,-0.067185685,0.045413338,-0.056805532,0.012395334,0.030418484,0.026223188,0.016963152,0.02186058,-0.036313646,0.009920936,0.0154345175,0.026695104,0.017596183,0.033777747,0.022480378,-0.02289883,0.005557907,0.019248705,-0.040817324,-0.06373278,0.009768485,-0.0017725723,0.03669697,0.024487352,0.015223766,0.024497839,-0.057702802,-0.05092169,-0.0417283,0.015204954,0.025544077,0.026144002,0.018963315,0.028923294,-0.033752404,0.018316705,0.018954668,0.045962885,0.02861495,0.04550024,0.026348451,0.028294077,-0.02530567,0.025873447,0.031184638,0.018462708,-0.06417307,0.037061762,-0.02714134,0.025708506,0.0034357698,0.027027292,0.017584603,0.012525981,0.022999756,-0.03987208,-0.031726282,-0.044995796,-0.02076299,0.004578901,0.03524128,-0.023390174,0.040222846,-0.00987339,-0.013567446,0.00024602024,0.031159552,-0.015915958,-0.0115956245,-0.0016606338,0.037999067,0.04407713,-0.026341785,0.030687528,-0.028262265,-0.010274962,0.009480849,4.5898872e-05,-0.013220563,0.014636889,0.024314186,-0.016799055,0.024828007,-0.01834225,-0.00930598,0.043339685,0.026100395,0.015681708,-0.034158632,0.0041590477,0.0016239593,-0.0027183145,-0.014204087,-0.016623972,-0.003624049,-0.009114932,-0.018325476,0.0014141301,-0.008188863,-0.03035978,-0.0145867,0.033547513,0.010969427,0.04629779,0.0040566144,0.0017438337,0.021327183,-0.016544592,-0.023561288,0.026165998,-0.022171006,-0.014666196,-0.019200092,0.018903553,0.005298048,0.026516816,-0.022583598,0.026598461,0.006081654,-0.011414847,-0.014615828,0.034022305,0.016430074,-0.019788506,-0.012235551,0.025439376,-0.0015055046,-0.0015214953,0.047464013,-0.017861413,0.040873207,-0.014995494,0.0076389993,-0.010868307,-0.0043143625,-0.023130722,0.031213393,0.00343833,-0.00943572,-0.01680164,-0.015234736,0.0047812825,-0.02377926,-0.004658059,-0.016977707,0.002913009,0.013109005,0.04267152,-0.034312546,-0.02371587,-0.01633782,-0.019716274,-0.028599333,0.006343247,0.03253167,0.038736917,0.02009253,-0.014234772,-0.023879835,-0.019659696,-0.0059427614,-0.015314175,0.026288902,0.0011333944,-0.018860007,-0.006051498,-0.017340431,-0.007036287,-0.0015726516,-0.024824465,0.02562775,-0.015883593,-0.012876518,-0.015509718,0.033466358,0.0051350235,-0.000666281,-0.0087856,-0.0067696976,-0.0015744807,-0.0084705595,-0.018010918,-0.0057090353,0.043471906,0.022727793,0.03014513,0.014165456,0.025693664,-0.03663612,0.026057228,-0.04671261,0.022765573,0.03328562,0.014513136,-0.014379386,0.024657667,0.0230907,0.029292243,-0.027196718,-0.028446177,0.027708663,-0.014912826,0.0022090808,0.034823,0.017803134,0.012572421,0.016312396,0.02088134,-0.033246826,0.006771779,-0.032190688,0.040268105,0.017313808,-0.020595385,-0.024867535,-0.0086972695,0.008335473,0.02632079,-0.017754486,0.017012514,0.029830687,0.008495039,0.02330233,0.0110484995,0.024518576,0.0036712445,0.02663774,0.020140406,0.030363595,-0.0042879526,-0.01824449,-0.040900923,0.039139308,0.038416427,-0.02880069,0.028562574,0.03776744,-0.018733017,0.02453538,0.024039792,0.027076567,-0.04010618,-0.13119934,-0.04106649,0.020030322,-0.024552612,0.029167857,0.02944536,0.00474823,-0.011145955,-0.0099974135,0.023359451,0.01887128,-0.036161974,0.007992331,0.027921753,-0.014578562,0.026622647,-0.045837414,0.019982811,0.022013769,0.016913036,0.040858213,0.020431558,-0.035151266,0.027093902,0.013786045,0.020820504,0.029985422,0.011073415,0.009022922,-0.030656964,0.012125896,0.018498851,-0.020744842,-0.03968046,0.0145025505,0.010771753,0.01958619,0.01961384,0.006397482,0.0088086985,-0.025680214,-0.033682536,-0.03526287,-0.00078518956,0.026183415,0.005564101,0.026937323,0.023650568,-0.021240532,0.02437795,0.028838038,0.03153372,0.029770685,0.027761413,0.0023625717,0.022146052,-0.041323915,0.002174199,0.016755875,0.012059658,-0.038684405,0.03287187,-0.02242879,0.016019283,0.016105434,0.0062983814,0.0062859235,0.018195016,-0.0007130387,-0.045004357,-0.019876538,-0.038693443,-0.01602463,-0.042391445,0.024777181,-0.03881943,0.02739952,-0.06388088,-0.047806226,-0.042744495,0.010699172,-0.044622,-0.055113345,-0.051153097,0.03432343,0.050660666,-0.030076098,0.037835043,-0.033565667,-0.039269336,-0.048776437,-0.059951864,-0.038770016,-0.056245986,0.04565927,-0.005192222,0.03859085,-0.054355055,-0.05126414,0.023597507,0.040115234,0.012018782,-0.054547522,-0.053668793,0.019509045,-0.042997062,-0.03317779,-0.041101318,-0.009957587,-0.046545837,-0.04029726,-0.034468677,-0.04201687,-0.02083516,-0.04050338,0.040335543,0.036336627,0.02847684,-0.049944613,-0.036174335,0.029216236,-0.025504442,-0.048119165,0.008219082,-0.033684164,-0.026358316,-0.04291393,0.03379005,-0.092783876,0.025386598,-0.039599836,0.0364189,-0.058896568,-0.054680035,-0.04459668,0.04257301,0.011284187,-0.05906619,-0.03882819,0.03049236,-0.037133854,-0.057018436,0.028034167,-0.04491055,0.036089666,-0.049816255,-0.03467686,-0.040441766,-0.027918883,-0.04055201,0.02235646,-0.030842733,-0.017651752,-0.02505976,-0.033610325,-0.05575461,-0.04243575,-0.0047359597,-0.029957999,-0.057667974,0.03389272,0.035184935,-0.049251936,-0.053529173,-0.03998538,-0.030496225,-0.029214023,-0.05252463,0.032432545,0.029639196,0.048313323,-0.029693889,-0.034167875,-0.041096438,-0.039853573,-0.04519775,0.02551458,-0.033532146,-0.036054928,-0.05749541,-0.046682537,-0.040807113,-0.04261397,-0.062181544,0.04238431,-0.038992867,-0.055417202,-0.056337874,0.04977247,-0.03253787,0.017546153,-0.03320159,-0.054431926,-0.036909394,-0.039359555,-0.022202399,-0.05312544,0.0077516087,0.039210554,0.029953744,-0.048565887,-0.05767521,0.016917886,-0.037558842,0.04536819,-0.049037762,-0.04465094,-0.0333754,0.0018274481,-0.05075725,-0.053487353,-0.06472343,0.017507331,0.018223276,-0.051633824,0.021684263,-0.04720693,-0.043289047,-0.046946064,-0.05374538,-0.04570726,-0.05823203,0.02424686,-0.0361651,0.020243203,-0.054932676,-0.042100944,0.012843573,0.008621269,0.017626505,-0.055617653,-0.07594722,0.023158109,-0.055387586,-0.056533128,-0.05568037,-0.016439464,-0.04167864,-0.027107399,-0.03283884,-0.04500325,-0.043846793,-0.06033607,0.029259996,0.019760137,0.032766584,-0.053583022,-0.056039307,0.028525926,-0.0403454,-0.04034154,0.01627082,-0.055419732,-0.049975645,-0.036436535,0.03422442,-0.1239192,0.034408633,-0.04750982,0.05301285,-0.06774969,-0.048597988,-0.06880839,0.034924496,0.028800607,-0.053581547,-0.052567024,0.035809822,-0.061116114,-0.052127413,0.027057527,-0.059461188,0.029299075,-0.042897504,-0.050817568,-0.053830076,-0.043304432,-0.05633316,0.034000546,-0.065221004,-0.022167781,-0.058208928,-0.029972471,-0.05998368,-0.06161747,-0.0038760654,-0.026673827,-0.04247645,0.019027552,0.055728387,-0.054278158,-0.0337412,-0.049985494,-0.033020437,-0.033179354,-0.030107737,0.049508918,0.03279698,0.016555779,-0.046581075,-0.03814523,-0.04936438,-0.009699075,-0.050110914,0.010130359,-0.06424922,-0.059188917,-0.0429774,-0.07177325,-0.051823054,-0.05690002,-0.029164677,0.024230698,-0.06204718,-0.04744343,-0.03883446,0.04145027,-0.051311437,0.0056673507,-0.060108185,-0.067235984,-0.054177444,-0.047354836,-0.05315784,-0.055306807,0.03040753,0.0127162635,0.040997222,-0.026612096,-0.028744131,0.028261362,-0.046928283,0.03602968,-0.019651163,-0.032881264,-0.03964112,0.019639695,-0.03556447,-0.04446562,-0.037133306,0.03648855,0.03165614,-0.030131131,0.03311803,-0.025938362,-0.034659754,-0.029610215,-0.03884059,-0.014257445,-0.026224092,0.016316723,-0.014581288,0.025221786,-0.024069645,-0.050959915,0.03747403,0.01957597,0.01677732,-0.03810658,-0.024691187,0.023006199,-0.028026845,-0.033032175,-0.027727326,-0.022983572,-0.039479677,-0.042229597,-0.025501685,-0.0411954,-0.02209541,-0.03332698,0.030381063,0.012754811,0.026264457,-0.02033114,-0.050219472,0.06339928,-0.034976427,-0.03721155,0.030908663,-0.03805275,-0.039480537,-0.03253305,0.028234037,-0.076556295,0.025499089,-0.018222623,0.044299264,-0.027600605,-0.027994368,-0.014683575,0.024511028,0.012166846,-0.035749145,-0.026479,0.040681023,-0.02741371,-0.017550474,0.0241917,-0.04274611,0.030089535,-0.020119555,-0.047898345,-0.031534076,-0.054176673,-0.03071926,0.029568698,-0.030956341,-0.034519695,-0.036836017,-0.033782896,-0.032779086,-0.025967468,-0.014722155,-0.026727723,-0.046817742,0.017231671,0.031919796,-0.011665989,-0.029996,-0.028626721,-0.03334,-0.029612878,-0.02958196,0.029049069,0.012884552,0.030340804,-0.024799682,-0.01578551,-0.035214275,-0.020243922,-0.03908412,0.021904202,-0.04638863,-0.024483642,-0.047036592,-0.027327795,-0.038099285,-0.02801631,-0.03910122,0.041972667,-0.04856954,-0.0495191,-0.034738548,0.040389754,-0.022977041,0.0053858906,-0.04025876,-0.01902326,-0.023689784,-0.033853784,-0.031208267,-0.020937283,0.014507441,0.009080442,0.01727873,-0.064864054,-0.08289451,0.010055719,-0.05888137,0.028222002,-0.07719316,-0.05405038,-0.07282725,0.0119084185,-0.07111166,-0.07263213,-0.061797492,0.0154256,0.03287681,-0.04290371,0.006938294,-0.048852984,-0.07305759,-0.069920495,-0.08015591,-0.055778485,-0.079048365,0.012587393,-0.018064905,0.023859,-0.083669595,-0.057633076,0.019106796,0.033982266,0.0068393233,-0.05692574,-0.07271238,0.021062877,-0.06599855,-0.048539013,-0.054295458,-0.019515717,-0.07063464,-0.044538435,-0.070534624,-0.06980652,-0.03260488,-0.043583035,0.0064649824,0.022981621,0.030774409,-0.084519394,-0.08154265,0.009696017,-0.06475382,-0.047931768,0.026717525,-0.060036354,-0.0539071,-0.050926916,0.01983323,-0.15066816,0.012523004,-0.03812499,0.027812231,-0.07283845,-0.055080853,-0.056297526,0.036642782,0.009846642,-0.053488865,-0.054784223,0.029241316,-0.07337222,-0.08169446,0.02682636,-0.07916775,0.027193455,-0.056373693,-0.07181654,-0.0790316,-0.07410565,-0.06868392,0.03393735,-0.068170466,-0.020967381,-0.06081834,-0.058837067,-0.062158454,-0.05488583,-0.009567143,-0.018872188,-0.052363932,0.033190556,0.021841802,-0.034457613,-0.04506293,-0.05302597,-0.06265504,-0.07467448,-0.038522203,0.033041336,0.024828974,0.024369573,-0.063787445,-0.04989294,-0.048238788,-0.03475476,-0.053766984,0.035274394,-0.06327227,-0.038191013,-0.06582076,-0.056448117,-0.060668137,-0.059548058,-0.052260645,0.036565606,-0.06941895,-0.05491534,-0.07240281,0.022900278,-0.07074571,0.00094805646,-0.057470128,-0.05807366,-0.06729672,-0.07349131,-0.07301807,-0.064696416,0.054955836,0.029951245,0.021744853,0.008404109,0.019512722,0.025258252,0.0041666953,0.021256054,0.025845941,-0.002227187,0.026926534,0.01466593,0.012154363,0.025020039,0.020442734,0.0047638486,0.030454783,0.00865942,-0.006710133,-0.00909258,-0.0034924103,0.012874311,0.0065917503,0.008123394,0.0136965085,0.013460907,-0.027502974,0.01919294,-0.00015362515,0.016938472,0.008267699,0.01954384,0.011578903,0.023307953,0.005781535,0.01971647,0.009252911,0.012697952,0.013180126,0.006965542,0.0071996106,0.00073157507,0.015436708,0.016013002,-0.0071871597,-0.0026892407,-0.0011983847,0.006923166,0.032360516,0.02024195,0.00073135353,0.005513397,0.030550081,0.013703668,0.032318823,0.0049851793,0.012401859,0.007868562,-0.0028986216,0.052238226,0.004054367,0.021350631,0.030727936,0.01889495,0.013739541,0.0148512395,0.029894456,0.0067269676,0.0130915,0.003885724,0.015683617,0.00814636,0.02377356,0.043271795,0.009795831,0.028243864,0.01586981,0.0032008425,0.022166755,0.010702757,0.0068322676,0.01511057,