0.060668327,0.05106572,-0.117271245,-0.12485823,-0.108949415,-0.104359776,0.058641676,-0.10746529,0.05100677,-0.09791353,0.050653685,0.06098124,-0.09852231,0.038439296,0.06611257,-0.09633768,-0.097891375,-0.123920515,0.0541006,-0.09321401,-0.10509278,0.074124046,-0.09497485,-0.11399314,-0.0924308,-0.09157461,0.07285581,-0.1123897,0.08485382,-0.10810471,-0.10569937,0.06052497,-0.11238773,-0.11458756,0.053458467,-0.11382787,0.072873294,-0.110434756,0.07824377,0.06754048,-0.09450837,-0.09267171,0.07386866,0.06918843,0.064177625,0.03942443,-0.105348915,0.06663993,-0.094256885,0.071127005,0.049191393,0.0809589,-0.11986515,-0.12603025,0.06722566,-0.105139665,-0.11261269,-0.13552962,0.038243823,-0.11314778,-0.113799654,0.035423327,-0.09852098,-0.114016764,0.05344392,-0.13415967,0.0017856337,-0.11141314,0.06011093,-0.095413424,-0.11128407,-0.1079248,-0.09470522,-0.0997838,0.047607366,0.057573523,0.054396223,-0.06343071,0.07551321,-0.09825123,0.07987416,0.056856055,-0.09549349,-0.1048051,-0.0911512,-0.12148654,0.08808786,0.05615288,-0.094856456,-0.09168187,-0.096634135,-0.10005534,-0.094503276,-0.09556827,0.046666745,0.05199632,-0.10413171,-0.092940435,0.067551546,-0.10080288,-0.106264465,-0.097569026,-0.09803773,-0.109301105,-0.11001375,-0.09532448,-0.114644535,-0.09217899,-0.118358456,-0.116013005,-0.11537287,-0.09410811,-0.10259461,-0.102183715,-0.095513344,-0.13951892,-0.116122805,-0.023884567,-0.12659973,-0.09451256,0.07232794,-0.13966262,-0.10101187,0.06782487,-0.10827034,-0.11531983,-0.12368987,-0.114014655
0.027612006,0.025007013,0.014540475,-0.06980515,-0.014104281,0.0050409534,0.0633329,0.00029245796,0.016327165,-0.0021884071,0.03376494,0.047941923,-0.032782767,0.019039083,0.034259424,-0.0029757544,0.00043548745,-0.0022100417,0.054753974,-0.028392922,-0.0019696122,0.04049556,-0.008021024,0.0014110071,-0.03380482,-0.014331672,0.03731173,-0.0056979163,0.017834358,0.0025875429,-0.022385849,0.038608737,-0.0109166335,-0.023195574,0.045032103,0.0021940386,0.055741858,-0.005827536,0.045494057,0.028819669,-0.01913145,-0.009117279,0.054401156,0.053466152,0.021600662,0.038609914,-0.0183074,0.036590565,-0.0006221446,0.038559824,0.03369147,0.046726167,-0.05018983,0.017624278,0.032928757,-0.021418663,-0.049108084,-0.0965896,0.039151147,0.012789418,-0.0003410913,0.024073502,-0.041987114,0.0040948666,0.036132637,0.021780122,-0.00997966,0.0037721877,0.03103214,-0.022504188,-0.013858357,0.00731006,-0.03648796,-0.0059047085,0.03210811,0.026208097,0.022901816,-0.033367194,0.0283834,-0.009701732,0.043564633,0.04841104,-0.033796865,-0.014782742,-0.0017509408,0.01831188,0.059840553,0.0314365,-0.005674089,-0.03450508,-0.04688632,-0.009106168,-0.020304145,-0.020109106,0.032899834,0.041345444,0.0071603167,-0.005319077,0.030486898,-0.01579123,0.0059568454,0.0047033317,-0.022029534,-0.014405996,0.0019907523,-0.024470385,0.0030155957,-0.023377802,0.012381545,0.010247529,-0.0073908423,-0.023485359,-0.02088406,-0.008061783,-0.026080392,0.0010070035,-0.016670484,-0.022974903,0.011468913,-0.015216027,0.028353877,-0.08114734,-0.016165275,0.030771144,-0.017108826,0.019380728,-0.044314902,-0.00970067
1.0739962
0.58153665
0.17164321
-0.05692067,-0.02309444,-0.06432049,0.013547459,-0.05181682,-0.060215127,-0.0055425316,-0.0532922,-0.034667544,0.016714606,-0.0018248137,-0.03710794,-0.013526631,0.011165881,-0.042032715,-0.028616376,-0.059642866,0.008446827,-0.019323522,-0.013980933,-0.07028416,-0.046516553,0.02388445,-0.07733802,-0.026456615,-0.027145877,-0.008256521,-0.05582608,-0.05691937,-0.060124844,-0.040626194,-0.05623055,-0.044830214,-0.083019264,-0.057064883,-0.053611487,-0.044065226,-0.052605655,-0.0038630657,0.015542459,-0.038046714,-0.008246525,-0.05459955,-0.00643932,-0.047491923,-0.03796016,-0.0011871201,-0.041394264,-0.054190733,0.031717084,0.029900929,-0.06500563,-0.05748747,-0.019673081,-0.042741254,-0.04670586,-0.037555832,-0.032255348,-0.052424125,-0.07432571,-0.038805425,-0.042543095,-0.043397535,-0.052933358,-0.041196145,-0.04904737,-0.027131155,-0.03770697,-0.039911766,-0.049721647,-0.023973733,-0.047718666,0.012568027,-0.03631168,-0.03583029,-0.023170488,-0.01805076,-0.03617188,-0.03358314,-0.038510963,-0.04913299,-0.06410778,-0.037127677,-0.036110543,-0.04692335,-0.050359074,-0.010521545,-0.030670652,-0.04031061,-0.046167318,-0.03241846,0.008321359,-0.053634163,-0.043288637,-0.008968618,-0.05668206,-0.049617056,-0.046873566,-0.045087393,-0.041034114,-0.047943022,-0.0029046447,-0.049297452,0.020335512,-0.05452746,-0.016756339,0.0099808965,-0.055158023,0.008533062,-0.04822174,-0.05375952,0.008433412,0.023937795,-0.043202877,-0.07114673,-0.05122501,-0.030282794,-0.057245303,-0.04166863,-0.055342637,6.225423e-05,-0.016017837,-0.060418565,-0.039782386,-0.043130815,-0.044390745,-0.04878606,-0.04438394,-0.057395797,-0.03825841,-0.045607165,0.012031137,-0.03191457,-0.056112524,-0.018472405,-0.05610475,-0.049951605,0.0090945475,-0.007234701,-0.03774062,-0.0121071525,0.020859217,-0.039712664,-0.018420776,-0.05300615,0.031484246,-0.02615649,-0.0037312608,-0.03138269,-0.027721727,0.025932526,-0.042423923,-0.035045974,-0.022439925,-0.022812197,-0.04402722,-0.039124493,-0.041678887,-0.018669914,-0.030078188,-0.03742877,-0.038346097,-0.034497656,-0.04917897,-0.06743576,-0.032487143,0.013716009,0.020588065,-0.053598385,-0.043237872,-0.033996746,-0.011748695,-0.021859962,-0.055239696,0.018600745,-0.037439696,-0.028579945,0.037514582,-0.0016010896,-0.039642923,-0.03601572,-0.0059651253,-0.05085447,-0.052636802,-0.055280298,-0.0508752,-0.053703982,-0.056008,-0.04300471,-0.06038969,-0.026765853,-0.053145766,-0.06294316,-0.04162584,-0.017875329,-0.042637914,-0.040231373,-0.031705584,-0.031443395,-0.054761805,0.017689977,-0.013720508,-0.047705527,-0.030191764,-0.028030805,-0.031051314,-0.037277862,-0.042031344,-0.059969284,-0.040363308,-0.047339793,-0.041981306,-0.039061826,-0.034765374,-5.6020363e-05,-0.02496157,-0.06591235,-0.029966421,-0.0409006,0.017178189,-0.05524623,-0.033719294,0.00051510555,-0.05852875,-0.064124815,-0.052040137,-0.041354105,-0.03257263,-0.03908859,-0.00023433978,-0.040183555,0.035367303,-0.043019485,-0.0062564784,0.019383863,-0.04470259,-0.020624187,-0.055698935,-0.06283797,0.014437734,0.016423363,-0.03842778,-0.04317371,-0.035294406,-0.023013672,-0.050675243,-0.03796188,-0.047515735,0.006351009,-0.01582123,-0.054857828,-0.03486484,-0.049797587,-0.058218554,-0.04045838,-0.039482784,0.032216836,0.04729269,0.049371365,0.020156909,0.046068165,0.02351191,0.012917222,0.054477766,0.023421446,0.016944367,0.021067476,0.04960952,0.014482528,-0.005319283,0.028474564,0.017684715,0.03604604,-0.010294826,0.022176852,0.0025765458,0.050538745,0.038976386,0.016154835,0.032718275,0.014132991,0.045976404,0.009394066,0.055859126,0.043268517,0.04725782,0.0226279,0.04036064,0.03846397,0.06286477,0.06302166,0.043227125,0.04183527,0.030229349,0.014512272,0.022519432,0.042526264,0.032582212,0.05577491,-0.0034293004,-0.008154507,0.034171823,0.0023594103,0.021202955,0.017625721,-0.0024980123,0.0018333201,0.070862256,0.04645351,0.009256727,0.035893157,0.032754704,0.061187048,0.03134362,0.06082541,0.042475846,0.047062535,0.04204691,0.049475335,0.060602847,0.033575077,0.052799486,0.031192776,0.040324096,0.018348144,0.026060313,0.016404027,0.043034993,-0.0068280236,0.03928878,0.032104716,0.01711009,0.018802967,0.011561709,0.029188605,0.016011385,0.036625013,0.035175893,0.041788023,0.050870154,0.034854837,0.03530457,0.012089661,0.04375438,0.033633705,0.0350391,0.029516993,0.011313459,0.027790168,0.026142953,0.025349565,0.068765394,0.051533245,0.03685634,0.04798729,0.029580757,0.03515544,0.00046661368,0.043376163,0.03442547,0.045720186,0.009372395,0.0073701586,0.040054046,0.010270875,0.04291836,0.040451854,-0.0022080294,0.027897155,0.010161183,0.06070887,0.06131088,0.06140426,0.03874602,0.036764067,0.039136305,0.0036027485,0.018383505,0.060650475,0.012767781,0.013838139,0.033606004,0.051860027,0.0424973,0.0034723743,-0.010786411,-0.011135344,0.033482086,0.012847268,0.019171327,-0.0016384143,-0.0035737534,-0.009582947,0.030644383,-0.0042829146,0.004481955,-0.019328771,0.026216464,-0.020437669,-0.015152326,-0.0025219826,0.004784833,0.0026292955,-0.0024851025,0.013417639,0.013625485,0.04505272,-0.0013047296,-0.032881532,-0.0063633937,0.010590868,0.008287871,-0.0048787585,0.01214042,-0.027465617,-0.01771508,0.01199512,0.023596931,0.01199919,0.011877907,0.018291024,0.019055478,0.025460042,0.032555003,-0.016067196,-0.00993926,0.0005529861,0.015130947,-0.037074555,-0.00993007,0.01861452,-0.02712677,0.009353192,0.039876692,0.020846862,0.014102352,0.02610958,-0.015209444,-0.008585164,0.0057972856,-0.01832758,-0.021800566,0.022111895,0.011026728,0.01057948,0.0022180767,-0.01575676,-0.0016902724,-0.010419054,0.018838963,-0.024224043,0.017026717,-0.007135718,-0.0043651685,-0.0039033543,0.014442396,0.032694776,0.012392521,0.010853951,-0.016465168,0.00803752,-0.012002579,0.0031587286,0.0020254087,0.008217466,0.003060884,0.00822341,0.001564805,0.016625559,-0.0036788583,0.005591335,-0.000618736,-0.010026322,-0.0067165135,0.006948676,0.010404751,0.007424528,0.009289812,0.012850946,0.013630581,0.023782106,-0.003047453,-0.016941195,0.008404801,0.02317092,0.0110401055,0.011067936,0.058139928,-0.00064042246,-0.007402133,0.020878118,0.014696944,0.011834184,-0.00041232872,0.0060431478,0.033842083,0.03829372,-0.0017821566,0.006227671,-0.0091164755,0.0101910755,-0.016054165,0.014532886,-0.0023178428,0.006914652,-0.020188553,0.020317152,-0.013944578,-0.013366355,0.02566618,0.00033546577,-0.00505805,0.028205046,0.032000538,0.045558013,0.0030857488,0.044340666,0.03513246,0.018556189,0.045330606,0.04524878,0.007150402,0.0035815104,0.048411448,0.019732393,0.0139756035,-0.00270449,0.012938532,0.041104283,0.015975144,0.024816856,0.006780469,0.036061287,0.020518394,0.010944337,0.036953922,0.028388068,0.017302258,0.0050880746,0.032140013,0.023983493,0.048874818,0.02321948,0.04650696,0.030631147,0.041244257,0.031028539,0.035121754,0.031094573,0.04217723,0.010197761,0.02926271,0.015582878,0.005312202,0.03646529,0.011316113,0.013811685,0.04723858,0.0070421253,0.02857091,-0.0027738886,0.029100241,0.029051224,0.060585663,0.034516294,0.027851928,0.030741502,0.0502324,0.03003179,0.00041243012,0.06031322,0.030584771,0.033561353,0.025881317,0.029110106,0.02466817,0.032609984,0.03107525,0.005030537,0.04697501,0.02571207,0.04675996,0.0010738511,0.042033575,0.016011685,0.03085141,0.03514627,0.028902363,0.024918199,0.010309231,0.019863365,0.015313785,0.029661488,0.031462435,0.01918,0.034881197,0.015735485,0.033998273,0.0028742808,0.01449819,0.0449284,0.042384468,0.029769853,0.018991617,0.05212746,0.024959074,0.004063129,0.040617526,0.005640063,0.03956525,0.014343812,0.02415862,0.06043736,-0.0064388523,0.03026367,0.039600663,0.031675518,-0.0083875945,0.014406347,0.03233799,0.02015261,0.04166465,0.047190275,0.0016854954,0.038779676,0.03182052,0.025515234,0.01965984,0.02896533,0.024815882,0.04513297,0.030470556,0.019462293,-0.0019959998,0.041610323,0.01795203,0.019691136,0.03529164,0.05519336,0.037878007,0.03758579,0.020365031,0.025222698,0.008870176,0.027801678,0.039482642,0.025066726,0.057745647,0.033669155,0.022618817,0.0012228423,0.030822497,0.010460659,-0.0034986553,0.023172436,0.015002706,0.034637403,0.003323975,-0.0072392966,0.002198033,0.032109715,0.030616319,0.0050675008,0.0378232,0.0029522474,0.02654861,0.00934116,0.05350925,0.032609973,0.03268496,0.025464254,0.023254128,0.03734473,0.04115501,0.047018602,0.027120912,0.03279445,0.03315362,0.0064827735,0.009145469,0.044378683,0.030095344,0.04674933,0.036465887,0.00056495925,0.04180169,0.03092289,0.021104304,0.0126111945,0.015296727,-0.00044134233,0.032849684,0.03087517,0.0048593706,0.029056203,0.03243924,0.034561068,0.026376521,0.03437619,0.029698854,0.046794113,0.02872031,0.0291874,0.028701102,0.03165436,0.030130414,0.003756287,0.032128967,0.0071559735,0.029127067,0.012141094,0.03159272,0.010957883,0.021926284,0.027996885,-0.007103832,0.011437273,0.032028228,0.033944346,0.023383718,0.034025222,0.018288646,0.044809744,0.026614193,0.055984568,0.04421956,-0.006780346,0.0145427575,0.031559095,0.011710305,0.030203786,0.035377953,0.025034387,0.026803592,0.016336832,0.037576754,0.033453736,0.028533345,0.0337272,0.048260607,0.0356425,0.015074736,0.04869933,0.01855354,0.030139359,0.01911919,0.01925726,0.027461713,0.018831376,0.028794913,0.03364795,0.019700397,0.03872664,0.04053062,0.033917878,0.045280095,0.009123975,0.02340641,0.021550016,0.035269707,0.009604088,-0.0027698278,0.03714469,0.035768565,0.018065602,0.03191344,0.037176754,0.026351795,-0.044216543,-0.0475984,-0.05016294,0.002211884,-0.043614503,-0.04774748,-0.015826223,-0.06634795,-0.03759353,0.015150054,-0.0016753607,-0.07258798,-0.015629644,0.0017451087,-0.022671584,-0.014463168,-0.044811882,0.020698644,0.007610048,-0.009525812,-0.05606157,-0.041578762,0.01935586,-0.051683832,-0.0077116033,-0.023990883,-0.0034212882,-0.057070397,-0.04483629,-0.060031235,-0.040308807,-0.047834888,-0.04209987,-0.05034964,-0.03517547,-0.051427774,-0.045756236,-0.04632894,0.004429922,0.013757732,-0.032742716,-0.04643232,-0.042423602,0.010573598,-0.019568572,-0.03362884,0.023145234,-0.018763967,-0.020115616,0.018786177,0.001187244,-0.067888536,-0.05341902,-0.016028604,-0.05315882,-0.05274427,-0.040445216,-0.026415257,-0.063455425,-0.05843866,-0.055090524,-0.055837445,-0.04328769,-0.059098937,-0.047532406,-0.04638557,-0.007981264,-0.044122864,-0.030969296,-0.032452576,-0.04344374,-0.053123318,0.02496328,-0.029201187,-0.053103153,-0.034940396,-0.05264897,-0.013295189,-0.047893997,-0.044498865,-0.05677925,-0.07121187,-0.05004199,-0.027316984,-0.044332083,-0.041927014,0.010655109,-0.037633333,-0.042454287,-0.036351755,-0.035980463,0.014094619,-0.06216278,-0.05321615,0.0032385613,-0.053565267,-0.05558423,-0.05802655,-0.054572735,-0.054510243,-0.047255915,-0.006973348,-0.027592992,0.024130497,-0.048257962,-0.0032495651,0.009963035,-0.0469209,-0.0052310824,-0.05472684,-0.03947254,0.017848907,0.010573033,-0.04252471,-0.052945204,-0.032710444,-0.038746096,-0.060217407,-0.04926192,-0.0389896,0.016037272,-0.017741766,-0.04436606,-0.045343645,-0.047156945,-0.056995474,-0.05079279,-0.046284102,0.047565494,0.018542392,0.03258555,0.0028751332,0.013178102,0.026437365,0.020755071,0.039454058,0.037962236,0.025540266,-0.0032854786,0.04596538,-0.0045968215,0.03125434,0.010261528,0.0035451716,0.03072157,0.005624373,0.019655803,0.015704447,0.035918407,0.043396004,0.022069748,0.035013784,0.0067608277,0.018874858,0.0021550786,0.036831334,0.04903715,0.028845638,0.025315447,0.031258292,0.030739047,0.03540672,0.037058778,0.048099708,0.051586438,0.04633194,-0.0028119946,0.008725767,0.025774335,0.010805377,0.035105266,-0.015868472,-0.0097339805,0.037844192,0.013225891,0.024373945,0.0062109674,0.018631978,-0.0019279575,0.038233183,0.044640794,-0.004623144,0.026519088,0.036260214,0.060293913,0.019785816,0.053416554,0.043257285,0.043068543,0.047776546,0.013394983,0.041461118,0.04117463,0.03854991,0.019661294,0.044291724,0.009994407,0.029991768,0.009996715,0.044369254,0.019493107,0.01642919,0.03932427,0.010128745,0.011040611,0.025346775,0.025028845,0.017831847,0.028805953,0.031182997,0.04050547,0.027554495,0.04324719,0.025208427,-0.004120124,0.029204061,0.036379557,0.034254946,0.029948922,0.012520276,0.038128093,0.028586505,-0.011222787,0.032543797,0.044677,0.022988917,0.032474533,0.03625617,0.05491524,0.0063347444,0.04041966,0.0100977,0.036994193,0.0059541683,-0.001372425,0.032323718,0.020267004,0.04062192,0.05378122,0.010560093,0.0031079971,0.039629802,0.03992585,0.04413511,0.043328118,0.033557724,0.050564777,0.039420642,0.010909778,0.012634674,0.024650654,0.039494894,0.035342123,0.054897163,0.031731408,0.0221741,-0.0695929,-0.042499125,-0.037105445,0.018513191,-0.03656608,-0.0442192,-0.030602893,-0.056789093,-0.055851687,0.017183395,0.006413932,-0.036726173,-0.014293907,0.018649127,-0.041403003,-0.023204789,-0.04132434,-0.0025237626,-0.0118176425,-0.004865088,-0.06762438,-0.038613282,0.022477664,-0.04265809,-0.03531903,-0.04294909,-0.0005998843,-0.047206387,-0.035518862,-0.03956495,-0.009392564,-0.03863455,-0.050057862,-0.066546336,-0.040816307,-0.03579278,-0.07012609,-0.044192113,0.014358521,0.023095945,-0.042173505,-0.034026984,-0.046201523,-0.011005656,-0.029761098,-0.040874306,0.0060734353,-0.04055348,-0.025978534,0.022486327,-0.004728561,-0.052752763,-0.030676113,-0.0009821346,-0.03173159,-0.033390794,-0.045611754,-0.041189406,-0.048458643,-0.061559957,-0.02427849,-0.035259847,-0.058003396,-0.04288764,-0.04949059,-0.06356119,-0.036096755,-0.060928687,-0.039490644,-0.034061033,-0.04439392,-0.04385126,0.0050172633,-0.0274608,-0.032641128,-0.03358702,-0.02034953,-0.038864266,-0.04215786,-0.03462006,-0.02904593,-0.025550706,-0.05023337,-0.04827992,-0.04104226,-0.036463633,-0.008124891,-0.011565665,-0.017558767,-0.055809572,-0.038079858,-0.01183304,-0.051059354,-0.03395676,0.0039441017,-0.04677173,-0.045566645,-0.037794624,-0.033380736,-0.03830883,-0.06456235,0.00095914904,-0.035548642,0.031256054,-0.042527612,-0.026157046,-0.011402228,-0.04767054,-0.018142797,-0.032634325,-0.044287972,0.007468389,0.0103304,-0.04697785,-0.052518766,-0.04057218,-0.03562676,-0.036955886,-0.057013568,-0.034498334,0.009370135,-0.054305434,-0.048428226,-0.035812706,-0.030772591,-0.06283102,-0.047480125,-0.043325342,0.01924695,0.022891967,0.02942222,0.005470056,0.02622239,0.0025331052,0.00469863,0.029878145,0.009928009,0.027529052,0.009310877,0.009942215,0.013683931,0.016282834,0.013339463,-0.0036068966,0.01977835,0.01812569,0.013282554,0.0062828204,0.031197678,0.027820025,0.039987132,0.030401582,0.007469339,-0.0031893605,0.017226946,0.018858282,0.02601971,0.030535422,-0.01398842,0.030858101,0.0565156,0.049687482,0.028055225,0.02722266,0.03505411,0.01616571,0.006376957,0.0051595517,0.0068642423,-0.011608796,0.028195608,0.010276825,0.012582381,0.024688704,0.018812513,-0.0025749165,-0.0076838946,0.028976684,0.027764034,0.036311522,0.02339514,0.009687484,0.022677228,0.031975113,0.021966167,0.005648831,0.028303655,0.047989782,0.029487863,0.024688575,0.017771034,0.036553234,0.00943865,0.031862397,0.017234799,0.016777534,0.004418876,0.015377428,0.021449575,0.018644461,0.01571833,0.024988556,0.015107075,0.000553792,0.015253162,-0.0017984604,0.008742921,0.01565298,0.03717668,0.023177562,0.026533177,0.028072327,0.018475054,0.024695544,0.0030230046,0.003923573,0.02283867,0.010471964,0.0092161875,0.011199195,0.035325114,0.021882305,0.015518107,0.021027833,0.038207658,0.009134629,0.0011799765,0.022667123,0.027511192,0.021280665,0.025241712,0.03981709,0.035392534,0.02698709,0.036437698,0.028777473,0.018639527,0.029812736,0.0315132,0.008487413,0.03239816,0.023444094,0.030169176,0.015490384,0.02238377,0.032041162,0.032369785,0.037522376,0.023029726,-0.015928252,0.046279084,0.02620927,0.025580643,0.024980083,0.023400355,0.0013521196,-0.049394656,-0.036074653,-0.05903102,0.0047898088,-0.067240134,-0.04087208,-0.020148208,-0.04559768,-0.026290677,0.009192511,-0.008866625,-0.045527294,-0.009911453,0.00681875,-0.027535012,-0.03541491,-0.050854947,0.002077729,-0.017628493,-0.013950653,-0.02821787,-0.03560274,0.020698171,-0.05917037,-0.049525686,-0.017187357,0.018775735,-0.05170566,-0.028103601,-0.04813877,-0.039875183,-0.065953396,-0.050642345,-0.04373143,-0.032801732,-0.03666271,-0.04278098,-0.0406898,0.003653521,0.01929013,-0.021973541,-0.013893309,-0.053244647,-0.00690069,-0.036977597,-0.016745046,0.023016272,-0.017943332,-0.028915633,0.025883248,0.012469812,-0.061337233,-0.04116649,-0.013926242,-0.041748825,-0.03679358,-0.036070783,-0.028420217,-0.048512634,-0.050260436,-0.041360717,-0.053210083,-0.052879818,-0.048652884,-0.049740627,-0.036885798,-0.02393449,-0.042869844,-0.045973916,-0.03948971,-0.031065304,-0.03923099,0.021354698,-0.03564435,-0.030489001,-0.03403998,-0.018209537,-0.024500959,-0.021182457,-0.05831302,-0.04889285,-0.02876396,-0.034843437,-0.034225456,-0.043414086,-0.039212093,-0.01904485,-0.05317864,-0.04616321,-0.033428818,-0.041428134,0.0013552988,-0.057678618,-0.037855126,-0.004563912,-0.041001584,-0.053661205,-0.04335878,-0.045947887,-0.04552864,-0.04515847,-0.0045882044,-0.043442983,0.02770795,-0.043091517,-0.015441203,-0.0013717073,-0.04686482,0.016276976,-0.061713155,-0.05455028,0.012281571,0.014742643,-0.0427099,-0.037993513,-0.044586025,-0.043097474,-0.04664188,-0.036913935,-0.048513234,-0.0042257193,-0.011258548,-0.055809133,-0.026561461,-0.03978938,-0.03471557,-0.044411063,-0.037797637,-0.041003563,-0.044128727,-0.04360754,0.0082858335,-0.055957682,-0.036356293,-0.023178957,-0.05719278,-0.028295439,0.0049340567,-0.025250863,-0.0734312,-0.022753181,0.027675174,-0.028948642,-0.025778355,-0.05037958,0.00384179,-0.02019898,-0.011622664,-0.047760166,-0.05773928,0.03422347,-0.039475396,-0.01656276,-0.029402293,-0.006396735,-0.05669691,-0.036434676,-0.044803377,-0.037976235,-0.04702932,-0.04364357,-0.06667391,-0.06603963,-0.035198275,-0.07285247,-0.038241073,-0.0029809105,0.004062071,-0.024178855,-0.030853866,-0.03788174,-0.0048334757,-0.010694077,-0.044327904,0.005681362,-0.021510052,-0.027765337,0.012180623,0.0029931406,-0.054138675,-0.05591306,-0.015961818,-0.041254357,-0.0677327,-0.058484618,-0.01989382,-0.052663967,-0.02905881,-0.04762982,-0.05856433,-0.030440811,-0.037914325,-0.06941771,-0.060483452,-0.010657974,-0.050217245,-0.051536143,-0.02906443,-0.041701656,-0.048111767,0.026095267,-0.040716466,-0.041794512,-0.015569604,-0.015137912,-0.026380643,-0.055145267,-0.040849794,-0.059279863,-0.036796235,-0.06115816,-0.043305006,-0.045344487,-0.04445231,-0.005593898,-0.025274899,-0.054925118,-0.050953094,-0.03835705,-0.004385611,-0.07940521,-0.044627704,-0.007769102,-0.03529606,-0.070741765,-0.023351146,-0.041438635,-0.033550147,-0.06910397,0.014186418,-0.043731276,0.03711654,-0.048164085,-0.010766296,0.006888757,-0.07018522,0.014378725,-0.060126893,-0.018982971,0.023459915,0.03235028,-0.03794202,-0.031205922,-0.041623514,-0.06770282,-0.024870172,-0.051636443,-0.05159156,0.015319938,-0.013666406,-0.06461533,-0.031135267,-0.054165278,-0.05523708,-0.070059724,-0.040423654,0.012202475,0.013992869,-0.0054578874,0.010119598,0.015926395,0.007592989,0.014471526,0.04183291,0.005893208,0.014553936,-0.0071207853,0.02430243,-0.0047245566,0.031793866,0.0018519112,-0.009964668,0.031704795,0.038045768,-0.0002731393,-0.0051942635,0.00871342,0.030843345,0.041261587,0.026727788,-0.014259993,0.0010122864,0.021223616,0.011381064,0.011598207,0.0130399875,0.010330592,0.028212871,0.015479503,0.021699002,0.021301148,0.015163356,0.007032166,0.006541418,0.022010216,0.01706436,0.0122253215,0.010522664,0.014867158,0.022664579,-0.0020040886,0.016742488,0.015567147,-0.017598737,-0.02616378,0.02570941,0.028881395,0.01792756,0.020182962,0.020020822,0.01723732,0.008837524,0.020679455,-0.00214803,0.022093873,0.012559868,0.022957925,0.008237565,-0.0060401377,0.02537107,0.022633437,0.03226314,-0.02258918,0.02735986,0.001346969,-0.00093145977,-0.008336402,0.032804515,0.032780014,-0.01111038,0.010170819,-0.013895999,-0.00036793,0.006819939,0.010443005,0.007639583,0.006201114,0.027635707,0.016776154,0.00989792,0.027232954,0.016837783,-0.00690068,-0.0027173709,0.019330975,-0.0064561865,-0.0040011266,0.022259116,-0.0050696665,-0.003436161,0.015286084,0.0232238,0.040172834,0.019478714,0.022472594,0.027057955,0.017199578,0.0070370235,0.013395985,0.046155784,0.0069366284,-0.019297786,0.03003033,0.027989425,-0.002082626,0.013058097,0.032417335,0.022966359,0.026227476,0.0014072632,0.008268486,-0.004519288,0.015687482,0.011844025,0.029908853,0.014422808,0.023109881,-0.0023581588,0.010246944,-0.0042734677,0.028507767,0.027784213,0.020933582,-0.0022524162,-0.04094362,-0.040885977,-0.043126743,0.017449344,-0.032952446,-0.021718457,-0.021122184,-0.021969587,-0.045990743,0.004232018,0.0054258103,-0.039917674,-0.020495592,0.0017568788,-0.028280033,-0.023573738,-0.04059791,-0.017679619,-0.02154418,-0.011504222,-0.0199167,-0.036078077,-0.00047976777,-0.038742285,-0.014527435,-0.040052157,-0.0033618454,-0.029290246,-0.033493508,-0.043213658,-0.028192041,-0.033689693,-0.03589869,-0.042123705,-0.038745303,-0.03386051,-0.037386883,-0.035125922,-0.0062865517,0.017439956,-0.0317,-0.038075257,-0.030412888,-0.013931584,-0.025611378,-0.016507367,0.03149846,-0.0384231,-0.01212116,0.024981491,0.004285103,-0.003603151,-0.034553494,-0.0010791867,-0.048665743,-0.05005102,-0.037195988,-0.029741995,-0.029006144,-0.059619546,-0.046903588,-0.018427132,-0.045558188,-0.04027401,-0.03813274,-0.03235457,-0.027985232,-0.047351994,-0.033137422,-0.036873966,-0.035728917,-0.039005313,0.02063872,-0.024632763,-0.06279849,-0.018598631,-0.0045266687,-0.031288393,-0.03310688,-0.038899425,-0.04991604,-0.045902673,-0.026309745,-0.031653196,-0.028470831,-0.029816909,0.013435828,-0.031020438,-0.03056837,-0.03068849,-0.046687182,0.009951782,-0.02647451,-0.055304397,-0.0014713445,-0.026532944,-0.0247348,-0.035016336,-0.047019064,-0.034389574,-0.030630313,0.017845035,-0.0400197,0.023822725,-0.025387129,-0.00322094,0.01382637,-0.032996878,-0.00013324898,-0.0507858,-0.04632261,-0.004329434,0.03919566,-0.024075484,-0.03993677,-0.025212172,-0.025238782,-0.02482958,-0.020124635,-0.041861452,-0.016108287,-0.013248982,-0.032119516,-0.037251025,-0.04978835,-0.041965973,-0.04712182,-0.026287202,-0.056469865,-0.036087923,-0.049685847,-0.0015231337,-0.039567612,-0.032633163,-0.022579797,-0.05507551,-0.04959343,0.02478879,0.003174187,-0.06672459,-0.011260924,0.022643324,-0.035407487,-0.019012664,-0.0700716,-0.011466192,-0.0313952,-0.022579988,-0.044956703,-0.057463225,0.0142908525,-0.04269178,-0.040980924,-0.02530973,-0.032421663,-0.058432493,-0.03728934,-0.052441463,-0.02784219,-0.06918384,-0.045896865,-0.078399055,-0.04221351,-0.062304944,-0.06470636,-0.05744304,0.0129921185,0.022673905,-0.027096832,-0.020629728,-0.05728615,0.017443743,-0.029092615,-0.061460067,0.014207299,-0.018531833,-0.02914826,0.028243564,0.008597941,-0.078273304,-0.049051072,-0.017850095,-0.040430397,-0.0475169,-0.06337952,-0.021835832,-0.039062977,-0.05160722,-0.055655845,-0.0532853,-0.054963477,-0.054273788,-0.040067285,-0.06116593,-0.036727205,-0.05895827,-0.04523972,-0.043477904,-0.028372236,-0.05897809,0.02813809,-0.04621024,-0.047810473,-0.021176614,-0.01625052,-0.020314047,-0.034815572,-0.046737146,-0.039118227,-0.048715618,-0.050659265,-0.040529363,-0.05308814,-0.03905343,-0.0074628918,-0.022890361,-0.055309743,-0.02901035,-0.05566941,-0.007139473,-0.054817677,-0.041502915,-0.014191033,-0.06726418,-0.06605528,-0.049728625,-0.04638433,-0.04900279,-0.053952705,0.0055104643,-0.041292943,0.027578227,-0.06117529,-0.012440153,0.0023025698,-0.06509162,-0.018495746,-0.04849003,-0.05461934,0.016945658,0.04115023,-0.052339915,-0.052836176,-0.04387074,-0.04709589,-0.049773388,-0.053768314,-0.048442114,0.011546588,-0.032735612,-0.05475523,-0.031502016,-0.066439494,-0.038978413,-0.052945215,-0.04742854,0.008950361,0.016288001,0.016891822,0.0013237315,0.026086029,0.030005388,0.0059248395,0.036446188,0.006051233,0.035595864,0.008052813,0.031481512,-0.008929949,0.008274313,-0.015565877,0.009523774,0.0520728,-0.0038378267,0.0121874865,0.0029169724,0.029989665,-0.00027668345,0.022127224,0.035461426,0.0020413392,0.00037915737,0.020822152,0.012745115,0.04308907,0.018118553,-0.0032607384,0.04040874,0.034575894,0.033732463,0.021788778,0.0048376457,0.047561936,0.015493512,0.039527316,0.029176848,0.028561441,0.018805308,0.027647853,0.010470062,0.013150915,0.032772113,0.014484414,0.00907865,0.0078052827,0.0185917,0.012318642,0.03665612,0.030614236,0.022150269,0.029015452,0.037324462,0.025615158,0.011109931,0.034750406,0.0270776,0.027471773,0.031257156,0.024248458,0.022438353,0.0088198185,0.03030245,0.008640005,0.044294514,0.012894966,0.018447325,0.02835273,0.013671219,0.03415691,0.006380843,0.023205288,-0.00754727,0.002861473,0.017562548,0.009783983,0.036244236,0.03283558,0.014283188,0.03257206,0.015071839,0.028393455,0.029997205,0.010559253,0.018056443,0.023640655,0.017461723,-6.7154906e-05,0.0021367394,0.025410395,0.025167454,0.017760407,0.025272477,0.024228837,0.027172852,0.011458138,0.03342952,0.028886102,0.014279925,0.015398932,0.019744046,0.03226196,0.008064874,0.018882772,0.02265342,0.016236216,0.0014372884,0.03456017,0.026149794,0.026788644,0.013507323,0.01714012,-0.0026049248,0.017168723,0.029271975,0.046162024,0.018960249,-9.103813e-06,-0.01261205,0.020562151,0.0034349607,0.022281975,0.037300445,0.011166879,0.024710668,-0.0023358627,0.011205343,0.037339985,0.0180497,0.041958075,0.03359079,0.008416389,0.014805434,0.018327653,0.017316578,0.0072203856,0.035786845,0.0012365722,0.038552303,0.008060048,0.003552466,0.024017904,0.017593997,0.026977528,0.008862019,0.034735717,0.019392585,0.036558453,0.010731916,-0.020070605,0.0024657573,0.0029836097,0.009269483,0.023543553,0.031040959,-0.0032457847,0.026360968,0.035846986,0.024889478,0.019750023,0.025799228,0.04473828,0.029036347,0.025902446,0.03365698,0.022839984,0.0077846437,0.024984563,0.013423656,-0.0013075358,0.030674722,0.020362252,0.0063132546,-0.010070109,0.03001729,0.010623449,0.030888174,0.03628942,-0.0024550487,0.024378851,0.0422963,0.02244869,-0.010259887,0.029406505,0.026169414,0.030057034,0.024118647,0.014331451,0.022527834,0.0311811,0.039278645,0.00463879,0.04358325,-0.004342184,0.03120229,0.0074569215,0.022996996,0.021764858,0.022818092,0.016311968,0.008044873,0.002722156,0.004055239,-0.010285159,0.033967715,0.033165917,0.020177105,0.015925141,0.031770155,0.032386564,0.035336707,0.022175135,0.000838574,0.038460102,0.019069819,0.0065850443,0.016491916,0.026926946,0.0068767318,0.006404004,0.014137434,0.04170976,0.027773278,0.012637848,0.006656013,0.02288915,0.013690073,0.02106414,0.025150344,0.033579938,-0.0013669899,0.026172007,0.035292804,0.0075555984,0.024888555,0.04792456,0.035759605,0.02983315,0.01584445,0.029132979,0.014755147,0.019024853,0.0269889,0.02506267,0.03498078,0.01684477,-0.01307167,0.023642045,0.0035919354,0.032995593,0.042531252,0.03047352,0.031009454,0.04361512,0.031159561,0.04309703,-0.0036071886,0.032794915,0.05853518,0.026028153,0.0456094,0.042000797,0.0048053036,0.021179136,0.048502985,0.005366784,-0.0037039942,0.0073502674,0.040397767,0.041654233,0.018590502,0.016848493,0.0018825326,0.04920315,0.03813848,0.024514738,0.06665286,0.030259484,0.027834015,0.0008024968,0.05059194,0.045749247,0.05944185,0.018825777,0.044821236,0.053666253,0.058268774,0.026877543,0.033795323,0.054986004,0.05291279,-0.009670487,0.024012744,0.044869978,0.03281624,0.051800776,0.00900181,0.0055005345,0.031517547,0.009165169,0.030414285,0.012744231,-0.0021264951,-0.002664779,0.07559578,0.06863058,0.012792813,0.040717054,0.03997024,0.03315553,0.013276568,0.034259867,0.06521722,0.05615243,0.054683246,0.024843466,0.028133348,0.055956915,0.040168907,0.008781645,0.043913797,0.030772494,0.03256584,0.007856134,0.038690325,0.009713198,0.042903498,0.031774215,0.012618445,0.0030134744,0.03318489,0.036988225,0.022933936,0.048037983,0.03031652,0.040300835,0.052208353,0.055199243,0.042218424,0.016434258,0.020231402,0.029870428,0.04152297,0.041008968,0.0055747167,0.044429846,0.03163006,-0.0035739427,0.06092156,0.06206869,0.059825484,0.043176085,0.03621928,0.047298588,-0.02743134,0.046268843,0.015246719,0.057878427,0.009029094,0.0175151,0.05676296,-0.0064598094,0.03528169,0.057042427,0.011695844,-0.0013665082,0.033169053,0.06506159,0.03266624,0.045391865,0.047903568,0.058004387,0.0541214,0.022517236,0.0005588765,0.05655082,0.036334477,0.06130806,0.05628285,0.04439189,0.04679988,-0.05235694,-0.04278298,-0.049325507,0.014782659,-0.033795286,-0.03301849,0.0028018462,-0.058602422,-0.052930586,0.028395798,0.012814919,-0.04265468,-0.008613958,0.004314642,-0.035935808,-0.026962059,-0.03544084,-0.0012670513,-0.024845269,-0.008518308,-0.05582649,-0.03686116,0.014808542,-0.030145949,-0.029452285,-0.02964482,-0.011160485,-0.03580555,-0.04832636,-0.059314363,-0.011078112,-0.05783543,-0.045468424,-0.030187238,-0.03694105,-0.059734687,-0.053009003,-0.04394668,0.02699652,0.032772955,-0.046538,-0.030029792,-0.049023464,0.014980943,-0.01914668,-0.05003403,0.023707766,-0.038884938,-0.042464554,0.020909397,0.013057181,-0.05575968,-0.03904177,0.011220569,-0.070039846,-0.044050656,-0.040514514,-0.02248135,-0.030255351,-0.049243793,-0.04193569,-0.06338702,-0.054553147,-0.07797501,-0.055468895,-0.046797704,-0.034054004,-0.059088316,-0.046346653,-0.050185166,-0.033656687,-0.03704317,0.02590525,-0.048151128,-0.044611733,-0.021033376,-0.03243888,-0.04591549,-0.0416223,-0.04833462,-0.038265795,-0.053666,-0.048310354,-0.059603285,-0.036454756,-0.05200206,0.0053856303,-0.023438476,-0.046109576,-0.03877313,-0.04240669,0.014899982,-0.03919408,-0.025985362,-0.011118101,-0.053990576,-0.0369535,-0.05308943,-0.042388335,-0.059961107,-0.05147589,0.0051824735,-0.029727254,0.03116966,-0.033317097,-0.01761387,0.010304854,-0.04915521,0.0059836097,-0.04777084,-0.051697373,-0.006412382,0.024133854,-0.049114395,-0.037512016,-0.04194196,-0.036683653,-0.04937527,-0.06579284,-0.06734356,-0.0062034857,-0.03157617,-0.027641397,-0.028133277,-0.05446379,-0.05263097,-0.045659557,-0.044718456,0.014174032,0.0025809351,0.025732806,0.030896114,0.032101177,0.020093951,0.017292129,0.03497697,0.020129085,0.035993118,0.005373346,0.02105934,-0.004200106,-0.0055552283,-0.010364388,-0.023549292,0.030817153,0.019258318,0.015650049,0.011187796,0.02665065,0.0039722384,0.02338043,0.018199878,0.0068990146,0.010155511,-0.010831074,0.02851649,0.020108432,0.037047148,0.006851542,0.021164572,0.025867134,0.036684662,0.018489419,0.014866429,0.029113967,0.02617785,0.025298165,-0.005364532,0.017369544,0.006580531,0.022816626,0.017648656,0.018410498,0.024790382,0.018803867,0.0067734695,0.0071923975,0.033680063,0.0125811165,0.006231976,0.03468855,0.00740907,0.020870198,0.0185107,0.03136099,0.009438269,0.022723058,0.031951286,0.026898699,0.020294879,0.017244846,0.013512409,0.01839631,0.026627105,-0.00046763697,0.02578702,-2.8176813e-05,0.003648728,-0.016719509,0.017550955,0.029686313,0.00874867,0.0037781408,-0.0057834783,-0.018314568,-0.0059927027,-0.00088112196,0.02172638,0.023173075,0.038916785,0.032540247,0.034110624,0.0053093038,0.032009456,0.011337412,-0.00016375142,0.031308375,0.009814741,-0.008899936,0.0020079433,0.026206864,0.0040497067,0.015863528,0.03102658,0.026765123,0.014372689,0.017004961,0.01671481,0.01715443,-0.0010594358,0.01522414,0.032413848,0.02328547,-0.0061163916,0.012330211,0.02180541,0.021092512,0.012406424,0.03784331,0.013226605,0.036518034,0.025522538,0.036834966,0.030303901,0.012242726,0.008825185,0.016618013,0.01664686,-0.007104485,0.002499798,0.013589964,0.00010879662,0.038488634,0.036579456,0.022204995,0.006693504,0.03072794,0.01774972,0.02264226,0.0055014896,0.032646574,0.020563072,-0.0023002373,0.030416878,0.0246606,0.01928198,0.0016177779,0.046280455,0.023287147,0.011203174,0.00018683854,0.015056752,0.020913523,0.012427198,0.03204119,-0.0017546604,0.012976614,0.025014821,0.03281685,0.031730685,0.020729374,0.017917786,0.008706648,0.02892237,0.043887753,0.034223374,0.007641934,0.044387184,0.0501274,0.041375604,0.045325287,0.036871236,0.037660755,0.02582562,0.021698216,0.02227419,0.015827937,0.011499591,0.024417404,0.00683553,0.017980147,0.04100085,0.023788363,0.026343754,0.026812006,0.037175972,0.010200373,0.04615047,0.03885328,0.00978852,0.033439018,0.029848268,0.026647104,0.016241519,0.015571681,0.017049475,0.035026748,0.040738106,0.017954817,0.05595486,0.029731682,0.03364312,0.0049723564,0.021828942,0.015814617,0.039137516,-0.006294928,0.035562865,0.02148486,0.043690786,0.030411579,0.00520281,0.0070949323,-0.0014395728,0.021779843,0.033259585,0.04116098,0.038952257,0.026721012,0.045941923,0.039129477,0.03496587,0.008297457,0.02010198,0.043821782,0.018480577,0.012352831,0.010225782,0.035913803,0.017509243,0.0051133293,0.013748789,0.026822645,0.028354654,0.022168713,0.023828015,0.041899875,0.020444836,0.020301163,0.017028458,0.04164071,0.0133503275,0.01641451,0.037091665,0.0016113253,0.031241996,0.039973963,0.021406604,0.014483092,0.03283839,0.0057584466,0.030217836,0.015541122,0.0100280065,0.058788132,0.04971786,0.0014631283,0.01224162,0.02228736,0.03570721,0.037330665,0.029950837,0.045742434,0.03380251,-0.05199415,-0.03174724,-0.06584246,0.011379218,-0.06338142,-0.043019533,-0.011183473,-0.079828136,-0.042767078,0.018860394,0.00080444076,-0.0560954,-0.02817457,0.026535321,-0.035839953,-0.024866091,-0.050967336,-0.01531611,0.0036349643,-0.008966765,-0.05389092,-0.058162376,0.023645235,-0.0509509,-0.030458182,-0.019279119,-0.017450409,-0.058955748,-0.046832353,-0.077203535,-0.01065779,-0.064799726,-0.05418861,-0.0651432,-0.0543343,-0.04915814,-0.06464806,-0.04423522,0.013776306,0.025953189,-0.046865646,-0.013825596,-0.065336674,-0.00454658,-0.036937386,-0.05690669,0.0023310548,-0.022328762,-0.015683841,0.038669355,0.013507659,-0.092565805,-0.05995582,-0.010961865,-0.04685081,-0.06402365,-0.0565319,-0.021050408,-0.04362805,-0.07086707,-0.06579374,-0.056226738,-0.054011825,-0.062285405,-0.029990064,-0.052529477,-0.026915198,-0.05987624,-0.024215475,-0.022366747,-0.043388978,-0.03715702,0.013815508,-0.0293441,-0.052347057,-0.024398442,-0.025897574,-0.023328675,-0.056814454,-0.044960406,-0.058352035,-0.036419988,-0.056168776,-0.052800987,-0.044692136,-0.045394942,-0.011523353,-0.027402462,-0.056009118,-0.040890984,-0.028883101,0.010716926,-0.05930725,-0.049417883,-0.009211973,-0.03989337,-0.0776368,-0.064275526,-0.061016154,-0.057567373,-0.048133045,0.0032172129,-0.0421827,0.020979011,-0.072037525,-0.014950521,0.013112698,-0.062328495,-0.0150646595,-0.046096936,-0.07436486,0.011923694,0.028846249,-0.06117615,-0.05247166,-0.04376862,-0.031066475,-0.05400987,-0.064079404,-0.05250671,0.007972815,-0.03187337,-0.068002336,-0.058362905,-0.025887022,-0.063598976,-0.057602048,-0.046534825,0.008969976,0.0065418566,0.0396666,0.028708406,0.03182864,-0.0015504939,0.014436205,0.023957787,0.006853389,0.03513304,0.0029524004,0.04100813,0.00225407,0.015866237,-0.0009327976,-0.013484643,0.021601528,0.030159466,0.0041352715,0.008157803,0.023121228,0.014075484,0.026204916,0.029103495,0.0018540159,-0.00077749894,0.000773049,0.036638703,0.024322134,0.02131532,-0.015102948,0.019891633,0.0026717253,0.02677723,0.0108058425,0.03467659,0.020863837,0.012457026,0.040896233,0.007508794,0.024819825,0.0076171686,0.023188835,0.019388186,-0.0028444505,0.015674414,0.0074061495,-0.0028761649,0.0036273496,0.030605838,0.018818557,0.042299103,0.01677544,0.021982202,0.023021663,0.023317313,0.011726862,0.019863104,0.019032298,0.015043272,0.03467413,0.01760708,0.007555074,0.038201362,0.028108932,0.031183755,0.012309593,0.019623673,0.003144461,-0.0019051011,-0.015554611,0.029844135,0.019563826,0.02829984,0.029891312,0.0021015909,-0.0043594055,-0.010772292,0.0114796115,0.038471878,0.01417371,0.0025991877,0.024205608,-0.0004705591,0.01885122,0.015423163,0.015878676,-0.0025883755,0.018071763,0.00661044,-0.013469249,0.00043700472,0.008984425,0.018021258,0.006484422,0.013165142,0.03141891,-0.009892462,0.025970891,0.022944711,0.023280839,0.007097907,0.020293526,0.04385801,0.027480528,-0.0036426594,0.022242082,0.028008627,0.014251749,0.028899863,0.020335114,0.013444642,0.021875001,0.009438429,0.01981973,0.031066125,0.009439378,-0.0057070334,0.019212088,0.014878427,0.0028958037,-0.033647593,0.015530502,0.029908258,0.03508629,0.011466865,0.025559383,-0.005711219,0.020397,0.027472131,0.016225766,0.01606972,0.047806077,0.032152414,0.008499869,0.047414057,0.012886814,0.013167682,0.00879894,0.050769717,0.012934654,0.02148634,0.022146357,0.021544889,0.041014392,0.0020113303,0.0131438775,0.0019349575,0.062615715,0.043605022,0.010701134,0.03584523,0.027087742,0.032126796,0.018103752,0.030016527,0.038993884,0.050732035,0.013110277,0.0304837,0.037776034,0.04548222,0.04277045,0.03999233,0.031245554,0.038192373,0.020790217,0.03461021,0.04581366,0.0063642976,0.045953333,0.011854288,-0.003179912,0.045183323,0.01612379,0.024268191,0.01376802,0.017472167,0.009321946,0.04173118,0.024046848,0.012418052,0.044428915,0.04557355,0.037887648,0.03336976,0.049578074,0.04931478,0.045623098,0.03365784,0.03941923,0.052958675,0.01452224,0.06867931,0.007365042,0.0495644,0.024122288,0.027407147,0.006463704,0.04286361,0.01192149,0.04240003,0.04162231,0.0046533695,0.021061974,0.010899541,0.029747764,0.03812808,0.052329715,0.023530874,0.035096437,0.033772472,0.038074672,0.052864984,-0.010377451,0.010312826,0.04370566,0.02919583,0.020968491,-0.012647035,0.06108507,0.022705885,0.0041913996,0.03396417,0.05643037,0.0337067,0.03383357,0.025837451,0.047517184,0.00016287409,0.05076806,0.02244614,0.035864636,0.008568154,0.014519259,0.03711291,0.006632861,0.05247748,0.032435775,0.0014503519,0.039522436,0.009399352,0.04221006,0.021006573,0.028397774,0.05594732,0.015333972,0.039242968,0.015432683,0.017684923,0.031225452,0.0445539,0.026453495,0.044149097,0.048249416,0.040818654,0.016780099,0.00046281493,0.020326402,0.019151017,0.013177409,0.007307498,0.003177295,0.012947216,0.0096930815,0.031081848,0.012635154,0.016728163,-0.0011571357,0.009664213,-0.028572515,0.008766294,0.018844768,0.0016583563,-0.016284533,0.007307204,0.016214764,0.0016888243,0.019540284,0.012365807,-0.0024341187,0.0060006245,0.0060728407,0.028785601,0.017448882,0.03269804,-0.0013553135,0.010111456,0.027699756,0.030278634,0.020642892,0.023283627,0.020270698,0.009808182,0.009692736,0.04248702,-0.005875148,0.009163703,0.021908632,-0.0036416464,-0.00017984517,0.0025364452,0.033058576,-0.014202042,-0.011190003,0.04643219,0.031069,0.04451107,0.017471906,0.009292587,-0.0014733857,0.02510197,0.03166603,-0.007967779,0.040295523,0.014527206,0.031092318,0.014188078,0.0204544,0.019501248,0.01765314,0.017267236,0.014152391,0.021542927,0.0057724845,0.0054844045,-0.018781263,0.018824542,0.01784232,0.016929358,0.031224245,-0.019917037,-0.01423164,-0.0110353725,-0.013003945,0.029840715,0.020801244,0.015267917,0.0135257775,0.015478469,0.03301712,0.009113763,-0.004601869,0.0051180758,0.018357519,0.000594017,0.0030286447,-0.0008085974,0.021724084,-0.0033667902,0.00902047,0.011954103,0.017472597,0.014697616,0.022736987,-0.003528647,0.02821176,0.0023634725,0.007654806,0.017562011,0.040236223,0.003948799,0.0064218272,0.024568234,0.01771889,0.016508874,0.010130127,0.011253633,0.018125469,-0.012595736,0.02908503,0.008588358,-0.012076532,0.008693275,0.038396683,0.023241246,0.022902425,0.0004841401,0.025922218,0.006416405,0.013795276,0.025577957,0.014283372,0.027114304,0.025871083,-0.016367208,0.021513224,0.017854394,0.01617078,0.034659553,-0.0010371124,0.0127349375,0.03103569,0.012586969,0.017977338,0.019107917,-0.01333241,-0.0045080124,-0.0017955229,-0.013077173,0.030163191,0.0136472965,-0.009987962,0.012968667,0.023942491,0.015617379,0.025295228,0.011613647,0.010356438,0.0038780745,-0.016987665,0.01631258,0.011696815,0.028813299,0.003840019,0.021933582,0.02206958,0.021137213,0.020008547,0.015556062,0.051220138,0.016639939,0.027896937,0.029390106,0.017145898,-0.00043386564,0.033157393,0.012949848,-0.0004929815,0.0137967765,0.023728823,-0.0008199046,0.0012410387,0.0035163625,0.00460615,0.044462398,0.021597896,0.010851855,0.027649356,0.024642188,0.015798809,-0.010041541,0.040046304,0.037366692,0.027702803,0.023362646,0.018553019,0.022129374,0.024070827,0.031236814,-0.012823644,0.025307795,-1.5865024e-05,0.009569658,-0.011088424,0.029482093,0.014405128,0.020707209,0.02081442,-0.008281388,-0.005794766,0.0054326477,0.0022941653,0.0096035125,0.032138813,0.010025503,0.021912709,0.0070269764,0.02712088,0.02182865,-0.008005368,0.0030933113,0.017003335,0.010655111,0.016961604,0.02930843,0.019057957,0.011632994,0.022107149,0.009411084,0.04067494,0.009833911,0.026720665,0.021815589,0.020794127,0.030760637,0.028761894,0.028001249,0.01060263,-0.026474485,0.0077802613,0.03943652,0.00845077,0.008221741,0.028999437,0.0054021757,0.03406954,0.0017467862,0.023189813,0.0046035247,0.010969595,0.023279252,0.028248671,0.028552998,0.0070041297,0.0025075807,0.025158972,0.013490351,0.022666043,0.029699812,0.021953091,0.012676098,-0.03302629,-0.041442394,-0.04590076,0.013118141,-0.048785616,-0.04632316,-0.011517188,-0.07380461,-0.028950585,0.02556631,-0.0042472826,-0.073648326,-0.01966673,0.009650234,-0.019922616,-0.033283953,-0.07683773,0.009089211,-0.014251456,-0.012166251,-0.05223474,-0.052265134,0.0384195,-0.069607526,-0.046421707,-0.019600894,-0.0021465714,-0.049731307,-0.049024206,-0.08163641,-0.018468127,-0.053018883,-0.06207953,-0.06153838,-0.04004525,-0.051252503,-0.06912833,-0.041237827,0.024066998,0.021997383,-0.04826247,-0.030293213,-0.07529903,0.011535187,-0.025994431,-0.041048054,0.022978691,-0.046453197,-0.015082417,0.023936618,0.01667721,-0.078989156,-0.052533254,-0.019018926,-0.04693498,-0.07443588,-0.051955484,-0.029122323,-0.053922668,-0.06508702,-0.06251457,-0.0672935,-0.038522583,-0.053098887,-0.039877005,-0.046446215,-0.024286602,-0.06629469,-0.045390625,-0.042169817,-0.027317313,-0.048445817,0.030330576,-0.03927234,-0.06055711,-0.015280998,-0.02265137,-0.01370564,-0.035218384,-0.050029412,-0.05684054,-0.04598319,-0.037416834,-0.07525271,-0.049170587,-0.051167533,0.008415946,-0.04138022,-0.07221083,-0.044751536,-0.044970658,-0.0006829874,-0.06314289,-0.04497542,-0.01037035,-0.042721376,-0.049259573,-0.046892487,-0.05820441,-0.065366246,-0.07197387,0.026232222,-0.05800148,0.020012913,-0.057077672,-0.008172223,0.0039069536,-0.053460285,0.009253617,-0.04704749,-0.069215104,0.011366724,0.019048251,-0.04379594,-0.06619928,-0.017810723,-0.024596691,-0.043804295,-0.066507086,-0.06682751,-0.010558569,-0.01797497,-0.054143,-0.047804076,-0.06517599,-0.05952772,-0.053039454,-0.03734782,0.03756316,0.022930048,0.034808006,-0.0019013765,0.056714036,0.043700714,0.024246672,0.0646104,0.03893455,-0.010598802,0.008095663,0.05573772,0.025753168,0.01763794,0.015879566,0.007409419,0.029492995,0.007386801,0.0024306246,0.006819352,0.04759865,0.04438959,0.031052202,0.025208037,0.032949504,0.017350089,0.004198382,0.054038677,0.052504897,0.043298535,0.011853458,0.05573065,0.025445752,0.033171594,0.031373262,0.037899736,0.047244083,0.06002956,-0.0056367447,0.006657464,0.042802714,0.027509654,0.028868739,0.007086017,0.013490451,0.040185664,0.018230414,0.025448592,0.018154733,0.03410497,0.034762114,0.05099684,0.042147588,0.008978731,0.045964155,0.047179278,0.04260067,0.017187312,0.04333546,0.042444948,0.036097936,0.05148323,0.026317492,0.0490205,0.04054783,0.0353204,0.027834065,0.030851033,0.017146427,0.040513664,0.027625918,0.033324298,0.0026091211,0.021071108,0.028232973,0.02035317,0.010907848,0.037480485,0.030411335,0.04014925,0.042219777,0.025395062,0.048217177,0.040454313,0.031682562,0.026633332,0.0032593373,0.015240353,0.016991075,0.026379373,0.03306926,0.0038496691,0.038726408,0.028403822,-0.002293166,0.050749056,0.046468124,0.046240352,0.043633536,0.04400361,0.054758374,-0.010278718,0.03601509,0.017993968,0.054931384,-0.0029360685,0.017787773,0.047152027,-0.0013156596,0.042998586,0.03666678,0.022099704,0.006714377,0.039654132,0.039722025,0.040955424,0.026172813,0.040058985,0.069971144,0.045135785,0.008538441,-0.0076173516,0.047518533,0.036726415,0.037783053,0.031047309,0.036286112,0.038750123,-0.053393036,-0.037590746,-0.051174466,0.019297332,-0.060110066,-0.053093627,-0.01516367,-0.08079576,-0.056175184,0.03489586,0.007562387,-0.050913632,-0.004843834,0.018416774,-0.01628227,-0.024312021,-0.053796064,-5.445184e-05,-0.0038562664,-0.013645655,-0.072556436,-0.05038298,0.018111318,-0.050806392,-0.031142253,-0.038505837,-0.0005811842,-0.059328444,-0.05458617,-0.08321756,-0.022217771,-0.096900314,-0.049281687,-0.07342963,-0.06469197,-0.07967974,-0.07369464,-0.05079062,0.019830499,0.023344563,-0.042155553,-0.023534402,-0.06383439,0.002523833,-0.025235109,-0.069127,-0.0024291715,-0.026348636,-0.029558511,0.02848039,-2.1491347e-05,-0.08895972,-0.07776741,-0.0026153016,-0.048135046,-0.053968806,-0.06760424,-0.016213102,-0.07186846,-0.073947586,-0.06001312,-0.04670974,-0.037249286,-0.061547197,-0.06348017,-0.06809894,-0.019517787,-0.070840836,-0.016287636,-0.027258549,-0.035385434,-0.07538333,0.02898285,-0.041494764,-0.04171075,-0.03400245,-0.014419383,-0.014246148,-0.049270485,-0.06047065,-0.055422723,-0.070009276,-0.057429977,-0.03811638,-0.06039684,-0.05609143,-0.0063738097,-0.016036853,-0.052687142,-0.040052332,-0.036887318,0.0029778618,-0.06910424,-0.036391705,-0.004428051,-0.048209306,-0.08088986,-0.060223248,-0.051329847,-0.06377951,-0.075514905,-0.012013161,-0.044215288,0.035410445,-0.07239283,-0.020767825,0.021157792,-0.049882744,-0.009725034,-0.055181775,-0.056192655,0.021611951,0.048745953,-0.04190606,-0.072747424,-0.053879514,-0.033528764,-0.053075247,-0.06873219,-0.053081635,0.0023805043,-0.026350055,-0.053094566,-0.048154548,-0.04901915,-0.062185347,-0.07674647,-0.03170138,0.01658316,0.024445618,0.03615613,0.013530319,0.04074272,0.02594939,0.017590888,0.047700424,0.0307383,0.02136075,0.023182817,0.03931366,-0.0024484887,0.021153461,0.011566497,0.017166376,0.052707143,0.006706874,0.0077951527,0.040455922,0.031960078,0.025150921,0.018662747,0.024522638,0.024055777,0.018772947,0.024337212,0.042723864,0.03649274,0.05890343,-0.00555827,0.050119527,0.043477867,0.046447854,0.029633883,0.05459191,0.050512224,0.04207758,-0.0030102206,0.018036414,0.04155354,0.017751815,0.044442415,-0.0033060063,0.0011834697,0.03488037,0.022975734,-0.0020783686,0.011755095,0.014804246,0.0011939439,0.042616233,0.022958558,0.01058782,0.05872072,0.048677072,0.036479063,0.010454728,0.0152155,0.043625407,0.041551467,0.042366546,0.035925735,0.03188089,0.029399458,0.04832406,0.018226232,0.0558291,0.03149725,-0.0022095398,0.0108641,0.024115464,0.015871646,0.043980632,0.02300787,0.0054519884,0.015250678,0.01084968,0.022987587,0.02088222,0.04127842,0.0185654,0.033856843,0.010920134,0.042089187,0.030762475,0.0064446987,0.028286066,0.03716319,0.024028294,0.028701147,0.0061083245,0.018234754,0.036965646,-0.0010561767,0.02402757,0.019992819,0.026609577,0.029472282,0.036052324,0.056379244,0.0016464576,0.04466851,0.036870454,0.036819663,0.008949484,0.0057153855,0.046157017,0.0045655402,0.034318186,0.04468639,-0.00022969874,0.0035625391,0.025165122,0.038046,0.037601423,0.021166792,0.033511534,0.035943657,0.03847265,0.014097344,-0.0038498829,0.037761953,0.041481227,0.020986822,0.048303455,0.022604227,0.018230045,-0.0023890361,-0.02479072,0.0062146396,0.010373394,0.009581084,0.008794862,-0.0046440093,0.03295873,-0.0015856848,0.035588887,-0.010686414,0.018211579,-0.0089894,0.021005822,-0.030793365,0.001778971,0.014456254,0.004789012,-0.02159431,0.0009912875,0.025388774,-0.0071129347,0.043346938,-0.0043974165,-0.015585463,-0.00834561,0.005835694,0.015335859,-0.0040451274,0.0053696,-0.023085434,0.02787037,0.017320562,0.011272441,0.022220703,0.013484464,0.02352265,0.009458058,0.041117314,0.009729207,0.010069492,0.010040125,0.01584855,0.025650414,-0.026203364,-0.0052048056,0.03306852,-0.011000449,-0.0009200506,0.032328617,0.02168365,0.027664095,0.009191233,-0.0037210812,0.00058146846,0.00069114496,-0.0054937867,-0.01960094,0.017997377,0.013917867,0.026378902,0.007017548,0.003399261,0.018039353,-0.004941393,0.015066573,-0.017816791,0.0028214692,-0.01896599,0.0013488797,-0.015028957,0.027692474,0.03304966,-0.010313283,-0.00458978,-0.026232576,-0.0066876765,-0.030597173,0.016465763,0.0274487,-0.0027378537,-0.0079666395,-0.008453323,0.026113912,-0.0043487186,-0.0074052643,0.02279189,-0.023139259,0.029330377,0.0006253596,-0.0032635846,0.006160907,0.0018922698,0.004672934,-0.015150133,-8.047342e-05,0.014825073,0.011476284,0.004270531,0.0095403185,0.0064819106,0.014546159,0.014207442,0.022427944,0.020439245,0.00789868,0.03132016,0.01257333,0.011696778,0.012353341,0.015856123,0.019749613,0.048641995,0.00023169829,0.02547139,-0.012682202,0.0048749675,0.0052050147,0.024541536,0.006290548,0.035760086,-0.0039207414,0.0062425565,0.02422787,0.0011207428,-0.0026575008,0.015081794,0.0017358252,-0.04636251,-0.028306935,-0.041439317,0.0031953047,-0.06991016,-0.0334759,-0.015430875,-0.06754404,-0.029760366,0.03557795,-0.008130779,-0.047612086,-0.023575751,0.014785001,-0.025899993,-0.012061296,-0.04967245,0.012213161,-0.020182239,-0.0042620595,-0.03714559,-0.03369439,0.0075553213,-0.07112339,-0.019171637,-0.02935941,-0.009811994,-0.04208557,-0.055849448,-0.037542522,-0.024786295,-0.06723703,-0.05632388,-0.044615187,-0.05333552,-0.051725477,-0.058954306,-0.05539671,0.019500973,0.026581,-0.053379104,-0.031004487,-0.056265008,0.0068553854,-0.03506123,-0.04381092,0.003249146,-0.021385776,-0.03126855,-0.0035809644,0.01820793,-0.05645872,-0.05914717,0.0014889978,-0.06112022,-0.066603884,-0.054846898,-0.030494109,-0.054715946,-0.06373304,-0.053121727,-0.048137806,-0.03541567,-0.061067373,-0.027391674,-0.06524255,-0.046558335,-0.055005293,-0.0329341,-0.04612126,-0.025728965,-0.036206786,0.0011926163,-0.035367172,-0.03703383,-0.026105754,-0.035537757,-0.016845163,-0.06197374,-0.046030354,-0.047540285,-0.05565401,-0.038814582,-0.038129445,-0.05622764,-0.042417224,0.01023264,-0.016013319,-0.041775107,-0.049552754,-0.035086162,0.009232876,-0.043357886,-0.026313456,-0.0051214234,-0.03652439,-0.068675846,-0.04121925,-0.04179156,-0.044734806,-0.079745725,-0.006119656,-0.050377194,0.027377684,-0.04886495,0.012359339,0.020349907,-0.07294707,-0.00044492673,-0.043045662,-0.035754025,0.007044783,0.010455798,-0.016854947,-0.047579948,-0.041514486,-0.050800197,-0.035693947,-0.056052674,-0.057249673,-0.007616814,-0.02383575,-0.04611029,-0.04108467,-0.035828717,-0.060052913,-0.043572713,-0.048576448,0.036868833,0.022110514,0.056578528,0.010651377,0.03771307,0.030879086,0.02389265,0.04832389,0.05122637,-0.013359908,0.017342651,0.044482335,0.008478622,-0.00029483513,0.007754962,0.016399236,0.051943097,0.022098167,0.013560842,0.010461439,0.0328267,0.040012266,0.0070585515,0.033715613,0.03009452,0.021630561,-0.0028420263,0.03957145,0.037265006,0.051245842,0.020688381,0.0326619,0.04080301,0.029857527,0.056096468,0.039549325,0.057606287,0.046529092,0.0011280265,0.012516088,0.035761528,0.011210593,0.049267914,0.0023266706,0.026666516,0.03347747,0.021249842,0.029874068,0.011784015,0.021650882,-0.005842838,0.04060168,0.03618427,-0.002013626,0.030517997,0.03594179,0.048520945,0.026024617,0.0503166,0.02232758,0.044995297,0.045415618,0.048010517,0.03810533,0.04099816,0.060829833,0.010082943,0.048993777,0.032503698,0.046883393,0.008071534,0.04053892,0.008006136,0.036880348,0.046276737,0.010535145,0.00978054,0.021506287,0.022987144,0.052451044,0.039194368,0.027278386,0.03247792,0.018654179,0.01754433,0.039202634,0.014414073,0.019034803,0.0466129,0.034254465,0.01750904,0.010865933,0.043894608,0.038711578,0.0029860178,0.029930733,0.051968846,0.045267094,0.048094552,0.031414334,0.04178651,0.007262679,0.045464918,0.018265843,0.042253148,0.025015805,0.018403256,0.050672647,0.018284086,0.03228752,0.033053722,0.020567702,0.00986881,0.019672502,0.03829679,0.017532047,0.033730872,0.037434343,0.04783633,0.03494809,0.014742114,0.0048875185,0.047218718,0.017314654,0.051031645,0.027243016,0.045100965,0.036909748,0.041530445,0.030039052,0.036613524,0.02390317,0.038936034,0.026743807,0.008549704,0.055975042,0.023240482,0.011625964,0.014624332,0.038303055,0.020053325,-0.0007991781,0.026738534,0.013252887,0.047453947,0.009929018,-0.011436013,-0.0051491205,0.036147337,0.043366328,0.03397717,0.035200637,0.019887513,0.027225396,0.01684462,0.03548071,0.028291145,0.055404227,0.017223183,0.03899113,0.044127863,0.055419352,0.021451741,0.04115334,0.064595684,0.037514195,0.025863519,0.014624463,0.043874834,0.018512353,0.0445511,0.009674253,0.012164785,0.054299634,0.003458472,0.010264697,0.033084847,0.027301276,0.015079703,0.06336207,0.048701975,0.0062056296,0.020565849,0.02406409,0.047031004,0.033402033,0.026597671,0.031243125,0.0389865,0.04511996,0.02884429,0.044961393,0.034656458,0.04828115,0.013844038,0.041505396,0.038738366,0.04627488,0.0155266,0.0342957,-0.001322305,0.03763511,0.042500246,-0.0010015967,0.012015941,0.007629886,0.03790927,0.056160998,0.024994915,0.039020877,0.039822668,0.012170725,0.042758234,0.021788599,0.024756901,0.019834774,0.039431136,0.0511332,0.028843775,0.023550184,0.04567686,0.035986822,0.020554017,0.024469357,0.04789701,0.013863349,0.028948339,0.041744217,0.040154282,0.0132123735,0.028778592,0.036091518,0.034053385,-0.009155061,0.020400288,0.026167301,0.010153727,0.03982838,0.028025184,0.016554995,0.028499741,0.036826264,0.06084976,0.017105516,0.021686286,0.039831355,0.041460693,0.042586878,-0.00396575,0.005905557,0.03030793,0.019016502,0.043105893,0.04113098,0.04324239,0.026927251,-0.05422361,-0.027318858,-0.054072663,0.030806147,-0.056049492,-0.030540582,-0.017013341,-0.054190863,-0.044247553,0.013354302,0.002495303,-0.06417593,-0.015029961,0.012557354,-0.036004376,-0.037256956,-0.049844585,-0.004133098,-0.03635055,-0.0149239795,-0.05498427,-0.043793116,0.029314691,-0.05029771,-0.0426688,-0.026087513,-0.0074585513,-0.06344004,-0.03677625,-0.053259123,-0.02803859,-0.054133963,-0.03764583,-0.04558883,-0.029354194,-0.05421537,-0.0412718,-0.05936757,0.0386719,0.031067058,-0.022350874,-0.022432016,-0.045556616,0.006235134,-0.028527185,-0.03294611,0.008631853,-0.030928593,-0.029892497,0.021747563,-0.009125863,-0.050767355,-0.051737837,0.0042283726,-0.039487876,-0.04869599,-0.055030074,-0.022513451,-0.04565217,-0.044163402,-0.044202555,-0.058615897,-0.04092402,-0.036575045,-0.05058782,-0.05059969,-0.033737943,-0.049233835,-0.037526816,-0.041262962,-0.038251508,-0.04044487,0.005546753,-0.02275775,-0.03504984,-0.019169498,-0.022949545,-0.019552521,-0.044110067,-0.04526811,-0.031828705,-0.04100396,-0.031653833,-0.04864143,-0.039895076,-0.049732644,0.005307902,-0.044369657,-0.05086005,-0.048173606,-0.033657443,0.01573697,-0.027665392,-0.04663134,0.0004143671,-0.046781078,-0.050378986,-0.050979357,-0.029046392,-0.042272676,-0.05843177,0.0016443414,-0.034718186,0.0033386203,-0.058120046,-0.0058493284,0.016625965,-0.05584764,-0.01033192,-0.041076485,-0.037847888,0.014081325,0.025387863,-0.054611415,-0.06865916,-0.045160793,-0.031343,-0.046520717,-0.0494521,-0.037113246,-0.0042183856,-0.017364744,-0.042579565,-0.030609531,-0.052405052,-0.042115845,-0.030822054,-0.04145619,0.055937342,0.03368013,0.031489536,0.01961928,0.040100537,0.040908728,-0.003549829,0.060391918,0.046906285,0.017994866,0.0018876427,0.054072876,0.01738969,0.018182652,0.008514974,0.018303389,0.030601714,0.017612655,0.0056842854,0.008451951,0.045227654,0.044377875,0.015581291,0.032291446,0.01177602,0.013498014,-0.0047667655,0.03646945,0.05533715,0.056193434,0.009926525,0.06191871,0.03954153,0.049554992,0.036310446,0.041010745,0.044622052,0.04331446,0.009579835,0.0054318462,0.037393343,0.016569315,0.028015828,0.0017327281,0.016124293,0.047415145,0.0035157083,0.024724327,0.0053685517,0.00037504596,-0.009759575,0.06491323,0.043064114,-0.00094411906,0.038755525,0.03323022,0.030060437,0.00915791,0.048231278,0.033329293,0.044925395,0.05672426,0.03387132,0.037645966,0.039911173,0.05070345,0.029278243,0.037824888,0.029448077,0.036916472,0.018584227,0.03699495,0.00587652,0.03229069,0.026304197,0.014883702,0.018877055,0.037592985,0.04273231,0.055507742,0.035737224,0.030450787,0.037668552,0.04159675,0.01899622,0.038994554,0.007051196,0.01839702,0.032339677,0.018276181,0.03807,0.010933974,0.023347871,0.042848274,0.002457532,0.038937144,0.05461182,0.030780569,0.03625057,0.017265286,0.048809387,0.0068572774,0.04056121,0.014104262,0.059557337,-0.014738409,-0.003841977,0.045634642,0.016919067,0.030789813,0.02694222,0.0073852106,0.01908893,0.03598673,0.028557695,0.017908717,0.039262835,0.028939424,0.052279,0.035359394,0.013336661,0.004445799,0.02477428,0.026573729,0.039125785,0.0522039,0.04225164,0.03830676,-0.046349864,-0.05049182,-0.05129493,0.00407988,-0.056139957,-0.028753668,-0.0010331954,-0.055818796,-0.048292056,0.022416169,-0.00026885842,-0.071643166,-0.014981265,0.02270108,-0.03532683,-0.0058491225,-0.042193122,-0.007375673,-0.014163996,-0.010978066,-0.060877938,-0.060725074,0.03742205,-0.045905385,-0.038636714,-0.018918691,-0.009252753,-0.06328605,-0.05602814,-0.0731354,-0.011478516,-0.050466698,-0.055705592,-0.07171912,-0.050869938,-0.0553122,-0.056162316,-0.057571664,0.025699837,0.019881956,-0.047128916,-0.021165378,-0.05918636,-0.01728871,-0.016675293,-0.040188793,0.0013517408,-0.036089767,-0.038166378,0.028941387,0.021183651,-0.08361003,-0.07011375,-0.016296893,-0.06461871,-0.04225923,-0.04527853,-0.025221374,-0.046458457,-0.03414551,-0.05867935,-0.04891604,-0.039892152,-0.07131921,-0.045949478,-0.053121306,-0.023214381,-0.066331565,-0.03406092,-0.020369347,-0.027440071,-0.07154825,0.024137711,-0.037068475,-0.051512185,-0.027081752,-0.021690197,-0.022402892,-0.04269981,-0.052143916,-0.060287163,-0.032639995,-0.06809209,-0.06695952,-0.06900386,-0.061312575,-0.01705121,-0.049161,-0.061800994,-0.03650256,-0.03996886,0.01138145,-0.057624258,-0.048962165,0.008025043,-0.05885259,-0.051883604,-0.048633356,-0.05497569,-0.07157298,-0.07068328,0.001145055,-0.046621695,0.024944993,-0.07009283,-0.017688334,0.013795862,-0.07167305,-0.011596631,-0.06023344,-0.041721612,0.015913965,0.021901608,-0.03763511,-0.044880234,-0.04574236,-0.04762894,-0.04596594,-0.07110404,-0.057956222,0.01682907,-0.04205294,-0.045076273,-0.05226728,-0.06704185,-0.054465443,-0.063160755,-0.034308046,0.03643565,0.02122946,0.06471659,0.012964129,0.04094516,0.028170463,-0.0011245605,0.033737924,0.028149173,0.018151067,0.013373037,0.024173478,0.0126361,0.01645781,0.0039775893,0.016031304,0.04399561,0.0068691964,0.014944144,0.008966935,0.048538234,0.047950894,0.024646794,0.03223137,0.008248407,0.021388337,0.016128255,0.04028395,0.046165816,0.055737775,0.023555283,0.022307059,0.03761468,0.04399771,0.040678345,0.048509877,0.05106267,0.03744125,-0.007373832,0.014708626,0.026654791,0.020581743,0.036093306,0.0005239948,0.0018331382,0.03954512,0.015610573,0.039431006,0.026903067,0.018995471,0.019682338,0.061759196,0.043489978,-0.0043511507,0.04131857,0.027341792,0.0601796,0.025667707,0.037800033,0.03875061,0.042569123,0.043952633,0.030232836,0.034737047,0.031641398,0.044944447,0.01824808,0.01453422,0.036138892,0.045676827,0.016467815,0.05298311,0.012253045,0.024067067,0.03948076,0.008894777,-0.0020912122,0.030485451,0.021638239,0.02422024,0.0474774,0.030219227,0.033573657,0.038598154,0.04571474,0.0338593,-0.013322633,0.042704858,0.055387076,0.043369923,0.036309805,0.0074576302,0.038274247,0.027879443,0.007861704,0.03851867,0.04683386,0.022882678,0.05014605,0.03693789,0.046705406,0.0018665849,0.04190922,0.005080123,0.0377063,0.0062063383,0.01909115,0.039057232,0.021402895,0.02765344,0.039616086,0.0034095445,0.01669949,0.02702219,0.059805088,0.02206439,0.028707698,0.020144505,0.04292376,0.05318259,0.015994042,-0.0011993062,0.025649205,0.039357334,0.051057372,0.04312227,0.037951756,0.036693465,-0.04635841,-0.019968325,-0.052992236,-0.008476773,-0.03127323,-0.06918045,-0.011723147,-0.09042361,-0.037329946,0.037318036,-0.013174807,-0.07076992,-0.01927605,0.019877516,-0.035169847,-0.020378591,-0.05842325,-0.008301631,-0.003556459,-0.032005705,-0.061729655,-0.04958366,0.041089218,-0.06790068,-0.03646102,-0.040425193,-0.0111357765,-0.068893366,-0.07679201,-0.07808614,-0.019709157,-0.059550878,-0.06323866,-0.0639371,-0.066551074,-0.056768056,-0.058685493,-0.07823279,0.020353714,0.027082698,-0.034990598,-0.03617098,-0.051756904,0.016860176,-0.0054067583,-0.050282914,0.008419167,-0.033017423,-0.011687885,0.030960968,0.012802984,-0.074802816,-0.050695535,-0.002376288,-0.055303972,-0.04723993,-0.059778515,-0.0437791,-0.06425247,-0.05848724,-0.07004736,-0.073997416,-0.05310905,-0.06836259,-0.047313172,-0.08010677,-0.035555962,-0.06574085,-0.04018543,-0.035826586,-0.051318005,-0.07184598,0.033499543,-0.038361985,-0.05750113,-0.011377333,-0.023503633,-0.039565016,-0.04221614,-0.036824897,-0.030575374,-0.058510948,-0.05742564,-0.03999221,-0.034584723,-0.041850254,-0.0024935226,-0.026735105,-0.061634485,-0.04647098,-0.035970785,0.020989247,-0.05232861,-0.033459697,0.012049598,-0.05553012,-0.07050222,-0.033045497,-0.034514118,-0.06677814,-0.07048182,0.00838536,-0.0425679,0.044611994,-0.06827326,-0.016232353,0.0076598004,-0.063679844,-0.007319048,-0.06496877,-0.05812808,0.01919906,0.0182407,-0.05371249,-0.0661283,-0.047323484,-0.03625394,-0.04678559,-0.0784542,-0.061633077,0.01969615,-0.02943606,-0.0625522,-0.041635927,-0.044992074,-0.05878419,-0.05590866,-0.046978284,-0.0361087,-0.03478196,-0.05021526,0.016008181,-0.073082514,-0.03212175,-0.006134107,-0.049566682,-0.043398723,0.03282687,0.0058993064,-0.07404081,-0.02117468,-0.0010727064,-0.023873668,-0.017779319,-0.051809702,-0.0053220945,-0.011425501,-0.02066504,-0.059538547,-0.029061435,0.027777769,-0.054669384,-0.03618148,-0.04583927,-0.0054748687,-0.053654734,-0.047097184,-0.060599737,-0.034446605,-0.046047185,-0.06086781,-0.07397185,-0.049053643,-0.06761599,-0.071694694,-0.048048567,0.01993207,0.044781774,-0.058722917,-0.023162784,-0.0542438,-0.002654063,-0.03374879,-0.05390436,0.003105072,-0.036685232,-0.055679765,0.020180438,0.007194972,-0.056606505,-0.051192123,0.005362241,-0.04779475,-0.07133888,-0.06764573,-0.04377285,-0.04843819,-0.074858285,-0.045779373,-0.05265669,-0.024089385,-0.07982529,-0.05243958,-0.061528504,-0.032038294,-0.038225677,-0.031207018,-0.027287604,-0.042549253,-0.066002086,0.012608857,-0.049406547,-0.058730364,-0.025097594,-0.021155393,-0.019693945,-0.0571555,-0.04888108,-0.050763812,-0.06143875,-0.06270062,-0.030884182,-0.03098686,-0.052695815,0.016178494,-0.03773865,-0.053856794,-0.02682801,-0.036484174,0.006628321,-0.050732203,-0.035988756,-0.0031658309,-0.039988603,-0.050799526,-0.06915445,-0.047015954,-0.047906578,-0.07891794,-0.00025209822,-0.05157375,0.024818651,-0.051799234,-0.012835687,0.007934868,-0.051029768,0.00093971816,-0.03779989,-0.068900846,-0.0023265094,0.024235222,-0.04691687,-0.06501897,-0.05015888,-0.040161368,-0.038378675,-0.045612685,-0.03658774,0.017207708,-0.010762691,-0.04068181,-0.04293668,-0.035870362,-0.029539159,-0.052777536,-0.059735358,0.03614593,0.012408825,0.030862655,0.005671064,0.009432081,-0.00027298872,0.012489999,0.024269795,0.034924302,0.020459527,0.008749119,0.028816076,-0.00145318,0.019024547,0.0099203205,0.02066763,0.014551164,-0.002599055,0.009052448,-0.01155928,0.02974678,0.02077137,0.020640023,0.0145407235,0.0032189006,0.004818361,0.016054623,0.025065443,0.016322035,0.031114044,-0.0018542322,0.025087325,0.046589486,0.028847344,0.031981584,0.0049405284,0.02355655,0.03192242,0.008991133,0.019567568,0.03329298,-0.003598775,0.031078573,0.0105513595,-0.004859292,0.014819088,0.03823386,0.010995504,-0.007786239,0.028198598,0.020721273,0.024666449,0.031082317,0.019704131,0.020836055,0.022039577,0.018950565,0.0142111685,0.022359759,0.033212718,0.026103163,0.009021683,0.004573676,0.014708933,0.014385679,0.036401566,-0.0014528198,0.006041341,0.0011970984,0.009846758,0.006988839,0.0053752265,0.028105523,0.00042627222,0.03820539,0.0029647488,-0.001684376,0.01818656,7.323542e-05,0.009168491,0.010137537,0.031183176,0.013803827,0.0042610997,0.013978117,0.026270991,0.027937997,0.0024324998,0.01830098,0.019984564,0.026609875,0.027109345,0.036407404,0.020817189,0.017796844,-0.010345697,0.028159497,0.03868324,0.018602863,0.009003132,0.019674607,0.0186475,0.013934632,0.03211798,0.025770439,-0.010041648,0.00022077306,0.03864778,-0.0013042943,0.019400936,0.033335004,0.029316075,0.022773856,0.018494325,0.017580329,0.008322308,0.012353863,0.011559128,0.027147675,0.039371233,0.023525422,0.031284496,0.017268768,0.025579648,0.013960882,0.02837496,0.038751435,0.031675033,0.0031504456,-0.0045269565,0.021346485,0.024343789,-0.00069163967,0.0006687571,0.013373571,0.03543471,0.01663551,0.03127507,0.033662736,0.018884342,0.014544229,0.015258055,-0.010330239,-0.024057727,0.007737575,-0.0016522495,-0.014317423,0.008761177,0.013357198,0.018035877,0.033698205,0.014526512,-0.0076375394,-0.022790795,0.0050388416,0.00633249,0.0008337643,0.029164108,0.0056191413,0.020219514,0.021039518,0.034320157,0.021716889,0.010763661,0.035117384,0.011547505,0.011853376,0.022378633,0.006839288,-0.006050001,0.019001326,0.017028363,-0.009992095,0.008960912,0.041889887,-0.024285387,-0.004709841,0.020589842,0.008519482,0.046092793,0.005596883,-0.016835347,0.028457766,0.026353115,0.02368138,0.009759984,0.032085344,0.025687717,0.030575138,0.03552653,0.0078982515,0.03387799,0.0074523473,0.03612834,0.0049752104,0.007889537,0.014053406,-0.0032433493,-0.0007860832,-0.0022016938,0.010483083,-0.011020835,0.014170704,-0.010424218,-0.020605579,-0.005171641,0.003937492,0.023404023,0.032492224,-0.0027210726,0.024270121,0.011005421,0.012782676,-0.01236476,0.024620043,-0.012280508,0.02184608,-0.0039798566,0.014427102,0.0056359726,0.0020058737,-0.0058597066,0.013889183,-0.002392703,0.014357909,0.0150895165,-0.006452588,0.02710138,0.020524502,0.01706948,0.020008313,0.01761799,0.02516016,0.018808788,0.01779406,0.03227359,0.014292915,0.023169475,0.015861943,0.019561565,0.01254248,-0.0021775728,0.030524217,0.015247361,0.0102758985,0.016964566,0.019517498,0.017770356,0.019168966,-0.0017387563,0.019391045,0.028565917,0.0041520377,0.026654238,0.033538826,0.013998141,-0.05768479,-0.043894093,-0.064018615,0.029180814,-0.053131256,-0.055744145,-0.012193361,-0.07061757,-0.058744766,0.040932946,-0.000109603905,-0.08378877,-0.027991528,-0.006864643,-0.0390107,-0.029200498,-0.049414147,0.010512484,-0.02910449,-0.011666129,-0.056597784,-0.044519294,0.021058258,-0.051860154,-0.043894373,-0.022139842,-0.0021312598,-0.0653305,-0.05861024,-0.07175687,-0.02628082,-0.06422086,-0.066605,-0.062296305,-0.06916498,-0.06464542,-0.052841228,-0.06874932,0.026261922,0.041193888,-0.033814766,-0.0153671075,-0.06827308,0.0056251325,-0.01789785,-0.053218592,0.02762205,-0.019277474,-0.029204179,0.028439576,0.001879221,-0.073889844,-0.07524725,-0.003173721,-0.06072875,-0.049878836,-0.064407974,-0.033808015,-0.053198006,-0.054918837,-0.046120733,-0.052109346,-0.03103938,-0.06664232,-0.05789048,-0.07185267,-0.01912934,-0.041942023,-0.034500714,-0.030713309,-0.061811157,-0.05937136,0.036710214,-0.056548644,-0.062079825,-0.047345944,-0.012688493,-0.01293589,-0.020227417,-0.052845716,-0.066157445,-0.037882447,-0.057829283,-0.030460665,-0.05045236,-0.051373925,0.0016270941,-0.03422545,-0.06323746,-0.037478335,-0.03227997,-0.0064169336,-0.07017257,-0.029100673,-0.01889172,-0.05637044,-0.05033786,-0.047986217,-0.048288126,-0.05803267,-0.06362314,0.014458604,-0.043160632,0.022238253,-0.07350391,0.002071006,0.023144824,-0.056822013,0.0097022755,-0.0509727,-0.05804696,0.01647664,0.010554164,-0.038599208,-0.066307716,-0.042201396,-0.049508207,-0.04087827,-0.055276133,-0.053951733,0.021952959,-0.009996925,-0.053848702,-0.026079478,-0.042229574,-0.057463422,-0.06220862,-0.031532742,-0.047496807,-0.03696271,-0.037227478,0.002510856,-0.059436735,-0.05564517,-0.027262893,-0.05238315,-0.06088848,0.027764568,-0.0019216434,-0.06674013,-0.021247208,0.0054224445,-0.033402555,-0.031155469,-0.052128896,0.0087612225,-0.025681192,-0.034523625,-0.040628787,-0.032782473,0.027438827,-0.045086578,-0.02800089,-0.013083769,-0.012029084,-0.086248465,-0.05585716,-0.06368461,-0.031853456,-0.07566928,-0.051149398,-0.06320562,-0.047840502,-0.05137672,-0.06824511,-0.059764575,0.008379903,0.02018116,-0.034228932,-0.010521918,-0.049854327,-0.00071432686,-0.0062400415,-0.04831064,0.004013188,-0.023606233,-0.030184472,0.02845614,0.01073712,-0.08085633,-0.04719724,-0.01405257,-0.06491767,-0.064454995,-0.052676234,-0.041746214,-0.05272655,-0.06463337,-0.06471481,-0.04710359,-0.042617273,-0.06949197,-0.056245122,-0.05110617,-0.034600902,-0.039367452,-0.018509677,-0.03745742,-0.031394698,-0.057473946,0.017811835,-0.06062081,-0.046343498,-0.015398646,-0.02445531,-0.028235532,-0.051928684,-0.036470443,-0.057212677,-0.03663682,-0.0501203,-0.040150892,-0.06894109,-0.050053436,-0.015648037,-0.04714422,-0.06767173,-0.054787077,-0.028988143,0.013094095,-0.035043444,-0.039328225,-0.004663685,-0.06892597,-0.066492185,-0.054001685,-0.0779335,-0.04850004,-0.07514476,-0.002674377,-0.0630217,0.028056279,-0.033732973,-0.010964463,-0.0016753385,-0.046500996,0.0014365243,-0.046579987,-0.052951433,0.009020605,0.015597528,-0.033664938,-0.056135375,-0.03496046,-0.046719365,-0.052970264,-0.05590423,-0.053430364,0.0022937597,-0.04164872,-0.0396225,-0.049883608,-0.04303951,-0.05429158,-0.056578442,-0.046690356,-0.047554657,-0.037249964,-0.05265755,0.015000023,-0.04751098,-0.03997095,0.0006020276,-0.04802745,-0.045325298,0.0047315955,-0.010206855,-0.073826596,-0.023822414,0.016500723,-0.020293431,-0.034490548,-0.05608327,0.0048757195,-0.015938396,0.009191313,-0.052698694,-0.055785187,0.030764041,-0.0584396,-0.020782944,-0.01597126,-0.0056005046,-0.05871476,-0.050117176,-0.06450792,-0.017317006,-0.04237358,-0.06703441,-0.06469731,-0.046589293,-0.045864344,-0.08498358,-0.048210267,0.022046393,0.013879974,-0.048357382,-0.03331002,-0.04376475,0.015533587,-0.020444104,-0.047049187,0.016456112,-0.030170802,-0.035628133,0.013620235,0.019377021,-0.068375096,-0.059225284,0.018771749,-0.044953186,-0.048344642,-0.06844766,-0.03697417,-0.04098997,-0.053829618,-0.06910332,-0.048525847,-0.028986588,-0.059644457,-0.034798533,-0.06273778,-0.01528354,-0.049781833,-0.026682273,-0.0322844,-0.036220226,-0.05228152,0.021376962,-0.042511206,-0.05718751,-0.00783613,-0.029788613,-0.026744898,-0.053960036,-0.039194673,-0.048986614,-0.056412768,-0.044227973,-0.06671962,-0.04422513,-0.0562427,0.01579026,-0.043590643,-0.05007917,-0.05069213,-0.036289506,0.004603345,-0.018282492,-0.04851972,0.006286339,-0.050892603,-0.06255621,-0.046594407,-0.027132701,-0.047390357,-0.062288824,0.0010005401,-0.057122126,0.02736058,-0.042995106,-0.033524644,0.022811681,-0.05742173,-0.010640242,-0.048203435,-0.045215648,-0.007134818,0.043858543,-0.043997794,-0.03563931,-0.04349367,-0.046827696,-0.052297615,-0.07051967,-0.06295249,-0.004477808,-0.04322915,-0.055876352,-0.028005162,-0.056004193,-0.04746335,-0.0509013,-0.03629612,-0.031689916,-0.035771072,-0.025922665,0.008108321,-0.02897283,-0.04339839,-0.00080697244,-0.021878332,-0.020766165,0.015427565,-0.012717798,-0.022877282,-0.03049685,0.0041538994,-0.03293905,-0.02640272,-0.05753507,-0.008317932,-0.0077135265,-0.0026361889,-0.026549106,-0.03918455,0.02821002,-0.03221132,-0.028524842,-0.02575852,-0.017884329,-0.050852116,-0.046417285,-0.0377534,-0.031304035,-0.04369969,-0.04077935,-0.03439317,-0.02666644,-0.02718324,-0.042477176,-0.020523619,0.009395118,0.014274814,-0.037799966,-0.028210675,-0.047188394,-0.009258124,-0.0081744725,-0.034421373,0.0097974865,-0.02073549,-0.028407335,0.011842731,-0.008127174,-0.042204663,-0.029386364,-0.012666697,-0.036624614,-0.035501983,-0.03270112,-0.035558686,-0.03748094,-0.038948372,-0.042689506,-0.03990571,-0.035752915,-0.017840425,-0.047670133,-0.034319866,-0.032375846,-0.04246928,-0.021976843,-0.038210623,-0.028950509,-0.03638954,0.017711893,-0.03932239,-0.018519577,-0.033193674,-0.015387955,-0.024278868,-0.041093454,-0.0159665,-0.0546535,-0.028836241,-0.03508076,-0.040658113,-0.03573989,-0.042377785,0.00050053274,-0.03261014,-0.033144075,-0.023725582,-0.04674695,0.0147816455,-0.039027784,-0.034112383,-0.00017854886,-0.030024914,-0.034511898,-0.041445866,-0.034215823,-0.051125154,-0.04618218,0.0029055802,-0.03245918,0.005835673,-0.036116265,-0.018297618,0.01283116,-0.029379435,-0.010547964,-0.0388298,-0.038881026,0.013987161,0.026990298,-0.02210882,-0.023947187,-0.070167236,-0.022977015,-0.04789469,-0.035811476,-0.03573348,0.0052499673,-0.035039548,-0.022646643,-0.032357592,-0.044771258,-0.043983646,-0.049059488,-0.011325429,0.02781648,0.018475657,0.02749443,0.024369793,0.032951873,0.03519461,0.022145955,0.049144942,0.015849452,0.011130626,0.022468306,0.040670015,0.0015430681,0.020679852,0.015576485,0.009929399,0.020063195,0.0021520443,0.010825346,0.0031843854,0.042145446,0.028178057,0.016161703,0.034624916,0.022097878,0.013258811,0.017266907,0.033317745,0.030312693,0.024745919,0.011678818,0.03740747,0.042012308,0.05586631,0.033720396,0.045976985,0.04213585,0.026834477,0.0038697121,0.01761074,0.027324773,0.013822144,0.030523887,0.008498416,0.0034869357,0.02985118,0.023323618,0.0048055486,0.021313911,0.011204622,0.0016869099,0.047325365,0.026594656,0.0151244765,0.044159975,0.020914493,0.053072505,0.028821886,0.053505052,0.026958136,0.022018006,0.039232325,0.010525615,0.051251836,0.020892983,0.026032468,0.0024560858,0.028347855,0.005710464,0.024890883,0.0043427516,0.023532983,0.0034603747,0.023381025,0.037702125,0.009153598,-9.883167e-05,0.02335358,0.021962166,0.041348774,0.03793363,0.026991028,0.038476825,0.029441267,0.035408553,0.025721703,0.004192076,0.019162184,0.03774695,0.014499568,0.024274789,0.0190302,0.031062666,0.030135313,0.025919877,0.02143817,0.04322665,0.025271984,0.03196574,0.056883294,0.032417513,0.016140582,0.024915747,0.031536527,0.031390995,0.027463125,0.016060265,0.035033792,0.019135583,0.040800326,0.026521062,0.026457664,0.032140873,0.020717775,0.01923336,0.014528077,0.02491952,0.03813968,0.006688199,0.029863805,0.02210395,0.0029278118,0.031485528,0.033605244,0.036614437,0.020762518,0.0451864,0.033953827,-0.063818395,-0.020077463,-0.042941913,0.010129924,-0.047608458,-0.05008875,-0.01704077,-0.07234548,-0.03241299,0.03246294,-0.0027668236,-0.057048187,-0.023095753,0.0026733056,-0.03817553,-0.025245838,-0.05265291,0.017489608,-0.01843677,0.0042214002,-0.054851193,-0.0582912,0.020949114,-0.025794733,-0.01704585,-0.013303802,-0.0111220125,-0.045139886,-0.04078197,-0.05072729,-0.019641718,-0.04973328,-0.05211562,-0.049304165,-0.044408727,-0.070063695,-0.05456438,-0.082203805,0.025882581,0.010358147,-0.051254787,-0.028448474,-0.049050953,-0.0019787722,-0.03329396,-0.03703633,0.016329763,-0.028263716,-0.019999513,0.008034486,0.011604614,-0.06503157,-0.057205882,-0.0080734,-0.048981488,-0.062576525,-0.03242581,-0.041650683,-0.046073712,-0.05737179,-0.0657724,-0.056318346,-0.03818741,-0.049029928,-0.051525645,-0.058561433,-0.019626468,-0.05479797,-0.037896935,-0.05979427,-0.03615895,-0.061730027,0.010092111,-0.064069286,-0.050866336,-0.032657675,-0.03466061,-0.011113171,-0.040367313,-0.043343168,-0.0518635,-0.065079525,-0.07701938,-0.06328749,-0.068551704,-0.02905531,0.0068316306,-0.015197081,-0.05716209,-0.056611933,-0.05457655,-0.008197533,-0.058919042,-0.0428785,-0.00088421645,-0.0433672,-0.076496445,-0.03558208,-0.052746892,-0.05111152,-0.056823555,-0.0072660143,-0.060905453,0.031522896,-0.07418028,-0.0068044574,0.0374719,-0.04360414,-0.0013536605,-0.05424161,-0.05390586,0.01105357,0.024128594,-0.050478444,-0.070904575,-0.043607768,-0.024546515,-0.030577984,-0.04285868,-0.0494682,0.008877444,-0.015254299,-0.07142122,-0.04987828,-0.031633087,-0.066946276,-0.060965486,-0.0488241,0.010386641,0.0041160327,0.015061586,-0.0024646278,0.043543488,0.018388255,0.008330401,0.043993514,0.019700646,0.01723375,0.013351003,0.027014246,-0.0072326413,0.025277155,0.0201341,0.007411493,0.024103971,0.0044350773,0.014277509,0.0113858795,0.033283338,0.010295968,0.024916247,0.014523663,0.019431807,0.00082817615,-0.0056737154,0.020911468,0.014264321,0.020471068,-0.011804465,0.029391857,0.033582665,0.034335285,0.014951983,0.046014443,0.03570134,0.04355089,0.0070267688,0.042573076,0.0117198145,0.011848205,0.0020919011,0.0051674,-0.0062525757,0.026197568,0.01604582,0.007794428,0.016356613,0.017949652,0.013469118,0.040798496,0.0042444393,0.015714578,0.028852277,0.041242488,0.030138738,0.011368037,0.034496937,0.017346634,0.018369518,0.017508384,0.013336869,0.03131235,0.010883231,0.025480445,0.010545498,0.022006042,0.011513637,-0.0002671822,-0.008477437,0.027762784,0.017378299,0.0049753627,0.033224262,0.005407728,0.01105885,0.0048140683,0.048944283,0.023374772,0.021325922,0.025662774,0.006885039,0.040006213,0.03638579,0.03057011,0.035407886,-0.0051018368,0.011081502,0.030668663,0.03693762,0.021976365,0.031034129,0.02112875,-0.0125616,0.02058079,0.052939065,0.021576293,0.02453822,0.020700967,0.042057045,-0.0076402333,0.025132976,0.009634112,0.030445691,0.028685322,0.007986494,0.0314784,0.003319173,0.0196721,0.03664957,0.0031450766,0.023304487,0.024175815,0.039533846,0.0063585993,0.0101794945,0.0352904,0.012296987,0.03539098,0.02430708,0.0072754608,0.022357745,0.022225052,-0.0030263837,0.026316486,0.035359345,0.022374043,-0.055008635,-0.038145572,-0.06056047,0.022947308,-0.050746966,-0.05008411,-0.008967592,-0.06693439,-0.035613064,0.008473258,-0.0096330065,-0.07855282,-0.0079984125,0.00042704225,-0.038622938,-0.026938498,-0.07250989,0.016782643,-0.010263954,-0.01017942,-0.06306337,-0.06024948,0.035427205,-0.053573083,-0.023264017,-0.028957957,-0.0036928046,-0.0655344,-0.06395867,-0.089087434,-0.021193253,-0.06151357,-0.06363032,-0.06063338,-0.04780383,-0.0578426,-0.061572198,-0.05079067,0.024791447,0.016585663,-0.044719446,-0.040143408,-0.053314276,0.00060541794,-0.02836774,-0.027447917,0.03282193,-0.033204358,-0.024648428,0.010971579,0.008090476,-0.06895291,-0.0572833,0.002487415,-0.061707247,-0.06785188,-0.03580906,-0.0291598,-0.070165,-0.05982677,-0.049775947,-0.060437433,-0.030990865,-0.054139517,-0.044460338,-0.062107433,-0.039655328,-0.04031142,-0.04455606,-0.03926051,-0.041677933,-0.05720838,0.020644557,-0.047774255,-0.06714384,-0.0121506555,-0.021468293,-0.032421943,-0.03869183,-0.037210807,-0.04590558,-0.050107468,-0.05173872,-0.041449744,-0.06418942,-0.05893009,-0.0010924847,-0.035569884,-0.053551424,-0.041891046,-0.05908225,0.009580951,-0.067369424,-0.036552317,0.003387333,-0.055549998,-0.057494655,-0.05401589,-0.052928697,-0.046886355,-0.05362944,0.009754709,-0.050021935,0.032534722,-0.07136628,-0.021478292,0.031549174,-0.04792604,-0.0075395526,-0.0446663,-0.049935266,0.017040167,0.033173162,-0.03175984,-0.058288485,-0.03643442,-0.044188816,-0.038924,-0.045388024,-0.04646201,-0.0021017098,-0.018623438,-0.052850105,-0.038014572,-0.051629413,-0.04815527,-0.06987645,-0.03478342,-0.025957564,-0.037701465,-0.03196853,0.012153789,-0.064967714,-0.027450563,-0.019343661,-0.04002775,-0.041089397,0.021301372,-0.019893266,-0.054765925,-0.024062162,0.023699395,-0.023877705,-0.034151684,-0.048128054,-0.0011312409,-0.005093792,0.0029250088,-0.036005463,-0.02675156,0.017039374,-0.048803717,-0.05595162,-0.038962986,-0.02372922,-0.047479577,-0.047500744,-0.049946032,-0.019904647,-0.03875338,-0.034125485,-0.051255167,-0.04239714,-0.057406224,-0.050346527,-0.045603994,0.008015539,0.016322605,-0.03878932,-0.014284274,-0.054281842,-0.016372824,-0.024693713,-0.038689088,0.010110106,-0.027623279,-0.032925922,0.013470596,0.001368706,-0.0501525,-0.04327298,0.0035741422,-0.051702894,-0.04579013,-0.06818927,-0.041942842,-0.035977386,-0.048898075,-0.051626597,-0.038583774,-0.045434598,-0.045012537,-0.047085866,-0.04400313,-0.043681018,-0.0530612,-0.027630534,-0.048448883,-0.023114474,-0.022831846,0.021356389,-0.047642507,-0.034091935,-0.010044179,-0.034669746,-0.035740122,-0.06172434,-0.040481236,-0.05228065,-0.052122857,-0.032257877,-0.027394878,-0.056288462,-0.037855845,-0.0016523347,-0.04433568,-0.03891842,-0.028598784,-0.022910338,0.01446684,-0.04245431,-0.04494963,0.018663919,-0.061054315,-0.029411709,-0.042849,-0.029287789,-0.039743904,-0.03133767,0.001619469,-0.027273009,0.018893607,-0.03195281,-0.01398738,0.02833218,-0.052860897,0.005750183,-0.03474569,-0.049434792,0.013444378,0.0090179285,-0.027932985,-0.027588155,-0.075044535,-0.03558033,-0.04868226,-0.022620441,-0.043313857,-0.021360764,-0.024958668,-0.058201257,-0.051100597,-0.035619456,-0.07031828,-0.051665083,-0.040563896,-0.0542998,-0.031471774,-0.051839247,0.005903817,-0.06938756,-0.04084386,-0.0036172855,-0.07869701,-0.047192615,0.021992039,-0.00797012,-0.05755463,-0.012520791,0.01315866,-0.02214121,-0.029945536,-0.054555107,0.015368626,-0.013435578,-0.0094272755,-0.09157541,-0.04507892,0.033146992,-0.06149987,-0.012034457,-0.0393168,-0.023510758,-0.07064134,-0.06925544,-0.08805454,-0.026573345,-0.06831447,-0.0500692,-0.06977422,-0.059823778,-0.058625553,-0.07763385,-0.063592285,0.013177241,0.012683268,-0.05914594,-0.024098253,-0.06365413,-0.0056511234,-0.013866826,-0.045119192,0.010445219,-0.03933541,-0.03829328,0.026247328,0.0057660616,-0.09459692,-0.065824896,-0.0076046702,-0.07335744,-0.061019372,-0.03303917,-0.018204968,-0.07556289,-0.063453965,-0.05230172,-0.067761324,-0.039701823,-0.05263635,-0.048331283,-0.06365228,-0.023135532,-0.051834267,-0.038695425,-0.045508076,-0.034349866,-0.045377463,0.035942562,-0.06319983,-0.057092823,-0.032912474,-0.013095821,-0.029948857,-0.04197641,-0.055486783,-0.043723535,-0.060919233,-0.05920885,-0.061750047,-0.054998104,-0.052274823,-0.011815168,-0.0280877,-0.068502575,-0.035852164,-0.03335632,0.0070694056,-0.05597464,-0.051411256,0.0004993555,-0.068644345,-0.058628928,-0.059564576,-0.06702679,-0.042415664,-0.08663905,0.00039419744,-0.051311426,0.021338852,-0.054569338,-0.02324756,0.028735742,-0.05986588,0.004329386,-0.045984402,-0.047651887,0.01408657,0.041308712,-0.048131302,-0.063521765,-0.03199133,-0.0497043,-0.050572544,-0.06758317,-0.042810634,0.010606797,-0.007903735,-0.06542371,-0.03588001,-0.053539336,-0.057972122,-0.051173605,-0.047395367,0.014313583,-0.01826194,-0.006718669,0.009081834,0.014757001,-0.0064118737,-0.0019900026,0.008257017,-0.004784284,0.041127596,0.009559836,0.018699788,-0.012732637,0.03572215,-0.01951916,-0.034315307,0.015361222,0.02257806,-0.0187692,-0.0024515705,0.0031108356,-0.0027322406,0.024615038,-0.009905924,-0.0150815835,-0.025222292,0.018998075,0.027138626,0.0027832272,0.009262022,-0.024631351,0.008427728,-0.00014382387,0.024057828,0.010083936,0.0076217027,-0.0005173922,0.0071333917,0.021885343,0.021116937,0.0043267827,-0.005177623,0.00038838832,0.0031863258,-0.0033148287,0.00021400135,0.045385275,-0.018608645,-0.004133569,0.04393665,0.025057945,0.02516136,0.0044523403,-0.0074668536,0.0066581704,-0.0005542016,-0.007217407,-0.004898599,0.022454636,0.022853522,0.01016922,0.009573436,-0.021185888,0.022485206,0.002600721,0.019015681,-0.033965595,0.012821546,-0.015220727,-0.007402787,-0.013103301,0.00088052504,0.041260216,0.007673846,-0.007973624,-0.010324069,-0.028553983,-0.0138649475,-0.016900098,-0.012756868,0.016218474,0.017183067,-0.00039277095,0.0053112484,0.017486861,0.01242085,0.009990609,-0.006627317,0.00556327,-0.010380738,-0.0007869347,0.025348136,0.0057051964,-0.010579818,0.022414202,-0.010618263,0.018880216,0.0028786003,0.0032166576,0.0017019381,0.0212812,0.017854195,-0.015922423,0.043881573,0.009198456,-0.0010197203,0.052524958,0.007228292,0.032323703,0.024151854,0.0097910045,0.026938913,0.03825487,0.0017399638,-0.006175836,-0.011207329,0.000881023,0.0049242075,0.021332327,0.009046881,0.0012531445,-0.03409979,0.00283044,-0.006926516,0.007835391,0.006765576,0.008797981,-0.0075304173,0.038668137,0.023995755,0.057755034,0.0067797294,0.03472273,0.050740983,0.0045319833,0.058478586,0.03353935,-0.01355958,0.002028696,0.054595232,0.0053062164,0.013835069,0.01300899,0.021131437,0.040942755,-0.016762422,0.021026146,0.01512194,0.040349584,0.03725098,0.003961508,0.05721568,0.029525492,0.029131452,0.010843047,0.06977537,0.037900157,0.060791355,0.03103973,0.045645032,0.052435763,0.051608138,0.05971975,0.057843108,0.05624058,0.048380382,0.0033663793,0.013216771,0.040120184,0.021693321,0.03997352,0.024177494,0.01865528,0.036394812,0.020504482,0.029693535,0.023839317,0.021638429,-0.008508928,0.057400182,0.03684407,0.016435053,0.03919376,0.05899611,0.05241281,0.028980983,0.059780627,0.04833422,0.055878162,0.044655804,0.035905283,0.04696693,0.04252559,0.04073154,0.007383977,0.04328231,0.037786078,0.01991446,0.015287929,0.047778502,-0.0004488507,0.035219982,0.04200019,0.01687521,0.016742522,0.015372098,0.026930388,0.053163733,0.046590693,0.051933106,0.049309783,0.045206327,0.066517845,0.047693055,0.016679268,0.008585695,0.052894928,0.040185817,0.032812666,-0.008944988,0.029414952,0.050964236,0.010236641,0.039920747,0.05415922,0.061354384,0.04574736,0.062819116,0.055663317,0.010941793,0.021948611,0.008749562,0.05238193,-0.0001227433,0.022761784,0.051957905,0.016026674,0.042002767,0.06219841,0.014658498,0.0063168528,0.046512183,0.036157776,0.023854919,0.024724772,0.049348287,0.044868845,0.05007006,0.007811674,0.025879782,0.0500452,0.048596594,0.051671382,0.035280194,0.036464784,0.031412017,-0.050034564,-0.038872123,-0.055608477,0.009906185,-0.0589767,-0.045260224,-0.01174112,-0.05845338,-0.038096815,0.040736254,-0.00025399504,-0.04448075,0.0055835163,0.012722262,-0.040367305,-0.033726357,-0.041330636,0.009369847,-0.016648322,-0.011964261,-0.05783606,-0.05083256,0.014612143,-0.07002625,-0.035837855,-0.025266249,-0.018543255,-0.054404475,-0.06016909,-0.0844848,-0.013699361,-0.06771265,-0.043569893,-0.059203163,-0.043205824,-0.049550455,-0.051430717,-0.06784858,0.009276204,0.011934549,-0.0419828,-0.029683469,-0.054556783,0.0019389909,-0.017058369,-0.045124646,0.017503161,-0.029283183,-0.014445292,0.029172698,0.0022031988,-0.07319501,-0.05100587,0.010739678,-0.05348016,-0.041762765,-0.07451197,-0.048970826,-0.052266635,-0.063676715,-0.04558527,-0.048698504,-0.025954125,-0.060973532,-0.04545316,-0.057406176,-0.029730063,-0.04593515,-0.042598408,-0.045819342,-0.04019012,-0.054212883,0.025589043,-0.062038794,-0.049309168,-0.0060145566,-0.038532987,-0.015567325,-0.024737377,-0.046227016,-0.046545193,-0.067028604,-0.046304412,-0.05837656,-0.05074496,-0.01972567,0.0004411668,-0.045474514,-0.0526404,-0.033260074,-0.038358245,0.009067443,-0.06071554,-0.032463282,-0.015635611,-0.041699454,-0.06481919,-0.044061136,-0.054004867,-0.044003643,-0.05447997,0.003000986,-0.041713145,0.022612307,-0.0670621,-0.009926342,0.011987857,-0.07317025,-0.006902202,-0.04521437,-0.052776568,0.00874006,0.044566367,-0.044895887,-0.041725703,-0.032425437,-0.043977425,-0.04689955,-0.07578511,-0.067108266,-0.0020569575,-0.029559972,-0.05719231,-0.035058957,-0.057806578,-0.051438365,-0.04937807,-0.03922745,0.03732983,0.0037026363,0.03117917,0.033274073,0.034602176,0.031856116,0.008655026,0.02898735,0.02808042,0.025847996,0.012616831,0.04982488,-0.0041134926,0.02089223,0.016861957,0.025168957,0.04891846,0.0044175214,-0.00037086313,0.0039429874,0.020941364,0.019009707,0.019451236,0.038658418,0.025076421,0.0381643,0.0043790936,0.032234047,0.034928273,0.038960844,0.029262567,0.05249181,0.027739722,0.030055499,0.032881584,0.041451216,0.0369081,0.037001368,0.032120887,0.036879763,0.022773035,-0.016435685,0.021923553,-0.008936641,0.023508966,0.028111588,0.01937001,-0.0048351698,0.0044065723,0.028005743,0.012978238,0.05012123,0.027356083,-0.013537581,0.030648112,0.023383206,0.01714859,0.019306269,0.020872056,0.053517222,0.019029954,0.032879416,0.03512585,0.05097584,0.04985739,0.047479168,0.005943805,0.02836725,0.016357556,0.006935594,0.023681415,0.030332467,0.024446975,0.016146895,0.0062680957,0.023190234,0.019644676,0.018115235,0.0048086136,0.028945649,0.04949839,0.031250264,0.027460132,0.03226955,0.019794669,0.028148968,0.017086392,-0.009720194,0.04816102,0.026112925,0.02323043,-0.0052887057,0.03893837,0.043329842,0.0045459694,0.02865229,0.053723183,0.039691936,0.029908646,0.036479246,0.038586292,0.0008974968,0.04529417,0.012121177,0.02535169,0.02586876,0.0033676059,0.0355752,0.02609867,0.027733484,0.050664958,0.035957687,0.020995013,0.038054932,0.038305636,0.026806587,0.034708593,0.028101696,0.01801236,0.028359812,0.03372922,0.021181451,0.03242577,0.016053384,0.03394606,0.029636007,0.03614933,0.013533293,0.01612789,-0.0031509793,0.025295964,0.03468645,0.0046222527,0.004309399,-0.027234435,0.022705577,0.017025592,0.035300404,0.014524735,0.029018201,-0.002991118,0.025380569,0.006665542,-0.013102116,-0.0012796605,0.01674795,-0.0008009439,-0.00859731,0.010728871,-0.000279132,0.021973355,-0.015369217,-0.012680728,-0.006852442,0.007423264,0.013439032,0.030013615,0.020098006,-0.016045557,0.013118388,0.020582503,0.015404049,0.0020664656,0.008332871,-0.005477834,0.012833802,0.029665453,0.02630726,0.0037736618,-0.010913093,8.4256164e-05,-0.004894692,-0.015978264,0.006359255,0.016902143,-0.006986974,-0.015266997,0.026182698,0.026652299,0.030442119,-0.010027528,0.0051481677,0.011077932,0.0035280392,0.013115844,-0.0049167057,-0.0044241017,0.008660775,0.024610484,-0.0004861872,-0.016096493,0.012593134,-0.0043143323,0.011761356,-0.022821523,0.013320114,-0.009453592,-0.040385213,0.00024404438,0.026070401,0.028304078,-0.0047313063,0.0097479485,-0.008188223,-0.00069689396,0.002222679,0.0045445235,-0.0022529862,0.007187606,0.013412323,-0.0028030134,0.0040015546,-0.013599872,0.0039577563,0.013320455,-0.014374445,-0.0028940313,-0.014439258,-0.008159729,0.030172907,0.011835337,0.003201802,0.009546198,0.010039493,-0.001150524,0.005030372,0.013016261,0.011306342,0.018278519,0.00874771,0.003876057,0.027507767,0.0028521416,-0.006316996,0.019848404,0.0057476945,0.0020192922,0.0016129052,-0.0008758458,0.026879728,0.037900608,-0.0022702485,-0.008926133,0.007316172,0.008340215,0.015533322,0.004788435,0.0050511006,0.018333094,-0.020960765,-0.00070634205,-0.0016574834,0.0048746443,-0.008409186,0.012550158,0.013741555,0.0067324564,-0.028239673,0.013307563,0.02224729,0.008914881,0.0054116207,-0.025893595,0.015890993,-0.0033123353,0.037308186,0.014753295,0.012231681,-0.010148436,0.02658327,-0.040060624,-0.032876093,-0.008346096,0.023010204,-0.01464574,-0.01055282,0.011558098,-0.0033071171,0.033670448,0.0028566588,-0.02257264,-0.03572762,0.020405019,-0.0078097093,0.014523179,0.0067944895,-0.012507049,0.009955134,-0.01773337,0.028262632,-0.016999887,0.0051921564,0.01420825,0.013285603,0.021623535,0.021657493,-0.0062705493,-0.017861286,-0.0023148295,0.007147399,-0.01810818,0.009946643,0.042974267,-0.030723039,-0.030680286,0.050960835,0.02421408,0.0048195934,0.0032683162,0.021652237,0.0013157711,-0.004144803,0.0010449159,-0.030482369,0.020437544,0.009194272,-0.009421112,0.0064571574,0.000606684,-0.0004784103,0.006759109,0.01730321,-0.020092666,0.009771736,-0.01677038,-0.0026049006,-0.022656174,0.015128229,0.042545203,-0.0113239,-0.017948253,-0.027068634,-0.012626238,-0.017904019,0.0035070225,-0.021077856,-0.007815155,-0.01213342,0.01400716,0.0051904325,0.003876092,0.0096263215,0.023420505,-0.01104498,0.01755041,-0.024678696,-0.004143028,0.02279713,0.0068777646,0.005159481,0.002805422,-0.006076846,0.0058638863,-0.00097156205,-0.0112009635,-0.0010357426,0.004990723,0.01814166,0.0042466214,0.028154382,0.008333235,-0.0072336136,0.030045746,0.0034325959,-0.008494295,-0.0041795406,0.0006571502,0.042411514,0.044081107,0.0010752341,-0.0039359024,-0.007207547,-0.023424849,0.019614153,0.02045199,0.002903432,0.02089297,-0.016605906,0.009911811,-0.004706567,-0.021123864,0.012657388,0.0024834673,-0.0020204675,-0.048975866,-0.021527,-0.036134683,0.018662654,-0.026567841,-0.019825226,-0.015069821,-0.03341915,-0.0522734,0.020023227,-0.010623928,-0.02842751,-0.019414047,0.021829437,-0.008542922,-0.04768848,-0.05887426,-0.0006845133,-0.010728068,-0.008969283,-0.017188167,-0.042389292,0.021584561,-0.0453688,-0.04411084,-0.041593987,-0.022632381,-0.036232706,-0.044392314,-0.02543819,-0.02813483,-0.02106441,-0.030440276,-0.03280037,-0.045672916,-0.03329386,-0.023748325,-0.04258973,0.017029313,0.035196006,-0.047227386,-0.024107635,-0.047810685,-0.021766258,-0.03675307,-0.027609274,0.0060630096,-0.04535053,-0.04646262,0.007937641,0.018718028,-0.026362611,-0.03208805,0.00888249,-0.049022358,-0.029302053,-0.05567787,-0.022106964,-0.029892774,-0.04428914,-0.012315908,-0.047093246,-0.05556461,-0.03924624,-0.02666764,-0.0269884,-0.044458147,-0.024402283,-0.03668985,-0.031634636,-0.039085604,-0.024644064,0.013949482,-0.023874106,-0.046936054,-0.011480365,-0.014965136,-0.017495029,-0.027452273,-0.039684102,-0.03143996,-0.023132727,-0.04475757,-0.01488221,-0.038936403,-0.02775146,0.020342741,-0.036681853,-0.039661575,-0.041687578,-0.046742924,0.011264252,-0.05427917,-0.033221632,0.004015458,-0.005482596,-0.0395931,-0.03710348,-0.027766133,-0.036824547,-0.021675307,0.0008309394,-0.0171696,0.032254696,-0.038741115,-0.030497223,0.008518587,-0.039908964,-0.017099371,-0.017680084,-0.06136154,0.010337593,0.009331386,-0.046445586,-0.028331902,-0.035308726,-0.046896704,-0.05154195,-0.03668502,-0.023901755,-0.002809669,-0.015059951,-0.060343158,-0.039876163,-0.030772839,-0.037390437,-0.050503023,-0.025712859,0.04677233,-0.0060697612,0.02937879,0.024510808,0.042970542,0.040483467,0.0010551203,0.036989816,0.028143672,0.011311454,0.0053278543,0.04039595,-0.0049208985,0.0027717014,0.030316934,0.041007806,0.038272277,-0.0013653948,0.011558086,0.01123113,0.030236656,0.029476618,0.011776618,0.021248952,0.017585177,0.013907945,0.0016008193,0.054717287,0.051515684,0.05978088,0.0075433855,0.055810817,0.0282496,0.039759688,0.015568977,0.041615658,0.05607876,0.030151494,0.013599464,0.018539885,0.045112997,0.017267331,0.051103774,-0.0058950214,0.008602201,0.032387204,0.0035384244,0.01416311,0.009498396,0.015867852,0.016741455,0.055535045,0.029168263,0.008952268,0.026600437,0.06016188,0.05462334,0.021811713,0.049568526,0.04654361,0.060064927,0.049063116,0.03187022,0.048921514,0.04026053,0.024323884,0.016877731,0.03783071,0.011499462,0.031386826,0.023958977,0.033830285,0.01786561,0.027453328,0.04852497,0.0155681325,-0.00096445455,0.0151013825,0.04455445,0.038691375,0.03924832,0.060248446,0.04680331,0.0340494,0.023920104,0.025707345,0.005190771,0.0058023087,0.04093092,0.033592425,0.023272637,0.00645703,0.052562177,0.017411705,0.0068571647,0.039284524,0.040271368,0.029574046,0.059708983,0.038776167,0.048936736,0.010106967,0.042784765,0.010285746,0.040909562,-0.0073854714,0.0012356711,0.03138526,0.008880163,0.039497696,0.038449902,-0.003908927,-0.0016000635,0.047698114,0.029706571,0.038942866,0.043122903,0.03467054,0.075264126,0.03810115,0.0064051906,0.022063527,0.026358241,0.02779253,0.04465487,0.05217245,0.041928872,0.03159799,0.020183174,0.028172472,0.034726705,0.0023884808,0.04522203,0.043223016,0.016284902,0.035836544,0.04083547,0.02360604,0.0023094204,0.051921517,0.019512204,0.025864167,0.010476499,0.020921418,0.036002837,0.0013459513,-0.00019901973,0.0054423995,0.050189566,0.039877255,0.012729588,0.034910116,0.03207235,0.025323011,0.026506795,0.050992448,0.03525007,0.057411764,0.018015014,0.043561984,0.03285759,0.042157046,0.047265038,0.05337588,0.038538467,0.045356385,0.000522122,0.011423538,0.031812534,0.011312078,0.04722516,0.018545076,0.0055278977,0.04027479,0.020280026,0.02837529,0.019176152,0.007217364,0.008721986,0.033591084,0.055103756,-0.014380867,0.04335531,0.048129164,0.041050628,0.028664855,0.053545084,0.050755635,0.03851263,0.035968285,0.04415237,0.048491813,0.04800091,0.041749127,0.015920408,0.049064893,0.03499634,0.029852593,0.021664353,0.045652308,0.020037653,0.03328264,0.0223135,0.0056618783,-0.0048604817,0.040186647,0.031322278,0.027381543,0.037450526,0.03523605,0.04378783,0.03890763,0.04324082,0.020621022,0.00114679,0.032637216,0.031202411,0.019387666,0.021830905,0.012506392,0.03601865,0.026421001,0.0032759025,0.04184032,0.049852278,0.02586771,0.038742114,0.06050235,0.052013427,0.0051022093,0.038441364,0.005867066,0.039189707,0.021486985,0.014928839,0.03047755,0.022065982,0.048759088,0.022965277,0.0026984408,0.017346136,0.034284387,0.036257733,0.038002923,0.017601807,0.02444138,0.060290854,0.025256919,0.01373766,0.029279118,0.03674714,0.03361322,0.037886176,0.050108504,0.046437886,0.04193445,-0.032012485,-0.021237673,-0.035461143,0.0035697278,-0.027741576,-0.05659686,-0.023439774,-0.016367106,-0.025158342,0.02275265,-0.014415388,-0.03051183,-0.007213257,0.009294092,-0.018562354,-0.015780738,-0.037116136,-0.004213084,-0.017674824,-0.012943706,-0.038052198,-0.015300129,0.02129499,-0.015810775,-0.029810842,-0.020794274,-0.0036170925,-0.04229095,-0.03538229,-0.03430603,-0.02522128,-0.0294285,-0.04186717,-0.013669916,-0.055575702,-0.028485185,-0.0040598637,-0.036843557,-0.009766359,0.0011862132,-0.045185342,-0.033053137,-0.03175068,-0.0014578049,-0.014644494,-0.06537598,0.0057339217,-0.017827509,-0.020317167,0.029816184,0.011621452,-0.04196354,-0.040796522,-0.0013058417,-0.045976102,-0.037871834,-0.042569324,-0.035198737,-0.038804118,-0.024684004,-0.02400963,-0.038149048,-0.026645398,-0.023573996,-0.05850076,-0.019831,-0.02416612,-0.049859516,-0.040462606,-0.021162827,-0.03876059,-0.034285914,0.022808416,-0.009700642,-0.029431736,-0.023101747,